{"in_shape": [null, 66], "layers": [{"type": "dense", "activation": "elu", "shape": [null, 128], "weights": [[[0.12185059487819672, 0.0869201272726059, -0.02709891088306904, 0.06648911535739899, 0.10816031694412231, 0.08538798242807388, 0.013501827605068684, -0.04299924150109291, 0.1276547759771347, -0.0779523178935051, -0.06925985962152481, 0.08432100713253021, 0.1705375760793686, -0.10387881100177765, 0.2388129085302353, -0.17007137835025787, -0.1527993530035019, 0.1733284443616867, 0.23160016536712646, -0.16426655650138855, 0.17453649640083313, 0.02940206043422222, -0.1811111718416214, -0.13854476809501648, 0.0648663341999054, 0.11584770679473877, 0.07437226921319962, -0.028823837637901306, 0.01456664688885212, -0.03423529863357544, 0.2401951402425766, -0.07824132591485977, 0.006821315735578537, 0.23238539695739746, -0.14432650804519653, -0.1424085944890976, -0.13861598074436188, 0.15319858491420746, 0.009636687114834785, 0.12263160943984985, -0.19190658628940582, 0.09103991091251373, 0.054090261459350586, 0.13635852932929993, 0.17305128276348114, 0.07210880517959595, -0.016709666699171066, -0.07675257325172424, 0.14401033520698547, 0.1655857414007187, 0.08650447428226471, 0.05156002193689346, -0.06560041010379791, 0.15367823839187622, -0.01513516902923584, -0.06570705026388168, -0.13040554523468018, -0.09279831498861313, 0.1269436478614807, 0.15311579406261444, -0.07944616675376892, -0.19360606372356415, 0.04704887792468071, -0.2393786460161209, -0.013689140789210796, 0.10248275846242905, -0.18626269698143005, -0.17062079906463623, -0.022414343431591988, -0.05939605087041855, -0.05202542245388031, -0.07620726525783539, 0.12714332342147827, -0.09664614498615265, -0.13292370736598969, -0.052151188254356384, 0.16135379672050476, -0.025035541504621506, 0.04189654067158699, 0.11067227274179459, -0.048152856528759, -0.11591953784227371, 0.067833811044693, 0.09428152441978455, 0.1403874307870865, -0.030520986765623093, -0.16551995277404785, -0.054209958761930466, -0.10022080689668655, -0.08781110495328903, -0.024149730801582336, 0.06858353316783905, 0.004267718177288771, -0.24032340943813324, -0.040408339351415634, -0.0952642485499382, -0.18136794865131378, 0.1181035116314888, 0.027474908158183098, -0.12787222862243652, -0.027952758595347404, -0.14939998090267181, 0.055826883763074875, 0.24346545338630676, -0.04079229757189751, 0.09515144675970078, 0.013429949060082436, 0.08378291130065918, 0.06436360627412796, 0.031469814479351044, 0.05425330251455307, 0.1910426914691925, 0.07506557554006577, -0.08991146087646484, -0.020779719576239586, -0.0707145407795906, 0.09896120429039001, 0.05229771509766579, -0.18420720100402832, 0.1388312429189682, 0.14309294521808624, 0.07532481104135513, 0.028467414900660515, -0.07555077970027924, -0.16379742324352264, -0.13148343563079834, 0.08617709577083588, -0.08424865454435349], [0.008992401883006096, -0.17895738780498505, 0.012227874249219894, -0.11812105774879456, -0.25380972027778625, 0.08110057562589645, -0.01239286083728075, -0.07766561955213547, 0.11444111913442612, 0.16532516479492188, -0.04377232864499092, 0.038822900503873825, -0.10648129135370255, 0.08431951701641083, 0.07997878640890121, -0.08701631426811218, -0.1746709644794464, 0.007625173311680555, -0.04087976738810539, -0.12471210211515427, -0.12146619707345963, 0.11944549530744553, -0.013807496055960655, 0.04568684101104736, -0.1896284818649292, -0.06531307101249695, -0.11656846106052399, -0.021356847137212753, 0.0936155766248703, 0.17576071619987488, 0.21763920783996582, 0.19872482120990753, 0.09238215535879135, 0.1323355734348297, 0.0780564695596695, -0.02651301398873329, 0.22522614896297455, -0.06333991885185242, 0.10488880425691605, 0.02202572301030159, 0.13041952252388, -0.18510711193084717, -0.023865601047873497, -0.06351041048765182, -0.07586836814880371, -0.07958674430847168, 0.1632336974143982, -0.11660437285900116, -0.21941368281841278, -0.10841849446296692, -0.02081887796521187, -0.10841468721628189, -3.255354022257961e-05, 0.05795160308480263, 0.14122274518013, -0.19820170104503632, 0.09262041002511978, -0.07584366947412491, -0.04879320412874222, -0.15058448910713196, 0.051818206906318665, 0.05656742304563522, 0.06577096879482269, 0.03669244796037674, -0.06055061146616936, 0.178309366106987, 0.07134459167718887, 0.07919821888208389, 0.12017971277236938, -0.07830462604761124, -0.06735595315694809, -0.04098871350288391, 0.05408400669693947, -0.07227220386266708, 0.12741383910179138, -0.06385080516338348, -0.06810005009174347, 0.23228208720684052, -0.21796004474163055, -0.05423712357878685, -0.1717188060283661, 0.09556413441896439, -0.012487002648413181, 0.15002568066120148, 0.04984026774764061, -0.04815846309065819, -0.205368310213089, 0.19014008343219757, 0.0819365531206131, 0.10004689544439316, -0.14640744030475616, -0.07440319657325745, 0.05449884384870529, -0.12019278854131699, -0.0970507338643074, -0.1013362854719162, 0.04458821937441826, -0.07821071147918701, 0.12950187921524048, -0.017973748967051506, -0.07872403413057327, -0.042818013578653336, -0.23192884027957916, 0.008945806883275509, -0.08968957513570786, -0.13230998814105988, -0.022532964125275612, 0.12331929802894592, -0.006284221541136503, 0.13392765820026398, 0.09791290014982224, 0.21342678368091583, 0.11147886514663696, -0.14243584871292114, 0.16435439884662628, 0.05588933080434799, 0.01805533468723297, 0.1665666699409485, -0.05509432777762413, -0.09114007651805878, -0.08478636294603348, -0.07611564546823502, -0.07333914190530777, -0.175439715385437, 0.1080806627869606, 0.12042863667011261, -0.020654521882534027, -0.08134681731462479], [0.0725317969918251, -0.3904588520526886, 0.1706649661064148, 0.18162654340267181, -0.1972540020942688, 0.013374998234212399, -0.11622551083564758, 0.09573119133710861, 0.27109628915786743, -0.2071887105703354, 0.12845878303050995, -0.23075774312019348, 0.16480226814746857, -0.2925599217414856, -0.03662480041384697, 0.022844741120934486, -0.14868225157260895, -0.2906849980354309, 0.12118027359247208, 0.2988939583301544, -0.28452053666114807, 0.2975092828273773, 0.3926320970058441, -0.11353032290935516, 0.14445538818836212, -0.0881899744272232, -0.09902947396039963, -0.31874024868011475, -0.2431977242231369, 0.2488216906785965, -0.026769837364554405, -0.21955980360507965, -0.011891508474946022, 0.0892106145620346, -0.17171242833137512, -0.19301442801952362, -0.08617032319307327, -0.23139600455760956, 0.06040420010685921, 0.07729284465312958, -0.16185888648033142, -0.29717326164245605, 0.146921768784523, -0.061362139880657196, 0.20603320002555847, 0.02984209917485714, -0.18927545845508575, 0.00721214571967721, -0.14632834494113922, -0.07766884565353394, 0.2664492428302765, 0.12627913057804108, 0.28408318758010864, 0.2434573620557785, -0.14408348500728607, -0.04460785910487175, -0.08259289711713791, -0.07709213346242905, 0.05682171508669853, -0.018874293193221092, -0.04749639332294464, 0.032536666840314865, 0.040808387100696564, 0.17179839313030243, -0.2203841209411621, 0.15913966298103333, -0.019590631127357483, -0.19905909895896912, -0.07202516496181488, 0.14477761089801788, -0.02352691814303398, 0.2925972640514374, -0.3699410855770111, -0.33476394414901733, 0.1664721965789795, -0.4980106055736542, -0.10828657448291779, -0.2762632966041565, 0.325737327337265, -0.18376179039478302, -0.05840618163347244, 0.025031909346580505, -0.07091689854860306, -0.10207140445709229, -0.5193005204200745, -0.07448867708444595, 0.03845682367682457, 0.16295111179351807, 0.16921401023864746, -0.11726066470146179, 0.16536623239517212, -0.16715498268604279, 0.12638874351978302, -0.024552904069423676, -0.21932679414749146, 0.30798354744911194, 0.2873220145702362, 0.021935395896434784, -0.07119344919919968, -0.11366037279367447, 0.037462472915649414, 0.3548785150051117, -0.2630086839199066, 0.21494190394878387, -0.1615484356880188, 0.20998279750347137, 0.4560539722442627, -0.039489518851041794, 0.04464481398463249, -0.0576375350356102, 0.17946961522102356, -0.10868047922849655, 0.07952497899532318, -0.3481079339981079, -0.18088427186012268, -0.11429765075445175, -0.042498115450143814, 0.22030004858970642, 0.12251376360654831, -0.14787228405475616, 0.23135019838809967, 0.2127143144607544, 0.008334171026945114, -0.05097251757979393, 0.024550868198275566, -0.06773731857538223, -0.14804919064044952, 0.07012844830751419], [2.654315710067749, 0.39120644330978394, 1.2043100595474243, -0.9391944408416748, -1.2824087142944336, 0.25094443559646606, -0.3677293658256531, -1.590478777885437, 0.9051304459571838, 1.326584815979004, -2.6864662170410156, -1.469589114189148, 0.592488169670105, -0.3587145209312439, 0.9541290402412415, 0.49251288175582886, 2.283167600631714, 2.303882598876953, -0.8749538660049438, 0.6972973346710205, -0.43004775047302246, -0.15461492538452148, 2.087127208709717, -1.35971200466156, -1.4300537109375, 2.5683393478393555, 0.3055773079395294, 1.2091432809829712, 1.983710527420044, 1.3053596019744873, 1.489591121673584, -0.21440188586711884, -0.1294461339712143, 0.6632266044616699, -0.1874822974205017, 0.9402300715446472, 1.1111563444137573, -2.264164686203003, 1.1104991436004639, -1.143951654434204, -0.7530462145805359, 1.6938729286193848, -0.030907077714800835, -1.9056416749954224, -1.9587153196334839, 0.3269749581813812, 0.2628377676010132, -1.2365556955337524, -1.4117978811264038, 0.6191571950912476, -1.6500141620635986, -1.0345505475997925, 0.8199974894523621, -1.578582763671875, 0.784538984298706, -0.41750457882881165, -0.6851683259010315, -1.5347988605499268, -2.172149896621704, -1.2449393272399902, -0.25532564520835876, -0.5315768718719482, -1.3319724798202515, 1.1377187967300415, 1.8818258047103882, 2.0051138401031494, 0.3028014600276947, 1.1633784770965576, -0.12506109476089478, -0.5379445552825928, -1.128106951713562, 0.47046127915382385, -1.661540150642395, -0.7347258925437927, 0.7365083694458008, 0.4200761020183563, -1.0271443128585815, -0.1299687623977661, -1.3785550594329834, 2.1902074813842773, -0.2906477749347687, -1.2667007446289062, 1.07322096824646, 0.1287621408700943, -1.5605822801589966, -1.83507239818573, 0.14723025262355804, -0.16098754107952118, 2.527094841003418, 2.0166690349578857, 0.9844416379928589, -1.0470166206359863, -1.2932014465332031, -1.8088786602020264, -0.6534375548362732, 1.0326063632965088, -0.009555140510201454, -1.2538000345230103, 2.3555212020874023, -2.266746997833252, 0.8537743091583252, -1.3198269605636597, 0.42090389132499695, 2.5452990531921387, 0.24880506098270416, -2.22865891456604, -0.7939123511314392, 1.611154556274414, 0.729547917842865, -1.7003579139709473, 1.5442217588424683, -2.178076982498169, 2.5938079357147217, -2.057401418685913, -1.2122981548309326, -0.9174624681472778, -1.4681260585784912, 0.5191377401351929, 0.19642877578735352, 1.6178215742111206, 0.5822190046310425, 1.073514699935913, -0.8669596910476685, -0.12617620825767517, 0.7668177485466003, -0.14861705899238586, 1.6862510442733765, 0.9383385181427002], [-0.0781710147857666, 0.2864777743816376, -2.7507619857788086, 0.9851316213607788, -2.010345697402954, 2.2392280101776123, -0.20630162954330444, -1.323028326034546, -1.0162955522537231, -0.2635749578475952, 0.8356056809425354, -1.531718134880066, 0.7826722264289856, -0.6170586943626404, 0.2533649504184723, -0.021582387387752533, 2.471954822540283, 1.6188558340072632, -0.5334668159484863, 0.5950021743774414, -1.3328533172607422, -0.9431154727935791, 2.1397898197174072, -1.835910677909851, -0.6883233189582825, -1.0595048666000366, -0.25474706292152405, 1.5537487268447876, -1.94861900806427, -0.08039912581443787, 0.0749468058347702, 0.3742794990539551, -1.393391728401184, -1.495803713798523, 1.7947592735290527, -0.451425701379776, 0.041130464524030685, -1.5280389785766602, -0.14449988305568695, 1.8424787521362305, 0.8296040296554565, -0.22606781125068665, 1.8794487714767456, 0.5943475365638733, -1.7666702270507812, -0.1983862668275833, 1.0984127521514893, -1.639021396636963, -0.5629292726516724, 1.2497214078903198, -1.5415945053100586, 0.28560250997543335, 1.126448154449463, -0.0034050385002046824, -0.3823207914829254, 0.2576720118522644, -1.038575530052185, 1.3925201892852783, 1.0694910287857056, -0.4039859473705292, 1.0683356523513794, -0.10161709040403366, 1.2655107975006104, -2.3122527599334717, -0.05533679202198982, -3.1270556449890137, 0.8329987525939941, 1.171615481376648, -1.5883705615997314, -2.350125312805176, 0.18987174332141876, -1.4034279584884644, -0.7876935005187988, -1.6643933057785034, 0.3224632740020752, -1.6385339498519897, -0.7250217199325562, -1.309732437133789, 0.6034367084503174, -0.5928276777267456, 1.3223648071289062, 1.9381802082061768, 1.1893223524093628, 1.960353970527649, 0.35453760623931885, 2.4226458072662354, -0.9279255867004395, -1.7155265808105469, -1.208243489265442, 0.6436418294906616, 0.532602846622467, -0.8666648268699646, 2.9133684635162354, 1.5789053440093994, -0.355733722448349, -1.4520598649978638, 1.9643172025680542, 0.8637704849243164, -0.5910218954086304, 1.6838274002075195, 1.9742494821548462, 1.9870835542678833, -0.4818154573440552, -3.5902457237243652, 1.0900436639785767, 0.3349151611328125, -2.0868163108825684, 0.486687034368515, 1.0876058340072632, 0.1101599708199501, 1.196937918663025, 0.06952669471502304, -0.9599171280860901, -0.7623577117919922, -0.2035299837589264, 1.3467926979064941, 2.1756887435913086, -0.2818816602230072, 0.9696897268295288, 0.9399415850639343, -1.2544002532958984, -0.7253045439720154, -0.7106360793113708, 1.189949631690979, 0.23725198209285736, 2.000624179840088, -0.22722287476062775, 1.7716064453125], [-1.033754825592041, 6.728703022003174, -3.426903009414673, -4.678099632263184, 16.236698150634766, -6.159472942352295, 18.175264358520508, 14.595118522644043, -6.900465965270996, -2.4733636379241943, 1.205618143081665, -0.5035579204559326, -13.457283020019531, -6.325196743011475, -6.537808418273926, 18.49146842956543, 17.52933692932129, 6.042998313903809, 13.838187217712402, -15.769111633300781, -1.9252184629440308, 18.458431243896484, -7.750803470611572, 7.831515789031982, 17.635025024414062, -9.198724746704102, -14.01540756225586, -5.647406101226807, -6.606163501739502, -14.107705116271973, 1.2347865104675293, -1.6313709020614624, -11.009421348571777, -0.2636476159095764, 1.503465175628662, -10.377534866333008, -5.725729465484619, 0.1142217218875885, 19.384586334228516, 2.276512622833252, 17.343555450439453, -18.292863845825195, -6.272894859313965, 14.48279094696045, 17.169475555419922, 12.453837394714355, 3.6705825328826904, 12.16055679321289, 1.4827299118041992, -12.471197128295898, -7.474624156951904, -8.191336631774902, -18.22870445251465, -14.964264869689941, 11.388090133666992, -6.1760969161987305, -7.4126482009887695, 9.332518577575684, 14.152515411376953, 20.12954330444336, 4.1489386558532715, -8.827961921691895, -18.623403549194336, -5.070463180541992, -0.01857813075184822, 10.8521728515625, -7.1911091804504395, -12.195008277893066, -5.835665702819824, -6.798077583312988, -12.714385986328125, 0.016553224995732307, 14.078737258911133, -1.3467215299606323, -24.288742065429688, 11.879815101623535, -11.353960990905762, 2.8034496307373047, 1.6461023092269897, 21.059005737304688, -11.143421173095703, 21.359163284301758, 1.1376899480819702, -9.92852783203125, -19.5010929107666, 0.16062919795513153, 8.679985046386719, -11.155718803405762, -3.4893386363983154, 18.21135711669922, -17.731403350830078, 12.318341255187988, 11.788947105407715, -8.800651550292969, -12.329379081726074, 0.2787376344203949, 10.229455947875977, 10.377882957458496, 6.919464111328125, 1.5454119443893433, 1.0829074382781982, -25.661033630371094, -11.256114959716797, -9.402432441711426, 11.369967460632324, 6.627958297729492, 2.2704358100891113, -4.149636745452881, 18.57655906677246, 5.452394485473633, 4.150907039642334, 3.4571943283081055, -12.323119163513184, -3.1784379482269287, -1.5452519655227661, 19.030681610107422, 11.595516204833984, -3.6409225463867188, -5.966741561889648, 6.192712783813477, 4.3865437507629395, 16.623517990112305, -14.51728343963623, 15.968819618225098, 12.360883712768555, 13.479514122009277, 1.9606088399887085, 10.046878814697266], [0.023124631494283676, 0.1757613569498062, 0.16918762028217316, -0.2308565378189087, 0.08152078092098236, 0.12056145817041397, 0.2675311267375946, 0.31551963090896606, 0.3994513154029846, 0.5520594716072083, -0.2471565455198288, 0.05225711315870285, -0.11015737056732178, -0.033538416028022766, -0.21454760432243347, 0.14163637161254883, 0.12965165078639984, 0.10775703936815262, 0.041541509330272675, -0.3939424753189087, -0.3351103365421295, -0.5648922920227051, -0.11621015518903732, -0.05921260640025139, -0.12552449107170105, 0.3242824077606201, 0.3371971845626831, -0.4199608266353607, -0.11456650495529175, -0.5074737071990967, 0.33522725105285645, -0.3195446729660034, 0.46005135774612427, -0.3199242353439331, 0.10851440578699112, -0.3271462321281433, -0.2628081738948822, 0.28599581122398376, -0.01907658576965332, 0.4735211431980133, -0.5890091061592102, 0.10104236751794815, -0.1190531849861145, 0.23486049473285675, -0.298498272895813, 0.06415577232837677, -0.7528324127197266, 0.4516043961048126, -0.06461172550916672, 0.00887743104249239, -0.4880407750606537, 0.42060133814811707, 0.024579627439379692, -0.0862969383597374, 0.17109237611293793, -0.5092092156410217, 0.004181781783699989, 0.3026883900165558, -0.10757594555616379, -0.44996193051338196, -0.33369818329811096, -0.1276007890701294, -0.09877536445856094, 0.023784078657627106, 0.5220882892608643, 0.20182710886001587, 0.22337254881858826, 0.47793254256248474, 0.5972484946250916, -0.7737823724746704, 0.34376442432403564, 0.0457124225795269, 0.4554140269756317, 0.19085702300071716, 0.31652000546455383, 0.28138309717178345, -0.33595001697540283, 0.09393687546253204, 0.5122379660606384, -0.34078529477119446, -0.3041504919528961, 0.2157534807920456, -0.12396979331970215, 0.05687915161252022, -0.2574511766433716, 0.38719451427459717, -0.1641337126493454, -0.321370929479599, -0.32416632771492004, -0.6021917462348938, -0.1457568109035492, 0.5757173895835876, -0.28433138132095337, 0.40003085136413574, 0.1842724084854126, 0.15049900114536285, 0.10120435804128647, 0.13275383412837982, -0.19959713518619537, -0.010435717180371284, -0.14544621109962463, 0.0448889322578907, -0.13099080324172974, 0.30928367376327515, -0.029543805867433548, -0.4341011643409729, -0.19891472160816193, -0.03157162666320801, 0.05597108602523804, 0.48497357964515686, 0.29749518632888794, -0.2514670491218567, 0.25384461879730225, -0.29998579621315, -0.26145243644714355, 0.429034948348999, 0.15456680953502655, 0.029908854514360428, 0.10387840121984482, 0.00443628616631031, 0.47313371300697327, -0.02660350501537323, 0.04151272401213646, 0.2520736753940582, -0.05213817209005356, 0.1279616802930832, 0.40524572134017944, -0.16185636818408966], [0.46586477756500244, 0.4659205675125122, -0.637644350528717, -0.43526211380958557, 0.6033543348312378, 0.9036124348640442, -0.4373699724674225, -0.522487223148346, 0.29041561484336853, 0.4662407636642456, 0.7369186282157898, 0.5167227983474731, -0.3646867871284485, 0.5550963878631592, 0.6122283935546875, -0.5946639180183411, -0.026319505646824837, -0.04621816799044609, 0.32272517681121826, 0.6739608645439148, -0.37846365571022034, 0.06073033809661865, 0.16732998192310333, 0.3021183907985687, 0.20845311880111694, 0.7171209454536438, -0.6298121213912964, 0.054852183908224106, 0.27976512908935547, -0.03616505116224289, 0.48932477831840515, -1.0141639709472656, -0.6795637011528015, 0.7067497968673706, 0.568468451499939, -0.027467412874102592, 0.32585909962654114, -0.5699238777160645, 0.3082161247730255, -0.2684815526008606, -0.4590705931186676, -0.38752061128616333, 0.2465357482433319, -0.7273489236831665, -0.7001358270645142, 0.003910539206117392, -0.31454357504844666, -0.10444633662700653, 0.4283868670463562, -0.29470738768577576, -0.9313287138938904, -0.2976177930831909, 0.040684543550014496, 0.8330754637718201, -0.7690718770027161, -0.4208960235118866, 0.015354292467236519, 0.46937957406044006, -0.6023644208908081, 0.9577751159667969, 0.20662854611873627, 0.09672907739877701, 0.5435340404510498, 0.7813407778739929, 0.25268974900245667, -0.7259489893913269, -0.807807445526123, 0.2788131833076477, 0.28248536586761475, 0.40456900000572205, -0.9148578643798828, -0.10734090954065323, 0.5266023874282837, -0.7679777145385742, 0.19648446142673492, 0.9499286413192749, -0.0568578727543354, 0.6258634924888611, 0.8030691146850586, 1.1424227952957153, 0.013833150267601013, -0.7380541563034058, 0.5855066180229187, -0.7582952380180359, -0.23876051604747772, -0.46337437629699707, 0.03626147285103798, 0.4531708359718323, 0.1537415087223053, -0.42835336923599243, -0.2869955003261566, -0.6193267703056335, 0.6286860108375549, 0.6481269598007202, 0.019127579405903816, -0.03364608436822891, -0.5022162795066833, -0.08308220654726028, 0.45479854941368103, 0.5205975770950317, -0.21177811920642853, -0.4287533164024353, -0.35822755098342896, -0.3216526508331299, -0.03477192297577858, 0.6219861507415771, 0.11617947369813919, -0.557913601398468, -0.7560171484947205, 0.8772966265678406, -0.961642861366272, 0.2051423043012619, 0.6751297116279602, 0.18104253709316254, -0.5413345694541931, -0.1510051041841507, 0.18123817443847656, -1.0018805265426636, 0.06956809014081955, 0.024847963824868202, 0.9821030497550964, -0.7647690176963806, 0.9735243320465088, 0.4251110851764679, 0.07639598101377487, 0.20719408988952637, 0.11365196853876114, -1.0812368392944336], [0.5504899024963379, 0.44373029470443726, -0.012069734744727612, -0.4550168514251709, -0.3105347454547882, 0.10885126888751984, 0.36292198300361633, -0.30845022201538086, 0.16291916370391846, -0.12350805848836899, 0.10307987034320831, 0.21666352450847626, -0.24146708846092224, -0.03334619104862213, 0.23073157668113708, 0.18683640658855438, -0.3048788905143738, 0.2590125501155853, -0.1029578447341919, 0.09570572525262833, -0.18720915913581848, 0.05688498541712761, 0.1666085422039032, -0.17219986021518707, 0.004071761853992939, 0.3283909857273102, 0.13535255193710327, -0.21705961227416992, -0.20802699029445648, -0.10835885256528854, -0.06337271630764008, -0.24384833872318268, -0.24978752434253693, -0.4168965518474579, 0.07865341007709503, 0.12805481255054474, -0.15700946748256683, 0.3170499801635742, -0.4459286332130432, -0.3948516547679901, 0.1908770054578781, -0.26540637016296387, -0.20154155790805817, 0.19674190878868103, 0.204574853181839, -0.11109661310911179, 0.3138759136199951, 0.040204696357250214, 0.3069835603237152, 0.28474095463752747, -0.03509373217821121, 0.43648555874824524, -0.212770476937294, -0.24695676565170288, -0.1429533064365387, -0.17663869261741638, -0.12390448898077011, -0.020776312798261642, 0.3602857291698456, -0.3600868880748749, -0.4423120319843292, -0.30796435475349426, 0.1848818063735962, -0.2716749608516693, -0.4015374183654785, -0.3437560498714447, 0.276439368724823, 0.08890590071678162, 0.10999003797769547, -0.10248871892690659, 0.362994909286499, -0.19938749074935913, 0.18760459125041962, -0.09618964046239853, 0.19635224342346191, 0.5011879801750183, -0.24998585879802704, 0.016286700963974, -0.367086797952652, 0.26439183950424194, 0.17842215299606323, 0.22678600251674652, 0.3114214837551117, 0.16410690546035767, 0.3485659062862396, 0.42627206444740295, 0.44822433590888977, 0.30713164806365967, 0.1925855576992035, -0.13467131555080414, 0.1059461385011673, 0.37147945165634155, -0.15579527616500854, 0.402505099773407, 0.05267580971121788, -0.30482393503189087, -0.038123827427625656, -0.478313148021698, -0.05287588760256767, -0.0937233418226242, 0.3784899115562439, 0.23420286178588867, 0.4472537338733673, -0.02796444296836853, 0.21110323071479797, -0.24970746040344238, -0.36899930238723755, -0.15032556653022766, -0.24469368159770966, -0.12647663056850433, 0.23866087198257446, -0.0228342954069376, -0.3323434591293335, -0.12978912889957428, -0.05758974701166153, -0.09419716894626617, 0.23960337042808533, 0.26386868953704834, 0.055476680397987366, -0.09038287401199341, -0.2350800484418869, -0.4514109194278717, 0.09485859423875809, 0.056713931262493134, 0.15679024159908295, 0.410781592130661, 0.10525154322385788, -0.09586135298013687], [0.03618121147155762, -1.003119945526123, 0.9371889233589172, 1.3390610218048096, 1.0836881399154663, 0.716315507888794, -0.84489905834198, -0.39486193656921387, -0.9681605100631714, -0.4277712404727936, -0.19160465896129608, -0.6976019740104675, -0.7375128269195557, -0.38780972361564636, 0.5634918212890625, 1.5160235166549683, -0.198560431599617, -0.7668614983558655, 0.6112965941429138, 1.1368666887283325, -0.17992648482322693, -0.23568245768547058, -0.5910096168518066, 0.11534339189529419, 0.04554150253534317, -1.5188024044036865, -0.8203356862068176, 0.14287585020065308, -0.8929084539413452, -1.0699445009231567, -0.6115323305130005, -0.419055700302124, 0.5013693571090698, -0.025081289932131767, -0.7898604273796082, -0.6532428860664368, 0.5955470204353333, 0.3927520215511322, -0.18824580311775208, -0.03721949830651283, -0.40565943717956543, 0.5656608939170837, 1.328877329826355, -0.8494184613227844, 0.7893946766853333, -0.037843067198991776, 0.5078833103179932, 0.3784926235675812, -0.5605337619781494, 0.5211817622184753, 1.3710929155349731, -1.3816574811935425, -0.01588277891278267, 0.3291333019733429, -0.5944972634315491, 0.04859126731753349, -1.0686450004577637, 0.8626559972763062, 0.4875781536102295, 0.777475118637085, 0.8941502571105957, 0.3094339668750763, -0.20821453630924225, -0.6587932705879211, 0.5118535161018372, 0.3017202317714691, -1.2381585836410522, -1.3101096153259277, -0.18952332437038422, 1.0249379873275757, -0.05021947622299194, 1.2806675434112549, 0.5973498225212097, 0.33121511340141296, 1.4968332052230835, -0.8118247985839844, 0.2639801800251007, -1.2106742858886719, -0.3571721613407135, 0.3954336941242218, 0.36033427715301514, 0.4008384048938751, 0.5308474898338318, -0.21174374222755432, -0.2674425542354584, 0.2572864890098572, -0.39275455474853516, -1.2873624563217163, -0.49796798825263977, -0.258363276720047, 0.65703284740448, -1.0044814348220825, -0.6461730003356934, 0.22775773704051971, -0.4768763482570648, -0.5187878012657166, -0.14688368141651154, -0.5517801642417908, -1.274427890777588, -0.6780685782432556, -0.3924461007118225, -0.906795084476471, -0.09412623196840286, 1.012031078338623, -0.15549294650554657, 0.9216647148132324, 0.7087212800979614, -0.2784899175167084, 1.0051889419555664, -0.3868933320045471, 0.5828366875648499, -0.3256404399871826, -0.3673449456691742, -0.04383191093802452, 0.10319177061319351, -1.0758633613586426, 0.045976944267749786, -1.0771960020065308, 0.7059369683265686, 0.5686874985694885, 1.5425738096237183, -0.052368585020303726, 1.0562167167663574, -1.4887224435806274, -1.211031198501587, -0.49964404106140137, -0.34610432386398315, -0.45734912157058716], [-0.5280662178993225, 0.39850062131881714, -1.185996413230896, 0.6688321828842163, -0.5233715176582336, -0.1627936065196991, -0.8516045212745667, 0.021491505205631256, -1.123347282409668, -0.6980671882629395, -0.22427339851856232, 0.8066902160644531, -0.9809539318084717, 0.24214038252830505, 1.728616714477539, 0.7822444438934326, -0.48825517296791077, 1.7279024124145508, -1.194764494895935, -0.2948765158653259, -0.22671981155872345, 1.1766149997711182, 0.16451536118984222, 1.7953948974609375, -0.5393263101577759, -1.2827790975570679, 0.7991329431533813, 0.1759566366672516, -0.3779100179672241, -0.128944993019104, -0.2320115715265274, -1.5294127464294434, 0.6358376741409302, 0.8670654892921448, 0.044022902846336365, 1.1084222793579102, 0.033301208168268204, -1.1288355588912964, -2.1836013793945312, -0.6125984191894531, 0.5320686101913452, -1.6998727321624756, -0.5262925028800964, 0.7012762427330017, -1.292901635169983, -0.6029636263847351, 0.11875692009925842, 1.118983507156372, -0.10443001240491867, 0.7667140364646912, -1.4049721956253052, 0.9304719567298889, 1.0453814268112183, -0.04816184192895889, -0.26994588971138, -1.3621742725372314, -0.9024393558502197, -0.24884900450706482, -0.42805418372154236, 1.1696873903274536, 1.316117525100708, 0.3058047890663147, -0.46216869354248047, 1.0848151445388794, -1.1123539209365845, -0.3765932321548462, 0.5330096483230591, 0.32982152700424194, 0.4265005886554718, -0.5297061204910278, -1.156676173210144, 0.3196132183074951, 1.4535131454467773, 1.4386504888534546, -0.7763946652412415, -0.48110517859458923, -1.5287772417068481, 1.223268985748291, 1.329318642616272, -1.337595820426941, 0.4780119061470032, -0.6507048606872559, -0.3081085979938507, -0.07728362083435059, 1.8466801643371582, 0.8269491195678711, 1.1329432725906372, 1.7875672578811646, 0.08960771560668945, -0.15865831077098846, 1.4598345756530762, 0.3138514757156372, 0.7600721716880798, 0.30288591980934143, 1.3326226472854614, -0.5718295574188232, -1.7865853309631348, -1.1609896421432495, -0.00267014536075294, 0.8364982604980469, -0.8024258017539978, 0.1683662086725235, 0.458456426858902, -0.5090903639793396, 0.818171501159668, -0.8153615593910217, 0.4416876435279846, 1.4934781789779663, -1.124466896057129, 1.3570795059204102, 0.3411574363708496, 1.221259593963623, -0.870404064655304, 1.0134594440460205, -1.358254313468933, 0.7115296125411987, 1.215686559677124, -0.02063753455877304, 0.6760138869285583, 0.10757871717214584, -1.4634839296340942, -0.5721627473831177, -0.7405543327331543, -0.6073760986328125, 1.7762213945388794, 1.7494785785675049, -0.29017284512519836, 1.4186307191848755], [0.33344846963882446, -0.01476749312132597, 0.023180175572633743, 0.29635679721832275, -0.18890690803527832, -1.458473563194275, -0.8301116228103638, -0.8719521760940552, -0.9299684166908264, 0.08148419111967087, 1.2266968488693237, 0.3548862636089325, 0.8426954746246338, 0.35718590021133423, -0.42620351910591125, -1.385445475578308, 0.6225634813308716, 1.519901990890503, 0.7707709670066833, -0.23229005932807922, 0.7433156371116638, -0.6955116987228394, 0.27241888642311096, 0.9794134497642517, 0.8332434892654419, -1.3463993072509766, -0.36759647727012634, 1.251708984375, -0.6133162975311279, -0.6538553833961487, -0.7933675646781921, 0.7323969602584839, 0.9417567849159241, 0.36965927481651306, -0.6194977760314941, -0.2688145339488983, 0.9772466421127319, -0.9858435988426208, -0.6458261013031006, -0.748387336730957, -0.28876492381095886, 0.3046700656414032, 0.30919843912124634, 1.0782687664031982, 0.39305779337882996, 0.15705978870391846, -1.0714598894119263, 0.9630078077316284, -0.7040043473243713, 0.43666326999664307, 0.6523504853248596, -0.23790787160396576, 0.8989105224609375, -1.2481961250305176, 1.0838690996170044, -0.08634781092405319, -0.31866419315338135, 1.108148217201233, -0.6731805205345154, -1.0632374286651611, -0.4311557710170746, 0.47628405690193176, 0.1461932212114334, 0.5291701555252075, 0.4878006875514984, -1.4323674440383911, -1.1168609857559204, -0.5378734469413757, 0.6401661038398743, -0.2881750166416168, 0.9057600498199463, 0.47111833095550537, -0.946057140827179, -0.81978839635849, 0.04830722510814667, 0.5779222846031189, -1.1905126571655273, 1.0573854446411133, 0.594976007938385, -0.5461460947990417, 1.0927892923355103, -0.3895551264286041, 0.3812711238861084, 0.7523522973060608, -0.43173861503601074, 0.459104984998703, 1.008548617362976, -0.8129885196685791, 0.034247055649757385, -0.819770097732544, 0.3838823139667511, -0.7240371108055115, -0.8740946650505066, -0.7087091207504272, 0.7755323052406311, 0.6616590023040771, 0.3533875048160553, -0.6236581206321716, -0.6435754299163818, 0.8217285871505737, 0.7928260564804077, 0.04429180547595024, 1.1281273365020752, 0.48443862795829773, -0.38248148560523987, 0.17362076044082642, -0.1557883471250534, 0.8155049085617065, 0.3390660285949707, -0.637794017791748, -1.001336932182312, -0.679934561252594, 0.3778281807899475, 0.7371255159378052, -0.1293506771326065, -0.8569706678390503, -0.586449921131134, 0.9784532189369202, -0.25873297452926636, 1.1160532236099243, -0.41545751690864563, 1.0135465860366821, -0.0734841600060463, -0.42797553539276123, 0.8079983592033386, 0.12338679283857346, 1.2025593519210815, -0.47947221994400024], [-0.0659513846039772, -0.2311009168624878, -0.3328486979007721, 0.5707364678382874, -0.9027115106582642, -1.0201022624969482, -0.6544942855834961, 0.8300633430480957, -0.8967511057853699, -1.0332714319229126, -0.4557625949382782, -0.49785104393959045, 0.7451977729797363, -1.4540740251541138, 0.19132298231124878, -0.09500515460968018, -0.736032247543335, 0.5236326456069946, 1.5003352165222168, 0.09346853941679001, -0.5500093698501587, -0.3763029873371124, -0.13059529662132263, 0.5197219848632812, 0.3472149968147278, 0.3713182508945465, -0.384809672832489, 0.3833596408367157, -0.5744844675064087, 0.4341438412666321, 0.2361476570367813, 0.4025723338127136, 0.7878054976463318, -0.1631392389535904, -1.1947047710418701, -1.0426942110061646, 1.3615168333053589, -0.3741041421890259, 0.4420328438282013, 0.04519600048661232, 0.9089929461479187, 0.027453189715743065, 1.0160843133926392, -0.09536195546388626, 1.4964030981063843, 1.3385136127471924, -0.32806044816970825, -1.196943998336792, -0.73321533203125, -0.42470690608024597, 0.24811601638793945, -1.1251304149627686, 0.9721495509147644, 0.2122119665145874, -0.2181619107723236, -0.848772406578064, 0.29476624727249146, 0.7574880719184875, -1.145259141921997, -0.18278172612190247, -0.8953083753585815, 0.419771671295166, -0.20792877674102783, 0.3456896245479584, 1.3214067220687866, 0.2487604320049286, -1.3340749740600586, -0.5055323839187622, 0.5855022668838501, 1.0512064695358276, -0.9438986778259277, 1.3672552108764648, 1.1517531871795654, -0.7520049214363098, 1.119104027748108, -0.22192148864269257, -0.7297986149787903, -0.045483916997909546, -0.3350655436515808, -0.860066294670105, -0.5304107666015625, -0.6111105680465698, -0.7569705247879028, 0.2733919024467468, 0.23110038042068481, -1.7198864221572876, -0.7669507265090942, -1.1815111637115479, 0.16191886365413666, -0.5664099454879761, 0.2405451536178589, -0.4634777009487152, 0.28186002373695374, -1.0053141117095947, 0.4238370954990387, 0.14990460872650146, 0.7815548777580261, -0.5876286625862122, 0.5631260871887207, -0.35110706090927124, 0.16117045283317566, 1.1116302013397217, -0.6729469895362854, 0.958419144153595, -0.7648986577987671, -0.3796938359737396, 1.3485755920410156, -0.517114520072937, 1.3862816095352173, -0.7455353736877441, -0.01021801121532917, 0.7381576299667358, 1.4242796897888184, -0.2321421504020691, -0.7970882654190063, 0.148112952709198, -0.14096201956272125, 0.023129133507609367, 0.7010974884033203, -0.4187489151954651, 0.012185818515717983, -0.8265802264213562, -0.30699747800827026, -0.9041174650192261, -1.1035672426223755, -1.0831608772277832, -0.18344217538833618, -0.13453583419322968], [1.0394234657287598, -0.7522299885749817, -0.7073591351509094, -1.6685267686843872, 0.09861867129802704, 1.6178617477416992, -0.9564727544784546, -0.5700932741165161, 0.6237650513648987, -1.355475664138794, -0.7799546718597412, 0.9925521612167358, 1.4596680402755737, 0.582227885723114, -1.0996339321136475, -0.33611294627189636, 0.48258501291275024, 0.574409008026123, 0.433236300945282, -0.12910450994968414, -0.25746551156044006, 0.17624984681606293, -0.7044724225997925, 1.291827917098999, -1.0084586143493652, -0.21088279783725739, 0.6013907790184021, -1.0607393980026245, -0.3423326909542084, -0.40571844577789307, -0.3270133435726166, 0.33617424964904785, -1.5914987325668335, 1.4623081684112549, 1.6526063680648804, -0.47023823857307434, -0.928481936454773, 1.4423524141311646, 1.2486035823822021, -0.10325939208269119, -0.9340865612030029, 0.7534945011138916, 0.4680355191230774, -0.9572076201438904, -0.46983376145362854, 0.19704601168632507, -0.6246053576469421, 0.8157922029495239, 0.4986727237701416, 0.2398911416530609, -0.8043186664581299, 0.2750892639160156, -0.3108934462070465, -1.2428580522537231, 1.3819564580917358, 1.0542658567428589, -0.6271911859512329, 0.8914245963096619, 0.45797261595726013, -0.6226198077201843, -0.5860073566436768, -0.7466673254966736, 0.22226960957050323, 0.3632909953594208, -0.9412858486175537, -1.72917902469635, 0.4307112693786621, 0.8759307861328125, -0.36119604110717773, -0.5242978930473328, 0.34080344438552856, -0.6244896054267883, 1.3091599941253662, 0.2596716582775116, 0.31030672788619995, -0.5346665382385254, -1.3746699094772339, 1.2172831296920776, -1.037786841392517, 1.4745597839355469, 1.5661165714263916, -0.7233271598815918, 0.6824206113815308, -1.3230196237564087, 0.7259678244590759, 0.40251973271369934, 0.8907176852226257, -0.34953996539115906, 0.15983328223228455, 0.8788315057754517, -0.7652466297149658, 1.3491020202636719, -0.8625634908676147, -0.2750503420829773, 0.8078776001930237, -0.9295421242713928, 1.865793228149414, 0.8214752674102783, 0.4091299772262573, -0.7236074209213257, 0.217104971408844, 1.1940178871154785, -0.44785016775131226, -1.2994478940963745, -1.1654133796691895, 0.4687211513519287, 0.12150707095861435, -1.315178394317627, 0.8911925554275513, 0.9832220673561096, 0.23056873679161072, -1.2155530452728271, -0.5046688318252563, 0.5138472318649292, 0.5086921453475952, -0.0367019847035408, -1.2301121950149536, -0.15833933651447296, 0.14295470714569092, 0.012598706409335136, -1.4195464849472046, -0.5738418698310852, 0.9500207304954529, 1.2891697883605957, 0.9607938528060913, 1.1509366035461426, -1.1597952842712402, -0.6482998132705688], [-0.08474526554346085, -0.28565043210983276, -1.2901239395141602, -0.4030114412307739, 1.2027475833892822, -0.6476895809173584, 0.3472031056880951, -0.45510515570640564, 0.46177390217781067, -0.694648027420044, 0.6677372455596924, 0.020567916333675385, 0.728655219078064, -0.20229178667068481, 0.4407063126564026, 0.5777495503425598, 1.225627064704895, -0.06774137169122696, 1.6551846265792847, -0.9350970983505249, -0.9420374631881714, -1.52500581741333, -0.08036099374294281, 1.1975504159927368, -0.5399489402770996, -0.3544333577156067, 0.6645777821540833, 0.7963736653327942, -0.4601046144962311, -0.8275686502456665, -0.3525923192501068, -0.1449120044708252, -0.15523022413253784, -0.12663209438323975, -0.4572661817073822, -0.1238260492682457, 0.1511177122592926, -0.7764745950698853, -0.36971551179885864, -1.280835747718811, -0.08606859296560287, 0.9828709959983826, 1.6673592329025269, -0.5937077403068542, 0.021573418751358986, 1.0767892599105835, 0.3733219504356384, 0.6953457593917847, -0.969471275806427, -0.652771532535553, 0.844106912612915, -1.1920483112335205, 0.7329926490783691, 1.1044938564300537, 0.40780702233314514, -0.4009149372577667, 0.07107187062501907, -0.5899245142936707, -0.3803161084651947, 0.712956964969635, 1.0187944173812866, -0.8784853219985962, -0.6873740553855896, 0.8325515389442444, -0.5287743210792542, -0.1348554939031601, -0.365506112575531, 1.1650891304016113, -0.9323429465293884, -0.4826066493988037, -0.08359448611736298, 0.7629801034927368, -0.17707739770412445, 0.7488744258880615, -0.5075417757034302, -0.44731566309928894, 0.3427489697933197, 0.7020726799964905, -0.10252010077238083, 0.8863754868507385, -0.1347120702266693, -0.9289804697036743, -0.5623235702514648, 0.3735930025577545, -1.0155290365219116, 0.31819549202919006, 0.596248984336853, -0.0025238655507564545, 0.5563614368438721, -0.6504783034324646, -0.8540641069412231, 0.17302900552749634, 0.42553645372390747, 0.22647209465503693, 0.10450725257396698, 0.7255554795265198, -0.5749372839927673, -1.1358592510223389, -1.0348875522613525, 0.3021470010280609, -1.6553003787994385, 0.7465837597846985, 1.0354348421096802, 1.1129425764083862, -0.41863638162612915, -1.1276559829711914, 0.6020677089691162, -0.28157535195350647, -0.14971798658370972, -0.8029029965400696, -0.8432042002677917, 1.1457431316375732, -0.6382020711898804, -0.08800554275512695, -0.5722715258598328, -1.267049789428711, -0.6362171173095703, 0.7445874810218811, 1.7504167556762695, 0.32242676615715027, 0.0019216788932681084, 0.12576255202293396, -0.07813701033592224, 0.4191226363182068, -1.2088823318481445, 1.3514643907546997, 1.4944679737091064, 1.1931532621383667], [0.9691867828369141, -0.407914400100708, -0.9041498899459839, -0.3107929825782776, 0.2973528504371643, -1.0496093034744263, -0.5237836241722107, -0.39160946011543274, 1.7364680767059326, -0.3344810903072357, 1.6506983041763306, -1.6959234476089478, -0.18016283214092255, 0.7193836569786072, -0.6851409077644348, 0.21790514886379242, -0.03782958164811134, 0.16686740517616272, -0.6316059231758118, 0.8497962951660156, -1.234977126121521, -1.3234193325042725, -0.766478419303894, 0.11847544461488724, -0.1406872421503067, -0.8864812254905701, -1.173815131187439, -0.5924217700958252, -0.5086294412612915, 1.0533617734909058, -0.3379869759082794, 0.8496379852294922, -0.9337249994277954, 0.3877742290496826, 0.2679979205131531, -0.7554652094841003, -1.3302267789840698, -0.11026129871606827, 0.004528321325778961, 1.3067357540130615, -0.5238614678382874, -0.7417753338813782, -0.40590953826904297, -0.08194179832935333, 0.6448913812637329, 1.2313075065612793, -1.4771119356155396, 0.8073580861091614, -0.6819416284561157, -0.3301820456981659, 1.2244911193847656, 1.2871588468551636, 1.1439471244812012, 0.08877333998680115, -1.0073847770690918, -0.22355857491493225, -1.0518308877944946, 0.47608083486557007, -0.10787491500377655, 1.1165893077850342, -0.10737541317939758, 0.7084611654281616, -0.4862464666366577, -0.08641350269317627, 0.2963414490222931, -1.0740342140197754, -0.0144911278039217, 0.29027214646339417, 0.33678099513053894, 1.2497390508651733, -0.993243396282196, -0.322491854429245, -0.19092866778373718, 1.255712628364563, -1.1863350868225098, -1.2057539224624634, 1.7108420133590698, -0.6773104667663574, 0.7906490564346313, 0.898728609085083, -0.42998647689819336, 0.9361491799354553, -0.34311673045158386, 0.49558618664741516, -0.28201064467430115, 0.4819532632827759, 1.1176643371582031, -0.1534772366285324, -0.605096161365509, -1.2389262914657593, -0.26819750666618347, 0.9207146763801575, -0.3869618773460388, -0.623326301574707, -0.06303684413433075, 1.3343876600265503, -0.2687593102455139, -0.7730929851531982, -1.0247284173965454, 0.0344754233956337, -0.5555932521820068, -0.964484691619873, 0.6258172392845154, -0.8218467831611633, 1.4452475309371948, 1.5475752353668213, 1.2808995246887207, 1.6327224969863892, -0.10710825771093369, -0.6129109859466553, 0.4836927652359009, 0.26197049021720886, 0.04150409251451492, -0.28639817237854004, -0.008503103628754616, -0.2106049656867981, -0.6309257745742798, -1.1467493772506714, 0.440436452627182, -0.8002161383628845, -0.28535008430480957, 1.4924242496490479, -0.09728086739778519, -0.44612517952919006, -0.6263087391853333, 0.3726073205471039, 1.1346856355667114, 1.4304699897766113], [-0.8844195604324341, 0.10116910934448242, -0.19811299443244934, 1.1738098859786987, 0.1718256175518036, 1.0315510034561157, -1.278282880783081, 1.290656328201294, -0.25234976410865784, -0.6698077917098999, 0.8580297827720642, -1.2123684883117676, -1.0599135160446167, 0.8162857890129089, -1.4047268629074097, -0.8266648650169373, 0.50016850233078, -0.3882652819156647, 0.7630078196525574, 1.7200887203216553, 0.6187484860420227, 1.040005087852478, -0.9748290181159973, -1.373152256011963, -0.29312393069267273, -0.6502095460891724, -0.6093733906745911, -1.2697713375091553, 0.7054311633110046, -1.2499592304229736, -0.534342348575592, 0.34600651264190674, -0.49979907274246216, -0.5460885167121887, 0.38514330983161926, -1.0407581329345703, 0.5969291925430298, -1.4249582290649414, 0.021749230101704597, 1.2672539949417114, -0.07415421307086945, -0.8130447864532471, 0.7417088747024536, -1.6970974206924438, -0.21081635355949402, -0.433958500623703, 0.22106049954891205, -0.8228021860122681, -1.8791546821594238, -0.17758262157440186, 0.5198746919631958, -0.23140792548656464, 1.3658877611160278, -0.5613335371017456, 0.21288514137268066, 0.4534272253513336, 0.46391141414642334, 0.5758753418922424, 1.327280044555664, -0.6676868796348572, 0.4242868721485138, -0.5949606895446777, -0.6180500984191895, 0.18105779588222504, -0.513751208782196, -0.43858540058135986, -0.4825196862220764, -0.5908746719360352, 1.7251311540603638, -0.08183298259973526, -0.6337020993232727, -0.2565171420574188, -0.49133655428886414, -0.435672789812088, 1.515984058380127, -0.7063460946083069, -0.22376780211925507, -1.023665189743042, -0.12879851460456848, -1.0747944116592407, -0.2848130166530609, 0.6562151312828064, -0.027042588219046593, -1.366686463356018, -1.5246028900146484, -0.9563851952552795, -0.8310875296592712, -0.40916064381599426, 1.007253646850586, 1.130745530128479, -0.1101728156208992, 0.12102100998163223, 0.7004829049110413, 1.3869450092315674, -1.0879095792770386, -0.23821358382701874, 0.6541203260421753, -0.8954429626464844, -0.4342808723449707, -0.013675115071237087, 0.08943559229373932, 0.06890549510717392, -1.964895486831665, -1.8917375802993774, -1.0307601690292358, -0.001455227960832417, 0.7663530111312866, -0.30591070652008057, 0.9526829719543457, -0.03788701072335243, 0.016341807320713997, 0.0855979472398758, -1.4078035354614258, -1.2732244729995728, -0.7790900468826294, -0.19688616693019867, -0.6946203112602234, 1.5449695587158203, 1.3881709575653076, 0.6561418771743774, -0.7960023880004883, 1.8494068384170532, 0.27986976504325867, 1.10675048828125, -0.15936417877674103, -1.2581794261932373, 0.3971506953239441, -0.8812982439994812], [-0.36826950311660767, 0.3416593670845032, 0.36140620708465576, -0.33888691663742065, -1.0331085920333862, 0.1386614888906479, -0.08497272431850433, -0.21930909156799316, 0.3401714265346527, 0.1540224254131317, -0.45526617765426636, -0.15683838725090027, 0.29194629192352295, 0.1909850388765335, -1.033000111579895, -0.5959730744361877, 0.482187420129776, -0.347659707069397, -1.0816069841384888, -0.2461894154548645, 0.7508283257484436, -0.5857787728309631, -0.2169523984193802, 0.4859042167663574, 0.7631819844245911, -0.5513028502464294, 0.7223905920982361, 0.44547581672668457, -0.8508017063140869, 0.41744130849838257, -0.02853592485189438, 0.4603930413722992, -0.254061222076416, 0.1899733692407608, -0.16942788660526276, -0.5609310865402222, 0.40696626901626587, 0.42602139711380005, 0.003419124521315098, -0.18136733770370483, 0.5538725852966309, 0.04250095412135124, 0.5962223410606384, -0.5248421430587769, 0.2262299507856369, 0.6127272844314575, -0.4342806339263916, -0.11589016765356064, -0.52923583984375, 0.006646588444709778, 0.645456850528717, -0.437667578458786, 0.5957819223403931, -0.17465683817863464, 0.21425555646419525, 0.9580733776092529, -0.6152464747428894, -0.5544503331184387, -0.8306854963302612, 0.5848706960678101, 0.24320238828659058, -0.6335449814796448, -0.44086599349975586, 0.6272048354148865, -0.07055920362472534, 0.45649445056915283, -0.513891339302063, -0.4805601239204407, 0.4632982015609741, 0.8110082745552063, -0.25361812114715576, -0.9507763385772705, 0.5018944144248962, -0.8474646210670471, -0.30220726132392883, -0.3483985960483551, -0.4172362685203552, -0.548397421836853, -0.037370845675468445, 0.30982810258865356, -0.0971766784787178, -0.6538578867912292, -0.5827659368515015, 0.30003055930137634, -0.41107457876205444, -0.24944663047790527, 0.592961311340332, 0.21362926065921783, -0.018623504787683487, 0.5305348038673401, 0.46187257766723633, -0.3061690330505371, -0.5267765522003174, 0.5690692067146301, 0.9742817282676697, -0.16687195003032684, -0.35926562547683716, -0.09617307782173157, 0.3014773428440094, -0.3657650947570801, 0.9547764658927917, -0.42125582695007324, 0.1761389672756195, 0.1963997781276703, -0.10836324840784073, 0.5708561539649963, 0.2928784191608429, -0.5211105346679688, 0.6340506672859192, 0.8037870526313782, 0.39603713154792786, -0.20842806994915009, 0.40657931566238403, -0.8136024475097656, -0.5420684814453125, -0.5844281315803528, -0.3237769305706024, 0.12795667350292206, -0.40704822540283203, 0.8120415210723877, -0.7670913934707642, 0.39967048168182373, 0.533850371837616, 0.646166980266571, -0.06568016111850739, 0.5371899604797363, 0.21894966065883636, -0.6494802832603455], [0.9865904450416565, -1.2016699314117432, -0.6915865540504456, 0.20421886444091797, 0.39780929684638977, -0.1874508410692215, 0.18177656829357147, -0.3093706965446472, 0.13672685623168945, -0.04261455312371254, 1.0795626640319824, -0.16303934156894684, -1.113773226737976, -1.3356826305389404, -0.04181625321507454, -0.4544382095336914, -0.04118286073207855, 1.064473032951355, -0.5951981544494629, -0.18243776261806488, -2.073845624923706, 0.5616951584815979, 0.9139642119407654, 0.28503894805908203, -0.25790056586265564, 0.9429561495780945, 0.21963585913181305, -0.12311863154172897, -1.1886974573135376, -1.5411708354949951, 0.3361044228076935, 0.19112750887870789, -0.4271582067012787, 0.2784068286418915, 0.06920545548200607, -0.2371699959039688, 0.5827668309211731, -0.008060634136199951, 0.28756392002105713, -0.41309964656829834, 1.6778887510299683, 0.10973023623228073, 0.8562709093093872, -0.6435143947601318, -0.34114134311676025, -0.36044737696647644, 0.019113963469862938, 0.24985259771347046, -1.105095386505127, -1.0873676538467407, 0.04881596937775612, -1.7071861028671265, -0.05405673757195473, 0.18553400039672852, -0.3793955445289612, -0.5906830430030823, -1.194615364074707, 0.039138056337833405, 0.254599392414093, -0.24061362445354462, 0.14048834145069122, 1.900242805480957, 0.593794047832489, 0.23231729865074158, -0.45740175247192383, 1.0627987384796143, -1.622656226158142, 0.20697471499443054, 0.20374949276447296, 0.30719757080078125, 0.8172275424003601, -0.14942218363285065, -1.749671220779419, -1.0380300283432007, 1.1181011199951172, -0.06563523411750793, -0.28178179264068604, -0.9633029699325562, -1.1014906167984009, -0.8176743984222412, -0.20537403225898743, -0.9764130115509033, -0.5711468458175659, 0.20897188782691956, 1.2187902927398682, -1.5127007961273193, 1.1426910161972046, 0.22697672247886658, 0.5038477182388306, -1.5726497173309326, -0.7214215993881226, 0.719602108001709, 0.7133694291114807, -0.6832093596458435, 1.204929232597351, -0.3237930238246918, 0.4924960136413574, -0.3209870755672455, 0.528080403804779, -0.011720380745828152, -1.0372368097305298, 1.0925700664520264, -0.5607092976570129, 0.6620111465454102, -0.5154756307601929, 0.24157318472862244, -0.3816981017589569, 0.5206021666526794, 0.771784782409668, 0.5024652481079102, -1.1113300323486328, 0.9655945897102356, -0.6671481132507324, 0.2521718442440033, -1.1385124921798706, -0.16912293434143066, 1.2629129886627197, -0.5860735177993774, 1.2851513624191284, 0.3806816339492798, -0.32903775572776794, 1.9466474056243896, 0.3497698903083801, -1.3338016271591187, -0.7573981881141663, -0.18447628617286682, 1.117720365524292, 0.5828366875648499], [0.2719508111476898, 0.4159870743751526, -0.4135112166404724, 1.1434946060180664, 0.061868105083703995, -0.2740989327430725, -0.19049528241157532, 1.5063798427581787, -0.35662591457366943, 1.208866834640503, -0.26819083094596863, -1.171816349029541, -0.7396329045295715, -0.619235098361969, 0.03008119761943817, 1.034416675567627, 0.804295003414154, -1.6476407051086426, -0.41574883460998535, 1.4586181640625, -1.2480388879776, -0.6973932385444641, 1.5249855518341064, -0.8347272872924805, 0.5232540369033813, -1.2044585943222046, -1.106288194656372, 0.17222069203853607, 0.19533586502075195, -0.3329375684261322, -0.46932750940322876, 0.821307361125946, 0.4060993194580078, 0.6641411781311035, -0.008160613477230072, 0.6665299534797668, 1.026690125465393, -0.863899827003479, 0.39876091480255127, 1.2364085912704468, 0.3414529263973236, -0.41417595744132996, 0.6258141398429871, -1.6319551467895508, -0.25554734468460083, -0.11855657398700714, -0.11219808459281921, -0.20613722503185272, -0.32625558972358704, -1.2492598295211792, 0.09902361780405045, -0.8661167621612549, 1.542840838432312, 0.42340442538261414, -0.4607454240322113, -1.1505815982818604, 0.3615589141845703, 0.2506393492221832, 0.621880292892456, 0.2351832240819931, -0.4100882112979889, 0.28252220153808594, 0.9471454620361328, 0.9745020270347595, 1.3274133205413818, -0.01988314278423786, 0.7789256572723389, 0.6975073218345642, 0.41933178901672363, -0.8083038926124573, -0.3129845857620239, 0.2871048152446747, -0.22732515633106232, -1.2861186265945435, 1.1999163627624512, -1.3470600843429565, -0.09823878854513168, -0.6564015746116638, 0.3300616145133972, 0.45838865637779236, -1.4812411069869995, 1.7360280752182007, -1.103935956954956, -0.5844153761863708, -0.054070670157670975, 0.013096396811306477, -1.1271450519561768, 0.3724759519100189, -0.5843703746795654, 2.0829269886016846, -0.021141279488801956, 0.5335568189620972, 0.42544031143188477, -1.1374043226242065, 0.27774733304977417, 0.6205145716667175, 0.4921882748603821, 0.2899630665779114, -1.43854558467865, -0.10285688191652298, -1.1966588497161865, -0.9410900473594666, -0.2551719844341278, 0.18352113664150238, -0.765670895576477, 1.0184011459350586, 1.2104103565216064, -0.04213283583521843, 0.23995491862297058, 0.01860693469643593, 0.19510933756828308, 0.31901782751083374, -1.067379355430603, -0.9528865218162537, 0.6663627624511719, 0.13097676634788513, 1.6558996438980103, 1.6007696390151978, 0.43049386143684387, -0.4135344624519348, -0.15801271796226501, -0.6948729157447815, -0.563959002494812, 0.33609509468078613, 0.4153338372707367, 0.4342215657234192, -1.0581966638565063, 0.42499232292175293], [1.0194491147994995, -1.0124506950378418, -0.746623694896698, 0.8195569515228271, 0.3309614360332489, 0.4423885941505432, -0.5215808153152466, 0.946136474609375, 0.7154392004013062, 0.37621715664863586, -0.7926941514015198, -0.6866036653518677, -1.09292733669281, 0.09503347426652908, -0.5303341746330261, -0.3396262526512146, 0.6618551015853882, -0.8275530934333801, 0.00947398692369461, -0.7959209680557251, -0.47631776332855225, 0.9622464776039124, 1.2509790658950806, -0.03432364761829376, -0.06903504580259323, 0.30521708726882935, 0.9805349111557007, -0.2188960164785385, -0.41473785042762756, -1.0357664823532104, -0.5816879272460938, 0.09019901603460312, 0.751923143863678, 0.655908465385437, -0.4423450529575348, -0.3730117082595825, 0.3861827254295349, 0.27759793400764465, -0.8219984769821167, 0.6895444989204407, -0.9372230768203735, -0.18334710597991943, 0.8285541534423828, 0.31680625677108765, 0.46206507086753845, 0.8671306371688843, -0.084390789270401, 0.4507777690887451, -0.8246835470199585, -0.9338749647140503, 0.3857225179672241, -1.1230034828186035, 0.5595954060554504, 1.1209720373153687, 0.0075073400512337685, 0.8486193418502808, 0.9562153220176697, -0.24093109369277954, -0.7745086550712585, 0.7053064107894897, -0.13801103830337524, 0.1540132761001587, -0.3352586627006531, 0.9615888595581055, -0.39099612832069397, -0.9969954490661621, 1.2379391193389893, 0.7570240497589111, -1.2154899835586548, -0.7064902782440186, 1.4997844696044922, 0.8263837099075317, -0.5268845558166504, 0.9299189448356628, -0.665357768535614, -0.40765905380249023, 0.2458139955997467, -1.0120404958724976, -0.9619595408439636, -0.336624413728714, -0.8157190084457397, 0.8618075847625732, -0.414449006319046, 0.6802259683609009, 0.19198551774024963, -0.8763086199760437, -0.8349442481994629, -0.5513914227485657, -0.5173644423484802, -0.8379591107368469, -0.6413574814796448, -0.3421419858932495, 0.1420760303735733, -0.044537149369716644, 0.30209046602249146, 0.06332453340291977, 0.8295342922210693, -0.6885523200035095, 0.5700188279151917, -0.40955302119255066, 0.7589609026908875, 0.08422374725341797, 0.6643314957618713, -0.09467007219791412, -0.027629397809505463, -0.6474880576133728, 0.3560825288295746, -0.6355280876159668, -0.6084192395210266, -0.1685389131307602, -0.6974193453788757, -0.008552604354918003, 0.922559380531311, -0.48724299669265747, -0.3385120928287506, 0.6577934622764587, 0.12210015952587128, 0.11664890497922897, 0.2761659324169159, 0.22053681313991547, 0.5544469356536865, 1.3762868642807007, -0.7074254751205444, 0.9677899479866028, -0.4725099802017212, 0.840324878692627, -0.46794724464416504, 0.24572882056236267], [-0.4820299446582794, 0.3375869691371918, -0.2439843714237213, -0.28840509057044983, -0.03486073389649391, 0.19133976101875305, -0.38872605562210083, 0.18460047245025635, -0.029429057613015175, 0.05189678445458412, 0.27434465289115906, 0.202469140291214, 0.3566487729549408, 0.4095548093318939, -0.08702632784843445, 0.36671483516693115, -0.17419660091400146, 0.16832172870635986, -0.16208913922309875, -0.34416288137435913, -0.18194438517093658, 0.13361568748950958, -0.07561776041984558, -0.18050731718540192, -0.3259389102458954, -0.4401605725288391, -0.037352729588747025, 0.3594245910644531, 0.15002138912677765, 0.21385458111763, -0.10569026321172714, 0.20261670649051666, 0.45610788464546204, 0.6064261794090271, -0.44314777851104736, 0.07556326687335968, -0.19321240484714508, 0.024673255160450935, 0.39992886781692505, -0.3904392421245575, -0.26307037472724915, 0.21593190729618073, 0.4010361135005951, 0.2807044982910156, 0.09032604098320007, -0.1711031198501587, -0.42534205317497253, 0.31280678510665894, -0.4262514114379883, 0.3806808590888977, -0.10847809910774231, 0.4391259253025055, -0.054305300116539, -0.13304682075977325, 0.160527303814888, -0.3304329514503479, -0.08809437602758408, -0.00030763415270484984, -0.5964532494544983, 0.37467512488365173, -0.3388645350933075, -0.1068219393491745, 0.5140770673751831, 0.261294960975647, -0.4095424711704254, 0.1676156222820282, -0.33476218581199646, -0.24179121851921082, 0.11835145205259323, 0.13050535321235657, -0.25887149572372437, 0.13976362347602844, 0.08332108706235886, -0.2861960232257843, 0.24744145572185516, -0.06368400901556015, -0.12537267804145813, -0.10198552161455154, 0.37250998616218567, -0.39187443256378174, -0.31588658690452576, 0.3654279112815857, 0.08095840364694595, -0.5111098885536194, 0.29930418729782104, 0.4175724983215332, 0.1791694164276123, -0.1806119680404663, -0.5536375045776367, 0.055859580636024475, 0.3092312514781952, 0.18530625104904175, -0.268679678440094, 0.07495343685150146, -0.08065096288919449, 0.35362955927848816, 0.4886336624622345, -0.33288514614105225, -0.21609587967395782, 0.26762792468070984, -0.41304510831832886, -0.38632670044898987, -0.20217324793338776, 0.4978795349597931, 0.221048966050148, -0.3644508719444275, 0.08212289214134216, 0.29042917490005493, -0.4477403461933136, -0.34969910979270935, -0.31820017099380493, -0.24991339445114136, 0.10765416920185089, -0.3422517776489258, 0.24373219907283783, -0.04956924542784691, -0.48666149377822876, 0.15037694573402405, -0.12599004805088043, 0.3474573493003845, -0.19339409470558167, 0.14100566506385803, -0.47938916087150574, -0.48444220423698425, -0.3896327316761017, 0.20811058580875397, -0.016888689249753952, 0.2685534954071045], [-0.3248020112514496, 0.09460406005382538, -0.4392284154891968, -0.32655128836631775, -0.2567497193813324, -0.2128211408853531, -0.14656002819538116, -0.08341024070978165, -0.2853758633136749, 0.08596571534872055, 0.16509926319122314, -0.34526893496513367, -0.10940314829349518, 0.2510503828525543, -0.3938634693622589, 0.39802396297454834, -0.36671239137649536, 0.09884992986917496, -0.004571041092276573, 0.025046521797776222, -0.1026570051908493, 0.09032803028821945, -0.2887246310710907, 0.13367094099521637, 0.2949720323085785, -0.027317671105265617, -0.267712265253067, -0.3365957736968994, -0.24500608444213867, -0.010977585799992085, 0.4366699457168579, -0.06433848291635513, 0.12384327501058578, -0.12464866042137146, -0.26774153113365173, -0.11280443519353867, 0.1652000993490219, 0.2496766895055771, -0.4233812093734741, 0.235383540391922, -0.33132627606391907, -0.0472116656601429, -0.23034556210041046, -0.1783609390258789, -0.186811164021492, -0.35873520374298096, 0.002843304304406047, -0.07789579778909683, 0.33645251393318176, 0.03191113844513893, -0.06876999139785767, 0.3970223069190979, 0.2297142595052719, 0.20303337275981903, -0.16377700865268707, 0.2114345133304596, -0.1929454803466797, -0.007935718633234501, -0.17681331932544708, 0.49111491441726685, 0.2506733536720276, 0.09709785878658295, -0.28298115730285645, -0.31642329692840576, -0.10088104754686356, 0.7017263174057007, 0.22674871981143951, 0.0778186097741127, -0.33567872643470764, 0.12452071160078049, -0.044190939515829086, 0.12700919806957245, 0.08616822957992554, -0.0938214436173439, 0.04716214910149574, -0.09259025007486343, 0.08359898626804352, 0.06544721871614456, -0.003183236112818122, -0.448562353849411, 0.13633328676223755, 0.06560169905424118, -0.20845915377140045, -0.2276722639799118, -0.13022863864898682, -0.20267678797245026, 0.2668613791465759, -0.2901417911052704, 0.6298399567604065, -0.2075347602367401, -0.1676579862833023, -0.0945616289973259, 0.27380460500717163, 0.3504777252674103, 0.10021266341209412, -0.17512138187885284, 0.30170467495918274, 0.1279834359884262, 0.3505330979824066, -0.26722651720046997, 0.2298896610736847, -0.15269528329372406, 0.03970639780163765, 0.050072379410266876, 0.11624415218830109, -0.23399603366851807, -0.028783077374100685, -0.0222652368247509, 0.18140849471092224, -0.28694307804107666, -0.37072476744651794, -0.2682231664657593, 0.2719886898994446, 0.5895146131515503, 0.10582315921783447, -0.3128374516963959, 0.015854334458708763, -0.11532943695783615, -0.05335571616888046, 0.3582041263580322, -0.2410489320755005, 0.3611534535884857, -0.05240872502326965, -0.6039848923683167, 0.06888736039400101, -0.0632152408361435, -0.09057311713695526, 0.18503135442733765], [-0.29368752241134644, -0.5258608460426331, 0.39431339502334595, -0.40211430191993713, 0.14950089156627655, 0.1099952757358551, -0.05842334404587746, 0.07889563590288162, -0.026508845388889313, -0.18215370178222656, 0.24633988738059998, -0.18566952645778656, -0.4268867075443268, -0.022413436323404312, 0.30544450879096985, -0.18209633231163025, 0.28170284628868103, -0.08384311944246292, -0.3027840554714203, 0.13545793294906616, 0.28194987773895264, 0.21268706023693085, 0.06722266972064972, 0.20369641482830048, -0.3545939028263092, 0.1224237009882927, 0.04451931640505791, 0.15923276543617249, -0.005790841765701771, 0.1828111857175827, -0.05426442250609398, 0.26375389099121094, -0.30786311626434326, -0.15238140523433685, -0.3534983694553375, -0.46118971705436707, -0.05062803998589516, 0.27592936158180237, 0.11410326510667801, 0.4372973144054413, 0.22013550996780396, 0.026396332308650017, -0.3669123947620392, 0.30703988671302795, -0.01983031816780567, -0.30171579122543335, -0.40340903401374817, -0.09985382854938507, 0.20202580094337463, -0.3003571629524231, 0.07116933912038803, -0.035495154559612274, -0.21817712485790253, 0.15178020298480988, 0.2007501721382141, 0.22873510420322418, 0.04400070384144783, 0.4933878183364868, -0.34038662910461426, -0.2006080597639084, -0.34726783633232117, 0.3475293219089508, -0.2396380454301834, -0.10473984479904175, -0.19035616517066956, -0.06419259309768677, -0.2612079083919525, 0.045084498822689056, 0.3447624146938324, 0.06466667354106903, -0.34650880098342896, -0.3530052602291107, 0.15129859745502472, -0.16215001046657562, 0.4538199305534363, -0.2473425269126892, -0.27675798535346985, -0.12707944214344025, -0.12912695109844208, -0.19604021310806274, 0.11039074510335922, -0.2899966537952423, -0.1617487668991089, 0.18018294870853424, -0.0972975641489029, -0.3550325036048889, -0.15391135215759277, 0.08249151706695557, -0.4023384153842926, 0.09439527243375778, -0.35489174723625183, 0.18728451430797577, -0.22257232666015625, -0.32152876257896423, -0.4220447242259979, -0.3488590121269226, -0.0515187568962574, -0.11107583343982697, -0.006599747110158205, -0.21920160949230194, 0.14471669495105743, 0.34360039234161377, 0.07767761498689651, -0.17859230935573578, 0.3279207944869995, 0.11755484342575073, -0.06675942242145538, -0.6474559307098389, -0.4323234558105469, -0.2885361611843109, -0.5964850187301636, -0.11727430671453476, -0.08522436022758484, 0.3708733320236206, -0.038377873599529266, -0.31829833984375, 0.24530908465385437, 0.13074113428592682, -0.41736170649528503, -0.3270609676837921, 0.18375492095947266, 0.1422479748725891, -0.29651927947998047, -0.31034889817237854, 0.057931408286094666, 0.09711206704378128, -0.2555259168148041, 0.16567696630954742], [-0.13019610941410065, -0.09170609712600708, -0.008415737189352512, -0.18104632198810577, -0.1207786500453949, -0.5474104285240173, 0.013013534247875214, -0.3013833463191986, 0.13906536996364594, -0.049729637801647186, -0.28325730562210083, 0.0019970957655459642, 0.033068813383579254, -0.26083409786224365, 0.4270113408565521, -0.04763675108551979, -0.2884680926799774, -0.1317361444234848, -0.41372543573379517, -0.3054969012737274, 0.11203708499670029, -0.7465661764144897, 0.4941994845867157, -0.26605725288391113, 0.14939454197883606, -0.5207680463790894, 0.4729304015636444, 0.2986816167831421, -0.4809313714504242, -0.3030846416950226, -0.1498306691646576, 0.2752076983451843, -0.35177695751190186, 0.08935309946537018, 0.04907677695155144, 0.4111211895942688, 0.4178851246833801, -0.42355644702911377, 0.21417328715324402, 0.16205260157585144, 0.3878403306007385, -0.20650456845760345, 0.08655229210853577, 0.013501567766070366, 0.385125994682312, -0.19364313781261444, 0.07090979814529419, 0.19183014333248138, 0.2652791440486908, 0.14633217453956604, -0.09963218867778778, -0.004851204343140125, -0.18154273927211761, -0.1898096203804016, 0.0002948579203803092, -0.13362005352973938, 0.49728235602378845, -0.2085724025964737, -0.39432504773139954, -0.24342496693134308, -0.38289761543273926, -0.16601115465164185, -0.4604152739048004, -0.09792891144752502, -0.05229811370372772, 0.26965051889419556, -0.5734661221504211, -0.08553636074066162, 0.31493598222732544, -0.3188056945800781, -0.23387353122234344, -0.11944183707237244, 0.42324188351631165, -0.3024681806564331, -0.2022344321012497, 0.2814505398273468, 0.30376484990119934, -0.18639831244945526, -0.10923655331134796, 0.2059665024280548, 0.568768322467804, 0.042893651872873306, -0.43357500433921814, 0.32910558581352234, -0.287282258272171, -0.5611868500709534, -0.055297672748565674, -0.5947409272193909, 0.2985174357891083, 0.01480137836188078, 0.12876126170158386, 0.4623359441757202, 0.1992952674627304, 0.14227211475372314, -0.18779470026493073, -0.26355352997779846, 0.3425065875053406, 0.16263410449028015, 0.25768259167671204, -0.41020679473876953, 0.06393272429704666, 0.4032854735851288, 0.22112728655338287, -0.0017166418256238103, -0.003289236221462488, 0.13349483907222748, 0.36337825655937195, 0.5734314918518066, -0.2603219747543335, 0.20255166292190552, 0.063142791390419, -0.039744533598423004, -0.262568861246109, 0.1900627613067627, 0.13788892328739166, -0.24033570289611816, 0.38841795921325684, 0.07145948708057404, -0.4510846734046936, -0.0016126286936923862, 0.29687488079071045, 0.309451162815094, 0.4503833055496216, 0.3505282998085022, -0.026927487924695015, -0.2229558825492859, -0.3541578948497772, -0.25820380449295044], [0.3933180570602417, -0.06494967639446259, 0.2270948588848114, 0.39031702280044556, -0.25190258026123047, 0.10546433925628662, 0.0808466374874115, 0.03186516463756561, -0.19973812997341156, -0.1553269326686859, 0.35212698578834534, -0.3536944091320038, 0.2562764883041382, -0.32403627038002014, 0.05175533890724182, -0.4346018433570862, 0.4382861852645874, -0.17432653903961182, 0.147181898355484, 0.14419658482074738, 0.06920156627893448, 0.16571596264839172, 0.24741695821285248, -0.4807470440864563, -0.003867541905492544, -0.02377232536673546, -0.3883399963378906, 0.550874650478363, -0.28934627771377563, 0.027937917038798332, 0.12007170170545578, 0.6563166975975037, 0.5436713099479675, -0.18316438794136047, 0.3021637499332428, -0.22741782665252686, -0.13639548420906067, -0.14114488661289215, 0.5140275359153748, 0.1094050407409668, -0.3410533666610718, -0.40771207213401794, -0.04713017866015434, 0.17206759750843048, -0.271553099155426, -0.2770066261291504, -0.26672837138175964, -0.03543521836400032, 0.38083577156066895, 0.25023582577705383, -0.2361781746149063, -0.17489296197891235, 0.31937193870544434, -0.2949284315109253, 0.009706810116767883, 0.4250909686088562, 0.24523065984249115, -0.2369461953639984, -0.09458523243665695, 0.10475310683250427, 0.031891707330942154, 0.1872158795595169, -0.5436403155326843, -0.38218092918395996, -0.203898087143898, -0.1476464867591858, -0.443147748708725, 0.03136344999074936, -0.17761613428592682, -0.3718186020851135, -0.5087164044380188, -0.5896892547607422, 0.35299763083457947, -0.061742354184389114, -0.046747107058763504, 0.20436376333236694, -0.2912960350513458, 0.3341405689716339, -0.13320353627204895, -0.5893498659133911, -0.3453529477119446, -0.23481209576129913, 0.28684720396995544, -0.10728684812784195, -0.5148362517356873, -0.14304441213607788, 0.26995372772216797, 0.5095415711402893, -0.4199316203594208, -0.20105460286140442, 0.1383853256702423, 0.6165961027145386, -0.16405059397220612, -0.2990110218524933, -0.047563258558511734, 0.14087936282157898, -0.01317158155143261, -0.034637756645679474, 0.20180727541446686, -0.5920131802558899, -0.1123102530837059, 0.16310423612594604, -0.24822013080120087, 0.1242879256606102, 0.24653375148773193, 0.15106883645057678, 0.11350565403699875, -0.0631711333990097, 0.2550683617591858, -0.19273996353149414, -0.5421808362007141, -0.15023012459278107, -0.21840903162956238, -0.4211643636226654, 0.40134525299072266, -0.07722184807062149, 0.02623082883656025, -0.1372222900390625, -0.42329129576683044, 0.257610946893692, -0.4355223774909973, -0.0560331791639328, -0.4064972996711731, 0.30352872610092163, 0.3254829943180084, 0.24058380722999573, 0.24581192433834076, -0.0699419230222702], [0.30465883016586304, 0.02294519729912281, 0.2670954167842865, -0.16115599870681763, 0.24846135079860687, -0.2370201200246811, -0.3278267979621887, -0.18811237812042236, -0.364666610956192, 0.10105341672897339, -0.20373983681201935, 0.01457680482417345, 0.16165104508399963, 0.3668207824230194, -0.12334313988685608, 0.22846733033657074, 0.014071278274059296, -0.13774614036083221, 0.10549717396497726, 0.25811275839805603, -0.24576622247695923, -0.19803832471370697, 0.42799443006515503, -0.0004693028749898076, -0.1373782455921173, -0.23812080919742584, -0.2196931093931198, 0.150233656167984, 0.10376151651144028, 0.4240221083164215, -0.2812056243419647, 0.09148792177438736, -0.3248080909252167, 0.2382606863975525, 0.029939012601971626, -0.21911972761154175, -0.12795618176460266, -0.3597346544265747, -0.07927858829498291, 0.3169867992401123, -0.11119310557842255, -0.036038655787706375, 0.2845247983932495, 0.09038133174180984, 0.24413122236728668, -0.32245585322380066, -0.3958340883255005, 0.08807678520679474, 0.3051844537258148, 0.07886764407157898, 0.2893013656139374, 0.3275777995586395, -0.11115443706512451, -0.22856701910495758, 0.0031826894264668226, 0.38077399134635925, -0.3824119567871094, -0.16234493255615234, -0.4421590268611908, -0.04534623399376869, 0.05916863679885864, 0.6031096577644348, -0.07264324277639389, -0.33817216753959656, 0.24012167751789093, -0.3119194209575653, -0.4278165102005005, 0.1275264024734497, 0.25688570737838745, -0.35568925738334656, 0.36134791374206543, -0.12073120474815369, 0.05589113011956215, -0.4923553764820099, -0.13290485739707947, 0.21368710696697235, -0.5377926826477051, -0.13013646006584167, -0.26039808988571167, 0.3102301359176636, 0.3409389555454254, -0.5183887481689453, 0.010538158006966114, -0.03649021312594414, 0.07118227332830429, -0.36159250140190125, -0.2016158252954483, -0.10007306933403015, -0.17680701613426208, -0.29538553953170776, -0.5176962018013, 0.21315684914588928, 0.5270133018493652, -0.08073390275239944, 0.0059914737939834595, 0.3401041030883789, -0.3523208498954773, 0.030970467254519463, 0.08626186847686768, -0.19525142014026642, -0.21699605882167816, 0.43741944432258606, 0.5531558394432068, 0.06716323643922806, -0.0562448725104332, 0.37595072388648987, -0.0561167374253273, 0.2104489505290985, -0.3504509925842285, -0.2643762230873108, -0.44240400195121765, 0.1789568066596985, -0.1605512797832489, 0.0134666096419096, 0.3623550534248352, 0.3426959812641144, 0.2583693563938141, 0.1293618083000183, 0.13457484543323517, -0.2667711079120636, 0.027490530163049698, -0.2172931730747223, 0.17530003190040588, 0.10265030711889267, -0.43653640151023865, 0.07157450914382935, 0.5059508085250854, -0.39862507581710815], [-0.3468153476715088, -0.2908230423927307, 0.3554651737213135, -0.22756898403167725, 0.09885524213314056, -0.7305973172187805, 0.30387428402900696, -0.05032210424542427, -0.1610158234834671, 0.061006367206573486, 0.36946210265159607, -0.019973350688815117, 0.24682867527008057, -0.4664575755596161, -0.05470464378595352, -0.3348864018917084, -0.27566778659820557, -0.08546337485313416, 0.1936333328485489, 0.297622412443161, 0.11903981119394302, -0.08317127078771591, 0.23857882618904114, 0.5560355186462402, 0.15832848846912384, -0.38382816314697266, 0.5437014102935791, -0.2664978802204132, 0.275991290807724, 0.24137786030769348, 0.20296894013881683, 0.2318028062582016, 0.19333118200302124, 0.04189015552401543, -0.40654614567756653, 0.006952793803066015, 0.08662106096744537, 0.13336814939975739, -0.06352030485868454, 0.39764097332954407, 0.19315801560878754, -0.3409948945045471, -0.30761516094207764, -0.1151798665523529, 0.1726515293121338, 0.2006121575832367, -0.08602242916822433, 0.06728643923997879, -0.2430848628282547, 0.4193614423274994, -0.06233874335885048, -0.16538801789283752, -0.6303081512451172, -0.3147008717060089, 0.3514319658279419, 0.0638720765709877, -0.4952649474143982, -0.07898049801588058, -0.3171033561229706, 0.05748334154486656, -0.014804760925471783, 0.0489623062312603, 0.5784509181976318, 0.7698727250099182, 0.021477028727531433, -0.5106495022773743, -0.03804972395300865, -0.4454960227012634, -0.6771531701087952, 0.18626660108566284, -0.20406201481819153, -0.31505268812179565, -0.20893441140651703, 0.6480556726455688, -0.2226172387599945, 0.29034745693206787, 0.1398913562297821, 0.055657606571912766, 0.519392728805542, 0.0050445180386304855, -0.15091529488563538, 0.1355535089969635, 0.09967615455389023, -0.31189262866973877, 0.07383978366851807, -0.12021282315254211, -0.13306018710136414, -0.5486670136451721, -0.1537991762161255, 0.37993258237838745, -0.5026220679283142, -0.3208155930042267, 0.348184734582901, 0.2947695553302765, 0.15498656034469604, -0.14073434472084045, -0.19727467000484467, -0.2446698248386383, 0.4182075560092926, -0.5636304616928101, -0.08008723706007004, 0.335903525352478, 0.056936636567115784, -0.008192854933440685, 0.11898595094680786, -0.017408443614840508, 0.28922805190086365, 0.5494693517684937, 0.2457015961408615, -0.42935195565223694, 0.4637383222579956, -0.3361535668373108, -0.03718060627579689, -0.1641279011964798, 0.1259137988090515, 0.019339460879564285, 0.4761078953742981, -0.08831026405096054, -0.48491179943084717, 0.7009586095809937, -0.00536659499630332, -0.014035348780453205, -0.27974873781204224, 0.03921090066432953, -0.41485345363616943, 0.5138648152351379, 0.2890964448451996, -0.48729437589645386], [0.3466840088367462, -0.44281187653541565, 0.28080716729164124, -0.19126451015472412, -0.09889551252126694, -0.4239341914653778, 0.142826110124588, -0.16705313324928284, 0.084599070250988, 0.31861382722854614, 0.11358676105737686, -0.2760458290576935, 0.11141990125179291, 0.19061803817749023, -0.2764739692211151, 0.5391020178794861, -0.45555517077445984, -0.39823001623153687, 0.5717853307723999, -0.09351174533367157, 0.30460450053215027, 0.1975836604833603, 0.06549588590860367, 0.24426735937595367, 0.23026910424232483, 0.6936098337173462, -0.07987651228904724, -0.09305284917354584, 0.3600854277610779, -0.4357852637767792, -0.20292928814888, -0.342540979385376, -0.2015678733587265, -0.1556423455476761, 0.5552423596382141, 0.6548811197280884, -0.38076117634773254, 0.27505621314048767, -0.06929134577512741, 0.38378363847732544, 0.3478480279445648, -0.6115533709526062, -0.6284708976745605, -0.5084397792816162, -0.6245104074478149, -0.3348329961299896, -0.1952901929616928, -0.2879810333251953, -0.1632024198770523, 0.017619101330637932, 0.15065450966358185, -0.3802180886268616, 0.1477188766002655, -0.4948914647102356, -0.057811956852674484, 0.23300766944885254, 0.19906170666217804, -0.04860546439886093, 0.4148678481578827, 0.09699572622776031, 0.5655094385147095, -0.09168624877929688, -0.37402603030204773, -0.1250641793012619, -0.34602102637290955, 0.498783677816391, -0.12389133125543594, -0.023106670007109642, 0.28083840012550354, -0.44105902314186096, 0.3257957398891449, -0.46959224343299866, 0.06742580980062485, -0.5164678692817688, -0.03290832042694092, 0.03440491855144501, 0.10212361067533493, -0.165910005569458, -0.03129022940993309, -0.3861096501350403, -0.014665506780147552, 0.30337458848953247, -0.19042298197746277, -0.13602443039417267, -0.27448582649230957, 0.5216289162635803, -0.42196500301361084, 0.373384952545166, -0.42498019337654114, -0.2555970847606659, 0.3353382349014282, 0.05532447248697281, 0.37579265236854553, -0.4672771692276001, -0.019775357097387314, -0.23016716539859772, -0.10992079973220825, 0.08219026774168015, -0.13328085839748383, -0.09781689941883087, 0.2986859083175659, 0.016383621841669083, 0.2960852086544037, -0.19937348365783691, 0.49471279978752136, 0.3056352734565735, -0.208030566573143, 0.476985901594162, -0.0022149395663291216, -0.18384715914726257, 0.3878866732120514, 0.039826568216085434, -0.28574103116989136, 0.35951468348503113, 0.14198803901672363, 0.2539343535900116, -0.6282625198364258, 0.23461878299713135, 0.7298438549041748, 0.3564213812351227, 0.23803623020648956, -0.35213544964790344, -0.08172573149204254, -0.09291297942399979, 0.2696651220321655, 0.5972153544425964, -0.29888784885406494, 0.5225958824157715], [-0.07202868908643723, 0.18711037933826447, 0.39808014035224915, 0.3765425384044647, -0.2949034869670868, -0.03783945366740227, -0.4276440143585205, -0.07740113884210587, -0.35128799080848694, -0.2914558947086334, -0.30542320013046265, -0.15351468324661255, -0.256344735622406, -0.18508976697921753, -0.4023030996322632, -0.43399402499198914, -0.2108260989189148, 0.10860661417245865, -0.26259562373161316, -0.03780686855316162, -0.05250242352485657, -0.20498837530612946, -0.2340192198753357, -0.14580632746219635, -0.3560016453266144, 0.09977831691503525, -0.04313763603568077, -0.16546836495399475, 0.2679250240325928, 0.11926459521055222, 0.10810397565364838, 0.2547472417354584, 0.10594601929187775, 0.04847855865955353, 0.07936998456716537, 0.38696977496147156, 0.009560954757034779, -0.02223135717213154, -0.22363270819187164, 0.22577045857906342, -0.23192380368709564, -0.025414016097784042, -0.05042257532477379, 0.20091603696346283, -0.43679389357566833, 0.15346400439739227, 0.34982988238334656, 0.06355694681406021, 0.13970154523849487, -0.11250251531600952, -0.07732874155044556, 0.03834189474582672, -0.14558181166648865, -0.26490044593811035, -0.020838366821408272, -0.14340156316757202, 0.06011715531349182, -0.02571692317724228, 0.10647539049386978, 0.2727324366569519, -0.16020484268665314, 0.06289202719926834, 0.058147329837083817, -0.3007136285305023, 0.07487915456295013, 0.10701676458120346, -0.10864505171775818, -0.06473185122013092, 0.2488735467195511, 0.22285956144332886, -0.009210258722305298, -0.17422056198120117, 0.3355243504047394, -0.23917809128761292, -0.061362627893686295, -0.24226243793964386, 0.0866231918334961, -0.205464169383049, 0.043274812400341034, -0.06609898805618286, -0.2614944577217102, -0.16192160546779633, -0.1754164844751358, 0.2894722819328308, 0.10797204822301865, -0.08217721432447433, -0.25422269105911255, -0.1436302810907364, -0.2188166081905365, 0.1588747799396515, -0.09874378889799118, 0.20676803588867188, -0.2083180844783783, 0.3543100357055664, 0.10132187604904175, -0.3506025969982147, 0.22203706204891205, -0.1493833065032959, 0.240153506398201, 0.17396986484527588, 0.4485328197479248, -0.15558850765228271, -0.15756407380104065, 0.16923247277736664, 0.29956480860710144, 0.19463767111301422, -0.014545981772243977, 0.06207498908042908, -0.20021095871925354, -0.0032744065392762423, -0.2632066607475281, 0.28374549746513367, -0.20981770753860474, 0.23247648775577545, -0.04488427937030792, 0.3221384584903717, 0.30996769666671753, 0.1319480538368225, -0.21581347286701202, 0.35917916893959045, -0.3847275972366333, 0.13639135658740997, 0.023737812414765358, 0.182516947388649, -0.07488267868757248, 0.12259992957115173, 0.27609241008758545, -0.1222313642501831], [0.1675337702035904, -0.046627942472696304, -0.372708261013031, -0.28782397508621216, 0.26279497146606445, -0.4556598663330078, -0.24274268746376038, 0.20849637687206268, -0.1267780214548111, -0.2606046795845032, -0.24617637693881989, 0.3116770088672638, 0.2044810652732849, 0.2545839846134186, 0.04525405541062355, 0.46348536014556885, 0.03576656058430672, -0.14909344911575317, -0.08826975524425507, -0.3359779119491577, -0.04741966724395752, 0.050601448863744736, -0.050838835537433624, -0.12180780619382858, -0.3387489914894104, 0.021851081401109695, -0.29047533869743347, 0.33519116044044495, 0.07287655770778656, -0.11197765171527863, 0.01959965191781521, -0.008333615027368069, 0.052083052694797516, 0.4790797233581543, 0.246884286403656, -0.2917344868183136, -0.4826224744319916, 0.40111681818962097, -0.5182770490646362, -0.3527270555496216, -0.3215442895889282, 0.26982301473617554, 0.4135548174381256, 0.6068921685218811, -0.3553878664970398, -0.3108889162540436, -0.16321207582950592, -0.06648694723844528, -0.1486525535583496, 0.11068729311227798, 0.16834941506385803, 0.18852102756500244, 0.06549814343452454, 0.1020585149526596, -0.2609436511993408, -0.08519336581230164, 0.37940484285354614, 0.11115102469921112, -0.19780582189559937, 0.26677215099334717, -0.4111540615558624, 0.6415742635726929, -0.1541634202003479, 0.49901506304740906, -0.05077216029167175, -0.1863589733839035, -0.4710335433483124, 0.3405984342098236, 0.3962162435054779, 0.31864506006240845, 0.08428909629583359, -0.4418768286705017, 0.4008231461048126, 0.09870113432407379, 0.4131014049053192, -0.52073073387146, 0.03547000512480736, -0.14911943674087524, -0.31286680698394775, -0.5908978581428528, -0.33012962341308594, 0.1143396869301796, -0.22318068146705627, -0.09818435460329056, 0.47722479701042175, -0.5425300598144531, -0.07237977534532547, 0.22366850078105927, 0.3481842577457428, 0.13934960961341858, -0.5195924639701843, -0.036764565855264664, -0.1522255390882492, 0.10953149944543839, 0.30271607637405396, 0.14586801826953888, 0.028113672509789467, 0.28099575638771057, -0.28245240449905396, 0.19960829615592957, -0.45587438344955444, -0.14899279177188873, 0.35764211416244507, 0.46787816286087036, 0.2641177475452423, 0.29819780588150024, 0.44286414980888367, 0.12644405663013458, -0.15200886130332947, 0.4065123498439789, -0.3768423795700073, -0.3304567337036133, 0.5434103012084961, -0.23028700053691864, 0.056937552988529205, -0.024667460471391678, -0.46075010299682617, 0.12288784235715866, -0.1036304235458374, 0.3713536560535431, -0.4763825833797455, 0.15963268280029297, -0.6618908047676086, 0.03516372665762901, -0.5021508932113647, 0.23877893388271332, 0.4150196611881256, 0.1503496617078781], [-0.03501628711819649, 0.2054508477449417, 0.33279871940612793, -0.7529080510139465, 0.657077968120575, -0.13854177296161652, 0.04708791524171829, -0.2758442759513855, -0.3768962621688843, -0.3214586079120636, 0.07129871845245361, -0.5143564343452454, 0.07114794850349426, -0.07447231560945511, 0.08884260803461075, -0.22789660096168518, -0.21660029888153076, -0.6124063730239868, 0.16800598800182343, -0.08228778839111328, -0.07558654248714447, 0.25010597705841064, 0.6604673862457275, 0.020337939262390137, 0.486499547958374, 0.021027689799666405, -0.4528818428516388, 0.2672906219959259, -0.05838390812277794, 0.14818662405014038, 0.3739769458770752, -0.589824378490448, 0.7619603276252747, -0.4392300248146057, -0.17583999037742615, -0.0983106717467308, -0.04927649348974228, -0.2839156687259674, -0.20923222601413727, -0.11622609198093414, -0.7196744680404663, 0.8089386224746704, -0.8281008005142212, 0.019388068467378616, -0.20934130251407623, -0.28742915391921997, 0.28390175104141235, -0.2559276819229126, 0.13307063281536102, 0.06030655279755592, 0.33778300881385803, 0.5947827100753784, 0.07583170384168625, 0.28267043828964233, -0.032078683376312256, -0.3346468210220337, -0.22831402719020844, 0.2963896691799164, 0.9046556949615479, -0.4296937584877014, -0.30650603771209717, -0.7499352693557739, -0.04426106810569763, -0.14205265045166016, 0.34188976883888245, -0.38616546988487244, -0.3321970999240875, 0.2956952154636383, -0.17956404387950897, 0.14828254282474518, 0.08030109107494354, 0.19148048758506775, 0.05094126984477043, -0.17392614483833313, -0.10797132551670074, -0.11140596121549606, 0.3759932518005371, 0.30870291590690613, -0.3445287346839905, -0.15754322707653046, -0.37850290536880493, 0.2107761800289154, -0.30955183506011963, 0.02164088748395443, -0.06013796105980873, -0.214797243475914, -0.5569378733634949, 0.2963234782218933, -0.40107688307762146, 0.21553176641464233, -0.16411958634853363, 0.442873477935791, 0.40987274050712585, -0.4013950824737549, 0.16848133504390717, -0.4935649037361145, 0.38499072194099426, -0.09021974354982376, 0.63474440574646, -0.06907502561807632, 0.24612383544445038, -0.5159516930580139, -0.3436870276927948, 0.23987720906734467, -0.05024154111742973, -0.28099876642227173, -0.07565075904130936, 0.25937893986701965, -0.10439518094062805, -0.33959466218948364, 0.44584861397743225, -0.7939743399620056, -0.3806987404823303, 0.5497437119483948, 0.22022713720798492, 0.5545756816864014, 0.6773635149002075, -0.23759259283542633, 0.3573603630065918, 0.32743343710899353, 0.371859610080719, 0.2375357449054718, -0.30768588185310364, -0.24546803534030914, -0.10094389319419861, 0.05313458666205406, -0.35562506318092346, -0.1429791897535324], [-0.46003881096839905, 0.19480909407138824, 0.055240798741579056, -0.5234075784683228, -0.18900880217552185, -0.24995194375514984, -0.06797144562005997, -0.18821914494037628, -0.04835112392902374, -0.4074813723564148, 0.4654550850391388, 0.12405134737491608, 0.38092535734176636, 0.20352928340435028, -0.10467872768640518, 0.020853843539953232, 0.43526023626327515, -0.3568732440471649, -0.12716466188430786, 0.16066065430641174, -0.06064816936850548, -0.05884513631463051, -0.13113555312156677, -0.29970723390579224, -0.24120037257671356, -0.32954055070877075, -0.5410629510879517, 0.45166826248168945, 0.3228650987148285, 0.532707154750824, 0.278608500957489, 0.39791297912597656, 0.19688940048217773, -0.3828502595424652, 0.24310845136642456, 0.12164483219385147, 0.034147825092077255, -0.43573054671287537, 0.46819499135017395, -0.14620915055274963, -0.1660919487476349, -0.27938130497932434, -0.1595868170261383, 0.3216497600078583, 0.1607646495103836, 0.20302575826644897, 0.1914331167936325, -0.057768113911151886, 0.35391420125961304, -0.4045441746711731, -0.2877492308616638, -0.5308980345726013, -0.24637658894062042, 0.08232871443033218, -0.2250278741121292, -0.3023315668106079, -0.3274092674255371, 0.49035197496414185, 0.26839688420295715, -0.24334806203842163, -0.24312391877174377, -0.31422433257102966, -0.22478346526622772, -0.0038131524343043566, 0.12442772835493088, 0.5698688626289368, -0.2361852377653122, -0.08824422955513, -0.16080395877361298, -0.08777619153261185, 0.1827419251203537, -0.2983964681625366, 0.01843341253697872, 0.04623325169086456, -0.29273757338523865, 0.009216263890266418, 0.0016796212876215577, -0.06658580154180527, 0.5361699461936951, 0.15382418036460876, 0.16939011216163635, 0.4115836024284363, -0.17181970179080963, 0.027086496353149414, -0.05168411508202553, -0.06803914159536362, -0.2786153256893158, -0.17078790068626404, 0.3688931167125702, -0.06421467661857605, 0.09117434918880463, -0.19063761830329895, -0.22546818852424622, -0.5178356766700745, -0.016431260854005814, -0.09933221340179443, 0.0460553802549839, 0.2312227487564087, -0.08051882684230804, -0.03690798580646515, 0.3532619774341583, -0.24579739570617676, 0.03385336697101593, -0.12825095653533936, -0.25752580165863037, 0.16520799696445465, -0.2646183967590332, -0.36434081196784973, -0.09642093628644943, 0.4025452136993408, 0.05461600795388222, 0.3988852798938751, -0.3153625726699829, 0.10290003567934036, 0.2699330151081085, 0.1801535040140152, 0.3132328391075134, -0.4527267515659332, -0.239451065659523, 0.001445684814825654, -0.41321197152137756, -0.15094411373138428, 0.2704527676105499, -0.0513884462416172, -0.10142181813716888, -0.24675488471984863, 0.2542516887187958, -0.14047934114933014], [0.022865043953061104, 0.016526348888874054, -0.11078235507011414, -0.1656031459569931, -0.11094169318675995, 0.1053098514676094, 0.02087220922112465, 0.09810584038496017, -0.008186391554772854, -0.08505471050739288, -0.07454418390989304, -0.09241021424531937, 0.12658514082431793, 0.009345244616270065, 0.1925554722547531, -0.12039010971784592, -0.19866777956485748, -0.02562766522169113, 0.02352183870971203, 0.09035524725914001, 0.11092336475849152, 0.06296725571155548, -0.03656716272234917, 0.006537056528031826, -0.03428720682859421, 0.11216927319765091, 0.07069835066795349, -0.08278761804103851, -0.14494623243808746, -0.1565774828195572, 0.11890257149934769, 0.09867987781763077, -0.05953732877969742, 0.01690591499209404, -0.09260382503271103, -0.08617980778217316, -0.1267738789319992, 0.0579269677400589, 0.21082010865211487, 0.11524266749620438, 0.006286468356847763, -0.07526281476020813, 0.17959222197532654, -0.035284049808979034, 0.09910642355680466, -0.00377334444783628, -0.1528966724872589, 0.14657379686832428, 0.07575266808271408, -0.016499998047947884, 0.08923803269863129, 0.001046630903147161, -0.15964831411838531, -0.061777882277965546, 0.13721098005771637, -0.19969283044338226, -0.12876754999160767, 0.22489792108535767, -0.03290790691971779, -0.04850493744015694, 0.13223090767860413, 0.016858495771884918, -0.18612369894981384, 0.10510100424289703, -0.037322819232940674, -0.04433048516511917, -0.06905563175678253, 0.06233280897140503, 0.009322164580225945, 0.1228022500872612, -0.07066968083381653, -0.06679007411003113, 0.12343127280473709, 0.05332345888018608, -0.07166337221860886, 0.06785321235656738, 0.07362166792154312, -0.09408759325742722, 0.014109563082456589, 0.1090734675526619, -0.062268469482660294, 0.048689600080251694, -0.06894351541996002, -0.09975456446409225, -0.0029014518950134516, -0.012616836465895176, 0.06929398328065872, 0.08198172599077225, 0.031163310632109642, 0.05826224386692047, 0.17463307082653046, -0.04269528016448021, -0.0904153436422348, -0.0304446741938591, -0.05721651390194893, -0.11356942355632782, 0.040017951279878616, -0.05424504354596138, -0.017407001927495003, -0.019939085468649864, -0.0922679677605629, 0.07779617607593536, 0.1433793008327484, 0.1019488275051117, -0.10705423355102539, -0.07191856950521469, 0.10463864356279373, 0.07709717005491257, 0.012961797416210175, -0.11298095434904099, 0.07870390266180038, 0.008252482861280441, 0.19498221576213837, -0.057822804898023605, -0.21002890169620514, 0.029258161783218384, 0.052018485963344574, 0.024766286835074425, 0.04052193835377693, 0.023093702271580696, -0.07162988185882568, 0.0374244749546051, 0.04701724275946617, -0.01038946583867073, -0.040579020977020264, 0.07140976190567017, -0.11992484331130981, -0.10972336679697037], [-0.009887426160275936, 0.028349196538329124, 0.18312108516693115, 0.07219863682985306, 0.15068036317825317, 0.044893376529216766, -0.02702193334698677, -0.13852663338184357, -0.20017670094966888, 0.1716526299715042, -0.15812301635742188, -0.04490193724632263, -0.06354298442602158, -0.10619641840457916, -0.003753704484552145, -0.039016205817461014, -0.08342194557189941, 0.018435273319482803, -0.1679118424654007, -0.07012096792459488, 0.05225585773587227, -0.06674635410308838, 0.037413518875837326, -0.14245057106018066, 0.0831088051199913, 0.09977509081363678, -0.1535717397928238, 0.07698927819728851, -0.05540658161044121, 0.13560709357261658, 0.046341054141521454, 0.06492777168750763, 0.1960897296667099, 0.09937289357185364, 0.19028350710868835, 0.005219430662691593, 0.05659692361950874, 0.05298006534576416, -0.14964371919631958, -0.04170675575733185, 0.138509601354599, -0.11124098300933838, 0.01413492951542139, 0.06926566362380981, 0.029559636488556862, -0.13588052988052368, 0.07116077095270157, -0.0611632876098156, 0.011247641406953335, -0.0627889558672905, -0.08402551710605621, -0.08619827032089233, -0.10630324482917786, 0.10900143533945084, -0.05198139697313309, 0.0624612495303154, 0.024142533540725708, -0.020834404975175858, -0.08537500351667404, 0.13411352038383484, 0.11611084640026093, 0.10199180990457535, -0.0893976241350174, 0.08639812469482422, 0.11451635509729385, -0.0035221651196479797, 0.010155027732253075, 0.054129671305418015, 0.02347857505083084, 0.006723937578499317, 0.06531837582588196, 0.07972753793001175, -0.04697234183549881, -0.14756104350090027, 0.05724530294537544, 0.038974251598119736, -0.134640634059906, 0.05642078071832657, -0.16672904789447784, 0.05583510920405388, 0.1281486600637436, 0.05952836945652962, 0.10874584317207336, 0.021018965169787407, 0.10170663148164749, 0.004147726576775312, -0.09773503988981247, -0.009476170875132084, -0.02188575640320778, -0.005599042866379023, -0.16716688871383667, 0.19373013079166412, 0.050113897770643234, 0.09196685254573822, -0.11288299411535263, 0.11391783505678177, -0.011962213553488255, 0.012631015852093697, -0.009995333850383759, 0.04254147410392761, 0.19128809869289398, 0.026226136833429337, -0.03461119160056114, 0.1439778357744217, 0.025286419317126274, -0.14816343784332275, 0.07679647207260132, 0.15249058604240417, -0.06259673088788986, -0.10122091323137283, 0.17833910882472992, -0.1076374426484108, 0.03814781829714775, -0.10664664953947067, -0.05810943618416786, -0.023019902408123016, -0.07242926955223083, 0.004656733013689518, 0.16334836184978485, -0.06051357835531235, -0.0518760122358799, 0.048876479268074036, 0.04014832153916359, -0.04161209613084793, -0.03747986629605293, 0.06630672514438629, -0.1114245131611824, -0.08222057670354843], [0.08235213905572891, -0.059772346168756485, -0.25889259576797485, -0.01669813133776188, 0.25124719738960266, 0.1815718114376068, 0.013853938318789005, 0.09822490811347961, -0.1668100208044052, 0.1000964492559433, 0.09375816583633423, 0.07201974093914032, -0.04946756362915039, 0.06562256813049316, -0.14857789874076843, -0.05233726277947426, 0.024772366508841515, 0.08345507085323334, -0.07948961108922958, -0.2348070591688156, 0.2292603850364685, -0.045373305678367615, 0.09149619191884995, 0.10532858967781067, 0.14621102809906006, -0.06645814329385757, 0.12470067292451859, 0.1603274941444397, 0.1082490012049675, -0.15682116150856018, -0.10873838514089584, -0.20426489412784576, -0.15706269443035126, -0.10680722445249557, -0.010788660496473312, 0.15403808653354645, -0.20588211715221405, -0.20164665579795837, 0.03723188489675522, 0.01184048131108284, 0.14456255733966827, 0.10123780369758606, -0.11929924786090851, -0.07586798816919327, 0.10248904675245285, -0.14630211889743805, 0.0230353195220232, -0.2593298852443695, -0.10111182928085327, -0.0687200129032135, 0.05462208762764931, 0.1531926393508911, 0.16107934713363647, 0.04052632302045822, 0.009680845774710178, -0.005136119667440653, -0.1060631200671196, 0.07527448982000351, -0.014470374211668968, 0.06114427000284195, -0.1898348033428192, -0.10946224629878998, 0.12059208750724792, -0.08111013472080231, 0.15358991920948029, 0.06663907319307327, 0.035134900361299515, -0.16266784071922302, 0.03524486720561981, -0.0674772635102272, -0.04710427299141884, -0.09590014815330505, 0.1810140162706375, 0.02014295756816864, 0.012549463659524918, -0.1072927713394165, -0.06540296226739883, -0.16625192761421204, 0.04272778704762459, 0.05952050909399986, -0.0011816462501883507, 0.08322077989578247, -0.04641546681523323, 0.15693047642707825, 0.11031007021665573, 0.10995038598775864, 0.01553158275783062, 0.07609160244464874, 0.07605841010808945, -0.09198558330535889, 0.048188645392656326, -0.12566649913787842, -0.007076946087181568, -0.1443127691745758, -0.13637711107730865, -0.2699873149394989, 0.048710063099861145, 0.06574149429798126, -0.2584182322025299, -0.09982921928167343, -0.08332361280918121, -0.21543820202350616, -0.00611494667828083, 0.10008791089057922, 0.12803305685520172, -0.26667994260787964, 0.13679826259613037, -0.09856528043746948, -0.12853196263313293, 0.05213012173771858, 0.14309126138687134, -0.11660401523113251, -0.07347580045461655, 0.07297226786613464, 0.04773509502410889, 0.004468046128749847, 0.011297853663563728, -0.06218789517879486, 0.06338972598314285, 0.11214062571525574, 0.005077593959867954, 0.158502459526062, -0.19216150045394897, 0.14080896973609924, -0.12946659326553345, 0.15431731939315796, 0.22272349894046783, -0.19816619157791138], [0.3000156581401825, -2.087935447692871, 1.2861344814300537, 1.2975404262542725, -0.5200526714324951, 0.5182681083679199, -0.8659833073616028, -1.8308460712432861, -0.520902693271637, 0.8697745203971863, -3.225745677947998, 1.2908408641815186, 1.0783765316009521, -2.143083333969116, -2.793461322784424, -0.213230162858963, 0.07153209298849106, -0.9353040456771851, -0.6459084153175354, 0.9647449851036072, 0.16681993007659912, -1.1799927949905396, 0.6575549244880676, 0.38950034976005554, -0.8297383785247803, 2.4829485416412354, -0.4539259970188141, 0.5471017956733704, 0.6675843000411987, -0.7054493427276611, 1.546216368675232, -0.6741947531700134, 0.32073649764060974, 1.6012014150619507, -2.6138579845428467, -0.11751080304384232, 1.0857656002044678, -2.711280584335327, -0.724931001663208, -1.230581521987915, 0.4380090832710266, 1.1503430604934692, -0.2642558813095093, -0.3532031178474426, -0.06258442997932434, -0.08514678478240967, 2.3465778827667236, 0.21438157558441162, 1.3055062294006348, -0.6746214628219604, 1.2885502576828003, 1.1181186437606812, 1.9923702478408813, 1.5108274221420288, 1.5530965328216553, -0.6770452857017517, -1.027928113937378, 1.0144957304000854, -0.9499605298042297, -2.468528985977173, 1.4809085130691528, -1.7061028480529785, -1.1154011487960815, 0.08230063319206238, -1.2022095918655396, -0.3502669036388397, -0.7877569198608398, -0.19669541716575623, 0.9812839031219482, 0.7568320035934448, 0.6861168742179871, -2.3551197052001953, -1.178755283355713, -1.6955890655517578, -0.9163921475410461, -1.0055925846099854, 0.705138087272644, -1.1901671886444092, -1.710792064666748, 1.787458062171936, 1.5165342092514038, 0.10866043716669083, -0.3904649019241333, 0.1481715887784958, -1.2943764925003052, -0.06263327598571777, -1.7798482179641724, 1.9250637292861938, 2.360368490219116, -0.227338045835495, -0.7562406659126282, 1.2204382419586182, 1.7728928327560425, 0.6588155031204224, 0.7591965198516846, -0.03914903849363327, -1.9051131010055542, 1.1605693101882935, 1.8157387971878052, -0.7728679180145264, 1.2453919649124146, 2.381357192993164, -1.2440935373306274, 0.8889126777648926, 1.6172256469726562, -0.8365421295166016, -0.944005012512207, 0.46022480726242065, -0.4534251093864441, 1.2774417400360107, 0.8587448596954346, 0.7894719839096069, 0.2666730284690857, -0.7206043004989624, 1.5397453308105469, -0.859833836555481, -0.3650631904602051, -1.7272038459777832, -1.6961697340011597, 0.7130126357078552, -0.011939297430217266, -1.3868844509124756, 1.2042107582092285, 1.0268042087554932, 0.5574411749839783, 0.9918855428695679, 1.3720182180404663, -1.7190567255020142], [0.4971786141395569, 0.08124057203531265, 0.7444973587989807, 1.7119694948196411, 1.5043631792068481, 1.4033591747283936, -1.4316914081573486, 0.14901407063007355, -2.5425870418548584, 0.09565061330795288, -1.5435646772384644, -0.51967453956604, -1.6329939365386963, 0.5354858040809631, -1.4582207202911377, 2.0682480335235596, 0.5949686169624329, -1.2845357656478882, -1.0906134843826294, 0.9715523719787598, 0.5646091103553772, 0.8655343055725098, 