{"in_shape": [null, 66], "layers": [{"type": "dense", "activation": "elu", "shape": [null, 128], "weights": [[[0.11449132114648819, 0.16420911252498627, -0.0478438064455986, 0.22293496131896973, 0.08923297375440598, 0.02903437614440918, -0.017467744648456573, -0.012704309076070786, 0.15107214450836182, -0.019022876396775246, -0.10773977637290955, 0.036607950925827026, 0.0844801738858223, -0.11683269590139389, 0.1401178538799286, -0.15440285205841064, -0.05255243554711342, 0.13372676074504852, 0.18463192880153656, -0.12577925622463226, 0.11716899275779724, 0.051252927631139755, -0.1793421059846878, -0.20311780273914337, 0.08736772835254669, 0.17123299837112427, 0.07465887069702148, 0.06971875578165054, 0.035462941974401474, 0.03915993496775627, 0.19467759132385254, 0.04769452288746834, 0.009768818505108356, 0.13169457018375397, -0.2573226988315582, -0.15044906735420227, -0.1997608095407486, 0.12056321650743484, -0.019944867119193077, 0.12489326298236847, -0.14337046444416046, -0.003652898594737053, 0.07503118366003036, 0.039887551218271255, 0.18869926035404205, -0.09226642549037933, -0.014418521896004677, -0.1310402750968933, 0.0646105706691742, 0.2338908165693283, 0.1010962426662445, -0.020182594656944275, -0.15671434998512268, 0.14186078310012817, 0.03661360591650009, -0.029261944815516472, -0.06354823708534241, -0.09565550833940506, 0.08778579533100128, 0.04286599159240723, 0.009902490302920341, -0.2682918906211853, 0.03917127102613449, -0.16205434501171112, 0.023187892511487007, 0.07479932904243469, -0.15063516795635223, -0.1501978039741516, 0.013752350583672523, -0.10141762346029282, -0.04437492787837982, -0.22882238030433655, 0.055510807782411575, 0.00887572206556797, -0.20951461791992188, -0.08901585638523102, 0.15448366105556488, 0.08928439766168594, -0.1030479297041893, 0.11493279039859772, -0.1396653801202774, -0.08320323377847672, 0.11799120157957077, 0.08740734308958054, 0.22927188873291016, -0.08071589469909668, -0.1599258929491043, -0.039963994175195694, 0.03384498506784439, -0.08256370574235916, -0.08877132833003998, 0.11453291028738022, 0.12190522998571396, -0.227720245718956, -0.014588495716452599, -0.07941655814647675, -0.2024289071559906, 0.13465897738933563, 0.06656243652105331, -0.001630431623198092, 0.042480796575546265, -0.11298517882823944, 0.06827804446220398, 0.10598640888929367, -0.12375228106975555, 0.12938715517520905, -0.06783203035593033, 0.13908520340919495, 0.08010512590408325, 0.15906254947185516, 0.06993361562490463, 0.2104886919260025, 0.11712132394313812, -0.11155229061841965, -0.02789357677102089, -0.02746419981122017, 0.09796275943517685, 0.06723261624574661, -0.1502923220396042, 0.19825151562690735, 0.007890595123171806, 0.06635332852602005, 0.13073872029781342, -0.1378687471151352, -0.10060544312000275, -0.01694248430430889, 0.027767900377511978, -0.07228781282901764], [-0.06681155413389206, -0.19963820278644562, -0.01330064982175827, -0.1731540560722351, -0.15983359515666962, 0.08877604454755783, -0.049002647399902344, -0.21725501120090485, 0.0937405675649643, 0.0912330374121666, -0.05150314420461655, 0.09671854227781296, -0.21347902715206146, 0.06904258579015732, 0.11596080660820007, -0.09374741464853287, -0.1872994601726532, -0.006323596928268671, -0.0025533291045576334, -0.1590874195098877, -0.09542592614889145, 0.16271144151687622, 0.11024992913007736, 0.12367793172597885, -0.16358989477157593, 0.03081333264708519, -0.16137263178825378, -0.096628837287426, 0.07511860877275467, 0.16595004498958588, 0.23937095701694489, 0.1924734264612198, 0.022759700194001198, 0.04452378675341606, 0.038932885974645615, 0.0033464133739471436, 0.2295098453760147, -0.009457205422222614, 0.15980389714241028, 0.021234208717942238, 0.050256941467523575, -0.21566398441791534, -0.011911146342754364, -0.10640674084424973, -0.11115971207618713, -0.11395066976547241, 0.10584168136119843, -0.23057711124420166, -0.1430218368768692, -0.05836674943566322, -0.1503061205148697, -0.14001263678073883, 0.14632606506347656, 0.08203452080488205, 0.08720739185810089, -0.16002032160758972, -0.02481706812977791, -0.15236271917819977, -0.020586956292390823, -0.07215142995119095, 0.05363498255610466, 0.11218813806772232, -0.056574080139398575, -0.029170339927077293, -0.12230145931243896, 0.18464791774749756, 0.0854639783501625, 0.10354915261268616, 0.11493898183107376, -0.18503890931606293, -0.09679532796144485, -0.1626322716474533, 0.01549600251019001, -0.10440253466367722, 0.25602608919143677, 0.01932031475007534, -0.1332971602678299, 0.08533303439617157, -0.19511477649211884, -0.11633117496967316, -0.2777436077594757, 0.11034194380044937, -0.03908562287688255, 0.13235116004943848, -0.010781773366034031, -0.1218736320734024, -0.12673398852348328, 0.1535978764295578, 0.02416916750371456, 0.13470375537872314, 0.01024066936224699, 0.020150940865278244, 0.12717017531394958, -0.0847080796957016, -0.13490644097328186, -0.1368325799703598, 0.03735996410250664, -0.12441815435886383, 0.10932540893554688, 0.011815336532890797, -0.07188291847705841, -0.14056281745433807, -0.16729113459587097, -0.04402000084519386, -0.20602518320083618, -0.10856693238019943, -0.10092876851558685, 0.06229598820209503, -0.05029832944273949, 0.15951722860336304, 0.19011399149894714, 0.23480618000030518, 0.10111770033836365, -0.07477295398712158, 0.10671825706958771, -0.017612764611840248, -0.02934481017291546, 0.026225687935948372, -0.0007178109954111278, -0.057681843638420105, 0.0013379788724705577, -0.09274537861347198, -0.10707031190395355, -0.0684991329908371, 0.1707572042942047, 0.11800111830234528, -0.04257164150476456, -0.09933795779943466], [-0.039449624717235565, -0.20975151658058167, 0.2587325870990753, 0.16814766824245453, -0.114320307970047, 0.006185415666550398, -0.140656515955925, -0.05376417562365532, -0.037437476217746735, -0.2823679447174072, 0.035145461559295654, -0.22032530605793, 0.23336441814899445, -0.17534984648227692, 0.08696954697370529, 0.041703980416059494, -0.1736859679222107, -0.2894039750099182, 0.1744980365037918, 0.28445541858673096, -0.2326158881187439, 0.11893582344055176, 0.22011810541152954, -0.04772663116455078, 0.19059905409812927, -0.05225380137562752, 0.15007486939430237, -0.2561895251274109, -0.09144486486911774, 0.1838192492723465, -0.10848908126354218, -0.2897103726863861, 0.08393152803182602, 0.09368576109409332, -0.1610388308763504, -0.039738524705171585, -0.1584334820508957, -0.2329947054386139, 0.18959921598434448, 0.11679854989051819, -0.29560038447380066, -0.15427859127521515, -0.05430282652378082, -0.09676626324653625, 0.03184802085161209, 0.010904389433562756, -0.07718589901924133, 0.02285425178706646, -0.08377619832754135, -0.1952274888753891, 0.18107318878173828, 0.07373137772083282, 0.2482524812221527, 0.17821867763996124, -0.11936672031879425, 0.04796595498919487, 0.059292905032634735, -0.053611621260643005, 0.10507641732692719, -0.06517663598060608, 0.09932579845190048, 0.10418882220983505, 0.05581321567296982, 0.11364427953958511, -0.26228994131088257, 0.15578484535217285, -0.08576474338769913, -0.2268287092447281, -0.1146531030535698, 0.27810531854629517, -0.08151765912771225, 0.1954158991575241, -0.3709464967250824, -0.18076491355895996, 0.20439495146274567, -0.2889370918273926, -0.14625978469848633, -0.1219652071595192, 0.24136343598365784, -0.14805568754673004, -0.14345146715641022, -0.094663605093956, -0.19871988892555237, -0.14187628030776978, -0.3546922504901886, -0.14705884456634521, -0.012276568450033665, 0.01327715627849102, 0.1125902384519577, -0.022873278707265854, 0.1708892285823822, -0.1578754335641861, 0.046614062041044235, 0.06964162737131119, -0.17543597519397736, 0.18055057525634766, 0.3205145299434662, 0.054284799844026566, -0.04373811185359955, 0.0314951054751873, -0.013183160685002804, 0.19335845112800598, -0.19685298204421997, 0.200975701212883, -0.09422406554222107, 0.20986981689929962, 0.30467861890792847, 0.07103856652975082, -0.06577356159687042, -0.13798809051513672, 0.18789678812026978, -0.143959179520607, 0.06515882164239883, -0.1748156100511551, -0.13946975767612457, -0.2543800175189972, -0.029236041009426117, 0.2591533660888672, 0.05282650515437126, -0.030879227444529533, 0.049524903297424316, 0.04033626243472099, -0.10598090291023254, 0.03376886248588562, 0.23173503577709198, -0.08284969627857208, -0.2559690773487091, 0.16152259707450867], [1.8505738973617554, 1.1026008129119873, 1.634193778038025, -0.9184503555297852, -0.7704997062683105, -0.5160279273986816, -0.31389403343200684, -1.8714042901992798, 1.3367259502410889, 1.2653404474258423, -2.0767035484313965, -1.5409715175628662, 0.33587127923965454, -0.0631408765912056, 2.058748722076416, 0.7751308679580688, 1.3530282974243164, 2.3242194652557373, -0.9233689308166504, -0.3459753096103668, -0.6921015977859497, 0.22603878378868103, 1.639121413230896, -2.292212724685669, -1.92279851436615, 1.4627492427825928, -0.5991091132164001, 0.29267361760139465, 2.1386232376098633, 0.2295115888118744, 2.0549161434173584, -1.0233458280563354, -1.0364965200424194, 1.1726205348968506, -0.9262773990631104, 1.044439435005188, 1.0745826959609985, -1.4709361791610718, 1.4469135999679565, -1.4427558183670044, -1.781217098236084, 0.7333816885948181, -1.4400995969772339, -1.254299283027649, -1.3176177740097046, 0.5667451024055481, 0.527026355266571, -0.8547928929328918, -2.0363616943359375, 1.096760869026184, -2.3844153881073, -0.93305903673172, 1.4357964992523193, -1.0929893255233765, 1.1784356832504272, -0.9238722324371338, -0.3484625816345215, -0.9493712186813354, -1.889407992362976, -1.582086443901062, -1.484960913658142, -0.6614618897438049, -1.6101502180099487, 1.3114391565322876, 1.503138780593872, 1.0199100971221924, 1.4957588911056519, 0.5896942615509033, -0.5855764150619507, -0.12039388716220856, 0.0780562087893486, 0.576659083366394, -2.163120985031128, -2.2143757343292236, 1.6242464780807495, 1.619226098060608, -1.5778783559799194, -0.5798584222793579, -1.1828418970108032, 1.812822937965393, -1.0932608842849731, -1.9529445171356201, 2.0700161457061768, -0.6098600625991821, -1.2180125713348389, -2.313047170639038, -0.43073204159736633, -1.2055131196975708, 1.9497486352920532, 1.7228542566299438, 1.1365300416946411, -1.5820226669311523, -2.2297117710113525, -0.9649927616119385, -1.200372338294983, 1.0477319955825806, 0.27140289545059204, -1.2542953491210938, 2.1299571990966797, -2.3764352798461914, 1.7064721584320068, -1.5216559171676636, 1.970705509185791, 2.5421788692474365, 0.12772752344608307, -1.1776821613311768, -0.48281458020210266, 0.8663637638092041, 0.0772412121295929, -2.011770248413086, 0.9015566110610962, -1.0236594676971436, 1.9209434986114502, -2.1344470977783203, -2.0261776447296143, -0.9271292090415955, -0.6549218893051147, 0.6988706588745117, 0.006438076961785555, 1.2875421047210693, 1.3026907444000244, 0.7286548614501953, -1.071007490158081, 0.7123238444328308, 0.35919398069381714, -0.32448819279670715, 1.7202247381210327, 0.43182823061943054], [-0.6078665852546692, 0.20277251303195953, -1.9334660768508911, -0.23582670092582703, -2.5422770977020264, 1.0875588655471802, -0.3718118369579315, -0.821639895439148, 0.1709834188222885, -0.27396419644355774, 1.4939653873443604, -1.2291921377182007, 2.7413229942321777, -0.8071705102920532, 0.541816234588623, -0.7206008434295654, 2.593087911605835, 2.397124767303467, -0.5192162394523621, 0.8067252039909363, -0.5947723984718323, -1.209464430809021, 1.6460239887237549, -1.2653471231460571, 0.8771188855171204, -0.7764759659767151, -0.09484635293483734, 1.55867600440979, -1.0860507488250732, 0.6777956485748291, -0.11934732645750046, 2.069143533706665, -1.2962368726730347, -2.2130446434020996, 0.8898972272872925, -1.889399766921997, 0.5612549781799316, -1.2832821607589722, -0.8239919543266296, 1.9536460638046265, 1.440301537513733, -0.3276659846305847, 2.5020127296447754, 2.380201578140259, -1.117305874824524, -0.1910034716129303, 1.3795567750930786, -1.7404848337173462, -0.6113441586494446, 2.242241859436035, -1.2910242080688477, 0.40664711594581604, 0.015108385123312473, -1.025059461593628, 0.39327266812324524, -0.3226161003112793, -1.199981451034546, 2.212392568588257, 1.2418967485427856, 0.3770909309387207, 0.9256941080093384, -0.5567168593406677, 0.3825390934944153, -1.6371307373046875, 1.0641542673110962, -2.205228805541992, 1.654514193534851, 0.6531205177307129, -1.1053811311721802, -2.31559419631958, 0.22803321480751038, -1.3485291004180908, -0.7764064073562622, -1.223034381866455, 1.3487768173217773, -1.9254002571105957, 0.6355946660041809, -1.444393277168274, 0.6141132116317749, -1.732051134109497, 1.7831538915634155, 2.2217912673950195, 0.7457690238952637, 1.4003177881240845, 0.47064805030822754, 1.4567447900772095, -1.2383872270584106, -1.306031346321106, -1.3574427366256714, 1.187338948249817, 0.6681112051010132, -1.2499933242797852, 1.8905212879180908, 1.3687448501586914, -1.1590598821640015, -1.8777902126312256, 2.7601590156555176, 2.359193801879883, -0.3990772068500519, 1.4142613410949707, 1.5884084701538086, 1.6638637781143188, -0.4647095203399658, -0.9149773716926575, 1.157206416130066, 0.15132080018520355, -1.9027339220046997, 0.35251015424728394, 1.778904914855957, 0.7866833209991455, 0.6447402834892273, -0.22975578904151917, -2.0406432151794434, -1.5239284038543701, 0.1317652463912964, 1.5447202920913696, 2.482706069946289, 0.34035906195640564, -0.011348855681717396, -0.12812207639217377, -0.5084455609321594, 0.25929510593414307, -1.7230345010757446, -0.24818800389766693, -0.4384002983570099, 2.2028965950012207, -0.9544419050216675, 1.4701595306396484], [-6.828332901000977, 12.18260669708252, -6.294815540313721, 3.6370351314544678, 25.395692825317383, -12.0697660446167, 19.629060745239258, 16.762590408325195, -4.79379940032959, -0.35120221972465515, 6.373410224914551, -9.351438522338867, -13.187471389770508, -3.067662239074707, -2.8274216651916504, 20.299816131591797, 19.91942024230957, -4.890397071838379, 14.528522491455078, -14.05905818939209, 1.1302216053009033, 28.3870792388916, 3.61348819732666, 17.293567657470703, 27.14151382446289, -2.6729536056518555, 1.852769136428833, -4.6392083168029785, -1.7622371912002563, -18.390575408935547, -8.926573753356934, -0.665200412273407, 8.188952445983887, 12.526412963867188, -8.678326606750488, -5.370023250579834, 5.224615573883057, 8.95556354522705, 16.915624618530273, 2.921799659729004, 19.420291900634766, -13.66646671295166, -6.252504825592041, 22.148605346679688, 8.492724418640137, 16.84859275817871, -9.546266555786133, 12.24481201171875, 10.312707901000977, -16.521957397460938, -10.386565208435059, -7.6385884284973145, -15.18527889251709, -9.330349922180176, 22.51633644104004, -3.80538272857666, -3.9864542484283447, 17.042062759399414, 21.519641876220703, 21.13094139099121, 11.371927261352539, -4.892079830169678, -15.794323921203613, 3.714162826538086, 1.9736377000808716, 16.610702514648438, -17.485502243041992, -8.862582206726074, -7.73992919921875, -7.001790523529053, -26.79719352722168, -2.041341781616211, 22.989343643188477, -2.4931674003601074, -22.17868995666504, 14.667579650878906, -13.146162986755371, -6.564440727233887, 11.59499740600586, 17.183027267456055, -7.814996719360352, 19.648191452026367, -0.3134864270687103, -15.330288887023926, -19.32685661315918, -7.640565395355225, 19.635303497314453, -12.66174030303955, 2.8112056255340576, 18.434329986572266, -16.568008422851562, 13.78516960144043, 13.483532905578613, -4.093758583068848, -6.420100688934326, -5.017319202423096, 14.130410194396973, 18.257909774780273, 3.5328006744384766, 10.003813743591309, -0.7287638783454895, -17.29401206970215, -1.4455041885375977, -16.25093650817871, 13.695744514465332, 5.784395217895508, 4.401551246643066, 2.52077054977417, 23.587724685668945, 2.357029676437378, 4.285745143890381, 17.1744327545166, -11.36304759979248, -0.9099245071411133, -6.188334941864014, 22.85039710998535, 17.387685775756836, 1.1066755056381226, -3.5841240882873535, 4.717551231384277, 13.897843360900879, 15.815625190734863, -16.036758422851562, 25.60516929626465, 11.113301277160645, 11.387490272521973, 15.984881401062012, -5.540262222290039], [0.049015071243047714, 0.4076217710971832, -0.06810982525348663, -0.17840801179409027, 0.011805185116827488, 0.3047129511833191, 0.25590604543685913, 0.351574182510376, 0.22843043506145477, 0.24152281880378723, -0.27547165751457214, -0.019343361258506775, 0.02717883326113224, 0.05618146061897278, -0.11442313343286514, 0.21928738057613373, 0.06966584920883179, 0.12931551039218903, -0.3102078437805176, -0.29932665824890137, -0.23468801379203796, -0.34824663400650024, -0.15513353049755096, 0.08614227920770645, -0.02038308046758175, 0.2976202964782715, 0.28882813453674316, -0.09023713320493698, 0.05498146638274193, -0.19886843860149384, 0.16047947108745575, -0.22457551956176758, 0.2772689461708069, -0.2776031494140625, 0.16130419075489044, -0.13799135386943817, -0.3646913170814514, 0.21517276763916016, 0.04211406782269478, 0.46487826108932495, -0.1704399287700653, -0.05714825913310051, -0.11250527203083038, 0.16357280313968658, -0.22785863280296326, 0.07221872359514236, -0.38000738620758057, 0.2124958038330078, -0.31246957182884216, 0.10531342029571533, -0.1868986040353775, 0.31726136803627014, 0.009296786971390247, -0.1678086221218109, 0.2618403732776642, -0.4116310179233551, -0.012803063727915287, 0.4685687720775604, -0.11601587384939194, -0.37849852442741394, -0.12991492450237274, -0.19107218086719513, -0.29256415367126465, 0.07123001664876938, 0.37026655673980713, 0.35791417956352234, 0.1384383738040924, 0.19132617115974426, 0.2531298100948334, -0.0915411114692688, 0.06807592511177063, -0.13941903412342072, 0.12485981732606888, 0.029894130304455757, 0.14220400154590607, 0.038160014897584915, -0.1740417182445526, 0.23894640803337097, 0.16024458408355713, -0.1119341254234314, -0.24388574063777924, 0.2259320467710495, -0.2047753483057022, -0.011950367130339146, -0.28928861021995544, 0.2403343766927719, 0.028166210278868675, -0.4900491237640381, -0.10781846940517426, -0.1497635841369629, -0.07854031026363373, 0.48703762888908386, -0.24949978291988373, 0.1493159979581833, 0.2596381604671478, 0.19090311229228973, 0.04045549035072327, -0.04625577852129936, -0.0655011236667633, -0.13506020605564117, -0.30585983395576477, -0.12261873483657837, 0.02590789832174778, 0.35347193479537964, 0.042764630168676376, -0.29760801792144775, -0.07835985720157623, -0.11527346819639206, 0.04408785700798035, 0.3178165555000305, 0.13736885786056519, -0.032194532454013824, 0.15410131216049194, -0.24198296666145325, -0.05110578611493111, 0.12573347985744476, 0.1321781426668167, 0.24196359515190125, 0.11432874202728271, -0.06957808136940002, 0.4049206078052521, -0.1402498185634613, -0.0874408483505249, 0.17616192996501923, 0.14136426150798798, 0.2012207955121994, 0.42097392678260803, -0.2806350886821747], [0.25819411873817444, 0.35311922430992126, -0.2412698119878769, -0.6939317584037781, 0.48213064670562744, 0.5877858996391296, -0.2629293203353882, -0.6490678787231445, 0.24478329718112946, 0.742318868637085, 0.3280990719795227, 0.03489302471280098, -0.4205068349838257, 0.4445078670978546, 0.34906235337257385, -0.2697512209415436, -0.2456991970539093, -0.054809581488370895, 0.22984638810157776, 0.30210110545158386, -0.37064653635025024, -0.15768301486968994, -0.0705907940864563, 0.4573170244693756, 0.2701905071735382, 0.546502947807312, -0.5867399573326111, 0.34514951705932617, 0.36420634388923645, 0.26423943042755127, 0.28112003207206726, -0.428644061088562, -0.245232492685318, 0.20142905414104462, 0.2551688551902771, -0.5933917760848999, -0.1539861261844635, -0.4234936237335205, 0.506510853767395, -0.5881650447845459, -0.16930949687957764, -0.2822551727294922, 0.42261460423469543, -0.33834242820739746, -0.44664672017097473, 0.3394257128238678, -0.3980084955692291, 0.24097256362438202, 0.11881071329116821, -0.6754462718963623, -0.5816910862922668, -0.28706619143486023, -0.1015210673213005, 0.7297924160957336, -0.41675707697868347, 0.04057895392179489, -0.24792495369911194, 0.46253642439842224, -0.4188579022884369, 0.32844921946525574, 0.3164433240890503, 0.40556761622428894, 0.32598212361335754, 0.637704074382782, 0.31280478835105896, -0.5696282982826233, -0.40330561995506287, 0.3179282546043396, 0.3018825352191925, 0.6677771806716919, -0.598406195640564, -0.1111980751156807, 0.30754050612449646, -0.3491852581501007, -0.22134795784950256, 0.6304272413253784, -0.07622043043375015, 0.27011457085609436, 0.6818554997444153, 0.5478359460830688, -0.1382383406162262, -0.8453733921051025, 0.6134151816368103, -0.35149669647216797, -0.5595037341117859, -0.2905840277671814, -0.10556451976299286, 0.3182268440723419, 0.41072049736976624, -0.24757719039916992, -0.37060898542404175, -0.7874094247817993, 0.5130776166915894, 0.6365458965301514, 0.14115212857723236, -0.11808294802904129, -0.6764046549797058, -0.11258552968502045, 0.26478496193885803, -0.14601239562034607, -0.2816776931285858, -0.3111328184604645, -0.35457053780555725, -0.07690383493900299, 0.5583426356315613, 0.30568620562553406, -0.15329644083976746, -0.5639623403549194, -0.5377018451690674, 0.6481783390045166, -0.2546003460884094, 0.3002949357032776, 0.6769530177116394, 0.2707781493663788, -0.7094224095344543, 0.2709724009037018, 0.5127894282341003, -0.4390510618686676, 0.10879240185022354, 0.0010021694470196962, 0.5325320363044739, -0.6547925472259521, 0.4524659812450409, 0.6640624403953552, -0.2007020264863968, 0.28620943427085876, 0.03114663064479828, -0.8697919845581055], [0.36956724524497986, 0.3432270586490631, -0.1174858883023262, -0.3777131736278534, -0.2404026836156845, 0.14852666854858398, 0.2783987820148468, -0.35314029455184937, 0.008684543892741203, -0.09314432740211487, 0.13429133594036102, 0.10302037000656128, -0.2561410963535309, -0.22169852256774902, 0.21696363389492035, 0.09906390309333801, -0.3186251223087311, 0.24910511076450348, -0.018204761669039726, 0.15441492199897766, -0.21693892776966095, -0.12515948712825775, 0.20369112491607666, -0.09650338441133499, 0.28100696206092834, 0.2832178473472595, 0.04578446224331856, -0.1446152776479721, 0.05914030224084854, -0.056430839002132416, -0.1482285112142563, -0.26874828338623047, -0.10366640239953995, -0.2247733622789383, 0.012381216511130333, 0.05245154723525047, 0.016257118433713913, 0.3396907150745392, -0.29971954226493835, -0.22915589809417725, 0.0548037588596344, -0.02053406648337841, -0.059222571551799774, 0.1288459748029709, 0.23875878751277924, -0.11100607365369797, 0.30737441778182983, -0.14852577447891235, 0.3187778890132904, 0.24178093671798706, 0.06208151578903198, 0.32714977860450745, -0.07476436346769333, -0.44958755373954773, -0.07911532372236252, -0.33767375349998474, 0.18704909086227417, 0.031220922246575356, 0.23508299887180328, -0.2556282877922058, -0.30428966879844666, -0.3678445816040039, 0.18584151566028595, -0.31187281012535095, -0.3205541968345642, -0.23910079896450043, 0.2382996678352356, -0.04170706495642662, -0.13486239314079285, -0.020093822851777077, 0.3469030261039734, -0.07247190922498703, 0.15506990253925323, 0.006488451734185219, 0.2167181670665741, 0.39763227105140686, -0.23781631886959076, 0.06584320962429047, -0.3138694167137146, 0.1135825663805008, 0.15349198877811432, 0.19703836739063263, 0.10425214469432831, 0.22468656301498413, 0.25563278794288635, 0.2702767252922058, 0.4053908586502075, 0.21374695003032684, 0.17159950733184814, -0.16898061335086823, 0.16880936920642853, 0.3559926450252533, -0.13550756871700287, 0.24731799960136414, 0.012855397537350655, -0.25614815950393677, 0.061625491827726364, -0.37614211440086365, -0.0245547853410244, -0.18087884783744812, 0.35213637351989746, 0.2142125964164734, 0.2871242165565491, -0.17863436043262482, 0.3092678189277649, -0.11764620989561081, -0.5110153555870056, -0.2240743637084961, -0.29917317628860474, -0.2319929450750351, 0.2889241874217987, -0.052114471793174744, -0.3075433373451233, -0.11248762160539627, -0.24724110960960388, -0.20809073746204376, 0.1677105575799942, 0.25768861174583435, 0.11166084557771683, 0.030868619680404663, -0.3368130028247833, -0.5161176323890686, 0.2795681357383728, -0.060700029134750366, 0.03702262416481972, 0.38470011949539185, 0.13317015767097473, -0.13784371316432953], [0.20110522210597992, -0.7959197163581848, 0.7557933330535889, 0.7300759553909302, 0.7487257122993469, 0.7769960165023804, -0.5277225375175476, -0.5860792994499207, -0.4737398624420166, 0.073011614382267, 0.2912309467792511, -0.46910980343818665, -0.4996904134750366, 0.022937802597880363, 0.41735029220581055, 0.7874751687049866, -0.2964330315589905, -0.4118036925792694, 0.68965744972229, 0.402972549200058, 0.08890050649642944, -0.08733417838811874, -0.30872485041618347, 0.4583585262298584, -0.11882900446653366, -0.8958550095558167, -0.635062575340271, 0.23270252346992493, -0.4277750551700592, -1.0116150379180908, -0.1438034623861313, -0.8562891483306885, -0.028489047661423683, -0.45618975162506104, -0.4108566343784332, -0.6371273994445801, 0.10389375686645508, 0.09703311324119568, -0.482734352350235, -0.21294663846492767, -0.06805676966905594, 0.5240819454193115, 1.134272575378418, -0.28292810916900635, 0.6619896292686462, -0.1634116768836975, 0.885229766368866, 0.46236851811408997, -0.28560149669647217, 0.09308909624814987, 0.724364697933197, -0.8386274576187134, -0.3596806228160858, 0.1012173667550087, -0.10046868026256561, 0.4770571291446686, -0.7920132875442505, 0.5836443901062012, 0.6643505692481995, 0.8046339750289917, 0.6200812458992004, 0.11539951711893082, -0.07169262319803238, -0.3556629717350006, 0.23166152834892273, -0.10718681663274765, -0.7170148491859436, -0.6775070428848267, -0.6040889620780945, 0.6269571185112, 0.24715374410152435, 0.9434928297996521, 0.5137458443641663, 0.4584900140762329, 0.8800991773605347, -0.2985796332359314, -0.12324393540620804, -0.8060210943222046, -0.4295717775821686, 0.47817641496658325, 0.2739838659763336, -0.4666481018066406, 0.5799039006233215, 0.3049994707107544, 0.47841113805770874, 0.7869895696640015, -0.023380141705274582, -0.8395639061927795, -0.3548087477684021, -0.4078739285469055, 0.7213175892829895, -0.5929350852966309, -0.32142701745033264, 0.3080885112285614, -0.6215529441833496, -0.6757478713989258, -0.313498854637146, -0.658663272857666, -1.0465673208236694, -0.6588566899299622, -0.09942491352558136, -0.7219942808151245, 0.1785084754228592, 0.8988938331604004, 0.1588221937417984, 0.7592707276344299, 0.038154859095811844, -0.11195551604032516, 0.16774868965148926, -0.6502477526664734, 0.5328369140625, -0.26751217246055603, -0.6477749347686768, 0.4702671766281128, 0.4683065414428711, -0.49310314655303955, 0.13911834359169006, -0.989193320274353, 0.4926542341709137, 0.46733659505844116, 1.130156397819519, -0.004878692794591188, 0.5963806509971619, -0.8150880336761475, 0.02001837268471718, 0.06219543144106865, 0.016864696517586708, 0.15183113515377045], [-0.44282016158103943, 0.14388082921504974, -0.6558441519737244, 0.9141351580619812, -0.8573212623596191, -0.11543814837932587, -0.2844841480255127, 0.07410261034965515, -0.6748946309089661, -0.1361396759748459, -0.3660584092140198, 0.8882061243057251, -0.14116649329662323, 0.16253753006458282, 1.1652148962020874, 0.1511429250240326, -0.7273536324501038, 1.4363009929656982, -1.3474302291870117, -0.5314696431159973, -0.5677882432937622, 1.4380327463150024, 0.20911334455013275, 1.023382544517517, -1.3741514682769775, -1.5051774978637695, 0.8062834143638611, -0.032605670392513275, -0.7307369709014893, -0.17433273792266846, -0.287640243768692, -0.9262062311172485, 0.7720842957496643, 0.5795150399208069, 0.007139759603887796, 0.843629002571106, 0.4462990462779999, -0.7041606307029724, -1.7512245178222656, -0.558140754699707, 0.09771181643009186, -1.4966816902160645, -0.6677101254463196, 0.6890825629234314, -1.3553112745285034, 0.05136648193001747, -0.09573065489530563, 1.6318062543869019, -0.39723512530326843, -0.012092682532966137, -0.9046146273612976, 1.0761358737945557, 1.4305717945098877, 0.7835594415664673, -0.3874224126338959, -1.7587108612060547, -0.9904603362083435, -0.4932859241962433, 0.5144888162612915, 1.4137334823608398, 1.0955930948257446, -0.08555209636688232, -0.34020835161209106, 1.1460376977920532, -0.12435530871152878, -0.062040407210588455, 1.1877490282058716, 0.20171448588371277, 0.7014075517654419, -0.5245987176895142, -0.9011740684509277, 0.9022933840751648, 1.0594091415405273, 1.0921680927276611, -1.0281004905700684, -0.4282936751842499, -1.062671184539795, 1.2892552614212036, 0.6796488165855408, -1.3532848358154297, 0.6376819610595703, -0.028522327542304993, -0.44476374983787537, -0.09719079732894897, 1.6571968793869019, 1.1951179504394531, 0.8509531021118164, 1.2825452089309692, -0.10047739744186401, 0.31807732582092285, 1.1100603342056274, -0.19372904300689697, 0.39444229006767273, -0.12667885422706604, 1.4235726594924927, -0.3080437481403351, -1.6351144313812256, -1.2715637683868408, -0.056332238018512726, 0.3262164294719696, -1.0340911149978638, 0.2190828025341034, 0.03126206248998642, -1.1214147806167603, 0.18874429166316986, -0.31457778811454773, 0.7380483150482178, 1.5170059204101562, -0.14617474377155304, 1.2807857990264893, 0.1703779101371765, 0.8041077852249146, -1.00433349609375, 0.6716487407684326, -1.271755576133728, 0.9626359343528748, 1.3909227848052979, 0.20515203475952148, 0.8535765409469604, -0.35008782148361206, -1.3969389200210571, -0.2292850762605667, -0.6297135949134827, -0.5878920555114746, 0.8622816205024719, 1.3680479526519775, -0.6141011118888855, 0.610905647277832], [0.7583916783332825, -0.36651578545570374, 0.06092220917344093, 0.6475539207458496, 0.05007927864789963, -1.5312994718551636, -0.966554582118988, -1.3213129043579102, -0.8995127081871033, 0.47081029415130615, 1.2722258567810059, 0.6053231358528137, 1.1770380735397339, 0.5397197604179382, -0.39096203446388245, -1.0980913639068604, 0.9848572611808777, 1.5181751251220703, 1.2623178958892822, 0.1477280855178833, 1.1101654767990112, -0.754250168800354, 1.0433942079544067, 1.0651272535324097, 0.6413172483444214, -1.162998914718628, -1.4052929878234863, 0.7141233086585999, -0.25522634387016296, -0.7957325577735901, -0.5566167831420898, 0.599353015422821, 1.221722960472107, 0.7835440039634705, -0.8428633809089661, -0.5541498064994812, 1.1337127685546875, -1.145332932472229, -0.465038001537323, -1.1586436033248901, -0.9623860716819763, -0.2280305027961731, 0.5750471353530884, 0.6327752470970154, 0.11282659322023392, 0.09138842672109604, -0.7771323919296265, 0.40507176518440247, -0.7048425078392029, 0.9613839983940125, 0.4613106846809387, -0.8017709255218506, 1.2444370985031128, -0.9705526828765869, 1.0282578468322754, -0.3342500627040863, -0.23157699406147003, 1.4654353857040405, -0.7103593945503235, -0.9100636839866638, -0.6240870356559753, 0.3322621285915375, -0.13236123323440552, 0.31542956829071045, 0.25676587224006653, -1.3154027462005615, -1.1737220287322998, -0.5436208844184875, 0.7294396162033081, -0.9239311218261719, 1.035423755645752, 0.8816644549369812, -1.5613075494766235, -1.155190348625183, 0.15275828540325165, 0.6121518015861511, -1.3990201950073242, 1.4818427562713623, 0.5126714110374451, -0.6979256868362427, 1.3346433639526367, 0.10422541946172714, 0.745133101940155, 0.7816862463951111, -0.6673744320869446, 0.7442066073417664, 1.140001654624939, -0.39736586809158325, -0.002637185389176011, -0.8569169640541077, 0.9266088008880615, -0.926331102848053, -0.5467485785484314, -0.4922008216381073, 0.7512890696525574, 0.6523935794830322, 0.6678922176361084, -0.28395912051200867, -0.7622109651565552, 1.1562591791152954, 0.952549934387207, -0.2924574017524719, 1.577628493309021, 0.8026473522186279, -0.2102939337491989, 0.09898195415735245, -0.4796845614910126, 0.8555436134338379, 0.18467850983142853, -0.8699032664299011, -0.7270652651786804, -0.587871253490448, 1.184942364692688, 0.7256304621696472, 0.0866549164056778, -0.9761519432067871, -0.5115231275558472, 1.3474452495574951, -0.15500904619693756, 0.743763267993927, -0.12258940190076828, 1.569150447845459, -0.004943047650158405, -0.7331972122192383, 0.5525856614112854, 0.1874864250421524, 1.3352452516555786, -0.5256220102310181], [-0.14033915102481842, -0.3381040394306183, -0.4463315010070801, 0.4161958396434784, -0.5354815721511841, -0.678311288356781, -0.44791728258132935, 0.6085262894630432, -0.8372297883033752, -0.7783917188644409, -0.7029165625572205, -0.3494167923927307, 0.5157874226570129, -0.5344049334526062, -0.02291770651936531, -0.2246791422367096, -0.9658759832382202, 0.7695449590682983, 1.0033977031707764, -0.5348590612411499, -0.6106638312339783, 0.44792550802230835, -0.09530693292617798, 0.373392790555954, 0.5040143132209778, 0.7146238088607788, -0.38379594683647156, 0.8717197179794312, -0.10480313003063202, 0.7882592082023621, -0.2714333236217499, 0.15546971559524536, 0.7537743449211121, -0.7441908121109009, -0.42110276222229004, -0.8511304259300232, 0.7989157438278198, -0.2664722800254822, 0.09842204302549362, -0.14624059200286865, 0.7276124954223633, -0.11331361532211304, 0.6547994613647461, 0.22423076629638672, 0.6697016358375549, 0.8991137146949768, 0.08822926878929138, -0.7993031144142151, -0.4529208242893219, -0.3248531222343445, 0.08832995593547821, -0.5584467649459839, 0.6049065589904785, 0.2174498438835144, -0.16973167657852173, -0.45100659132003784, -0.04045090079307556, 0.718822717666626, -0.5779557824134827, -0.27326148748397827, -0.5368139743804932, 0.4041401743888855, 0.04551580175757408, 0.19716596603393555, 0.6226025223731995, -0.04436378926038742, -0.42568159103393555, -0.0004373361880425364, 0.46785950660705566, 0.8416001200675964, -0.05197875201702118, 1.0024327039718628, 1.011427402496338, -0.22697021067142487, 0.2916090190410614, -0.08653942495584488, -0.6802660822868347, -0.07756078243255615, -0.1516212373971939, -0.5579898357391357, -0.22650907933712006, -0.6311929225921631, 0.03238861262798309, 0.39391347765922546, 0.2244514673948288, -0.6210566759109497, -0.3436993658542633, -0.8715407848358154, 0.1025569960474968, -0.35939767956733704, 0.4548935890197754, 0.03934992104768753, 0.013224721886217594, -0.9600786566734314, -0.045451994985342026, -0.5928133726119995, 0.7518368363380432, -0.7083483338356018, 0.22349047660827637, -0.11254936456680298, 0.5048105716705322, 1.3493629693984985, 0.2561776638031006, 0.8176506161689758, -0.7258607149124146, -0.36032864451408386, 0.5810325741767883, -0.30540013313293457, 0.7618312239646912, -0.4177904427051544, 0.2657959759235382, 0.27376165986061096, 0.9127629399299622, -0.31368598341941833, -0.45535218715667725, 0.6982637643814087, 0.13972806930541992, -0.10115247219800949, 0.12920287251472473, -0.24006031453609467, 0.1167757585644722, -0.7391321063041687, -0.34591981768608093, -0.7650712728500366, -0.7138574719429016, -0.7863742113113403, 0.3335656225681305, 0.015735413879156113], [1.5758240222930908, -1.6453123092651367, -1.309025764465332, -2.2000622749328613, -0.25280576944351196, 2.5136940479278564, -1.051162600517273, -0.7670297026634216, 1.3284728527069092, -2.145416259765625, -0.5267101526260376, 0.6474560499191284, 1.3016548156738281, 0.941967785358429, -1.6512759923934937, 0.3111370801925659, 0.6599435806274414, 1.3821803331375122, 1.0473417043685913, 0.8359923958778381, -0.6999692916870117, -0.6792504191398621, -0.801513671875, 2.345226526260376, -1.0487982034683228, 0.7282739281654358, 0.7094786167144775, -1.1950448751449585, -0.3165614902973175, -0.5957908630371094, -0.8806700706481934, -0.03648180887103081, -1.5949187278747559, 0.19221732020378113, 1.0106918811798096, -1.4165081977844238, -1.6365660429000854, 1.3829548358917236, 1.1205679178237915, 0.9874707460403442, -0.8502302765846252, -0.3660781979560852, 0.5905612707138062, -1.5600115060806274, 0.07867498695850372, -0.008066416718065739, -0.90337735414505, 1.0770012140274048, -0.7501524090766907, -0.594375491142273, -1.110321283340454, 0.560429036617279, -0.3863163888454437, -1.2995116710662842, 2.0244874954223633, 0.9459131360054016, -0.7816738486289978, 0.019541161134839058, 1.32272469997406, -0.713403046131134, -0.6659636497497559, -1.1096872091293335, 0.23461295664310455, 0.4249143898487091, -1.9942758083343506, -2.1051220893859863, -0.05844762548804283, 0.9875087738037109, -1.3774014711380005, -0.3990464210510254, 1.1048959493637085, -1.2654902935028076, 1.3905341625213623, 1.0331988334655762, -0.05809088423848152, -1.8083609342575073, -1.2373242378234863, 1.0291728973388672, -1.718256950378418, 2.029834032058716, 1.2156580686569214, -1.2125576734542847, 1.1764099597930908, -1.4215261936187744, 1.2658032178878784, 0.889318585395813, 1.242186188697815, -1.110263705253601, 0.02910010702908039, 1.580612063407898, -1.0481351613998413, 0.993843138217926, -1.2756175994873047, -0.7453773021697998, 1.3189090490341187, -1.2924150228500366, 2.5006213188171387, 1.011619210243225, -0.07740781456232071, -1.3563705682754517, 0.36735621094703674, 1.7807910442352295, -0.8296583294868469, -1.6437959671020508, -0.9659425020217896, 1.151742696762085, 0.015260015614330769, -1.5890051126480103, 0.3837036192417145, 1.1308592557907104, 1.1633275747299194, -1.744964599609375, -1.0821397304534912, 0.029756339266896248, 0.5876488089561462, -0.29654791951179504, -1.6176090240478516, -0.033231381326913834, 1.2286432981491089, -0.10125646740198135, -1.3208708763122559, -0.04209532216191292, 1.2873623371124268, 1.7811439037322998, 0.9105131030082703, 1.7786500453948975, -1.0965617895126343, 0.6045947074890137], [-0.1865691989660263, -0.295953631401062, -0.6155647039413452, -0.41561946272850037, 1.0774149894714355, -0.3574591279029846, 0.5713783502578735, -0.029722513630986214, 0.2985132932662964, -0.540370762348175, 0.199250265955925, -0.06917151063680649, 0.7519341707229614, -0.3575840890407562, 0.1792198270559311, 0.10691405087709427, 0.5876375436782837, -0.11083990335464478, 0.7899252772331238, -0.6866766214370728, -0.44366341829299927, -0.9366620182991028, 0.10705456137657166, 0.9321014285087585, -0.10222070664167404, -0.37168118357658386, 0.6205775737762451, 0.48647552728652954, -0.2754972577095032, -0.600508451461792, -0.20010417699813843, 0.1069379448890686, -0.07234381884336472, 0.02734612673521042, -0.49383801221847534, 0.03752749785780907, 0.2465803176164627, -0.4864189028739929, -0.43222084641456604, -0.9393907785415649, -0.5213325023651123, 0.7652344107627869, 0.9849594831466675, -0.47420835494995117, 0.16153670847415924, 0.8668400645256042, 0.49284085631370544, 0.6474130749702454, -0.6789937019348145, 0.18820662796497345, 0.23212042450904846, -0.8888416290283203, 0.6284820437431335, 0.5121777057647705, 0.2881324291229248, -0.38303667306900024, -0.07994013279676437, -0.6974637508392334, 0.2069653868675232, 0.6964679956436157, 0.7842809557914734, -0.9402599334716797, -0.6817492246627808, 0.17975451052188873, -0.4688214957714081, 0.033938683569431305, -0.11858358234167099, 0.41408535838127136, -0.34908780455589294, -0.3519992232322693, -0.550015389919281, 0.4372137188911438, -0.12650591135025024, 0.6723300814628601, -0.5315230488777161, -0.46299004554748535, 0.2988952696323395, 0.3251326084136963, 0.03227690979838371, 0.4910353720188141, -0.4433697760105133, -0.8734999299049377, -0.2822928726673126, 0.6605480909347534, -0.9877890348434448, 0.2359534502029419, 0.17927585542201996, 0.09812289476394653, 0.59865403175354, -0.2419774979352951, -0.19237779080867767, 0.219254732131958, 0.41518348455429077, 0.36669260263442993, 0.14510932564735413, 0.526915967464447, -0.7195804715156555, -0.8436172008514404, -0.948310911655426, 0.2667100131511688, -0.4692200720310211, 0.1028539314866066, 0.8668528199195862, 1.1793386936187744, 0.2670573592185974, -0.9144806265830994, 0.19437682628631592, -0.49031534790992737, 0.18845394253730774, -0.1873106211423874, -0.27072593569755554, 0.7919766306877136, -0.4067453444004059, -0.3054359555244446, -0.8284925818443298, -0.6504675149917603, -0.7878381013870239, 0.5442531108856201, 1.1552709341049194, 0.15527261793613434, 0.033399730920791626, -0.08677779883146286, -0.06791079044342041, 0.31603482365608215, -0.93621826171875, 0.5096352696418762, 0.5747321248054504, 0.7369466423988342], [0.7874971032142639, -0.3462084233760834, -1.3655823469161987, -0.23002085089683533, 0.39023736119270325, -1.1274223327636719, 0.27010077238082886, -0.20680928230285645, 1.4578263759613037, 0.0068955328315496445, 1.137553334236145, -1.2206228971481323, -0.5129347443580627, 0.9354317784309387, -1.1036509275436401, 0.5956603288650513, 0.0709272176027298, 0.153652161359787, -1.1826165914535522, 0.26867902278900146, -0.7885246276855469, -1.0951911211013794, -1.2427504062652588, -0.1569235771894455, -0.305528461933136, -0.1126558929681778, -1.0358284711837769, 0.47422704100608826, 0.10427656024694443, 1.7867401838302612, -0.7705673575401306, 1.0622847080230713, -0.3516051471233368, 0.6726248264312744, 0.513286292552948, -0.35430288314819336, -1.3251644372940063, 0.009653040207922459, -0.19183017313480377, 0.9796006083488464, -0.9982066750526428, -0.29834631085395813, -0.7345793843269348, -0.17734497785568237, 0.017416199669241905, 1.4952908754348755, -1.5568150281906128, 0.8470494747161865, -0.8683555126190186, 0.496671199798584, 1.318569540977478, 1.3861472606658936, 1.0757135152816772, 0.27249887585639954, -0.20615726709365845, -0.7910996675491333, -0.2660955488681793, 0.9552820324897766, -0.149308979511261, 1.0530052185058594, 0.10347378253936768, 0.46976733207702637, -0.4318259656429291, -0.6914374232292175, 0.9051154851913452, -0.4241722524166107, -0.09615642577409744, 0.7575547695159912, 0.43928462266921997, 0.9217174053192139, -1.3932297229766846, 0.2240607589483261, 0.2950574457645416, 1.2854958772659302, -0.8443294763565063, -0.6376706957817078, 0.6976357102394104, -0.4544585347175598, 0.8542119860649109, 1.0953580141067505, -0.13586734235286713, 0.7256708741188049, -0.08996699750423431, 0.25622785091400146, -0.9974101781845093, 1.1066280603408813, 0.9101744294166565, 0.6111140847206116, 0.004076037555932999, -1.2556419372558594, -0.27265042066574097, 1.0890686511993408, -0.2695903778076172, -0.7183451652526855, -0.6046497821807861, 1.3514901399612427, -0.016201190650463104, -0.6916837096214294, -1.1470385789871216, -0.04289363697171211, -0.5392205119132996, -0.33860617876052856, 1.2050304412841797, -0.4052858352661133, 1.4263527393341064, 0.774570643901825, 1.3733861446380615, 2.0535998344421387, -0.025456611067056656, 0.0931013971567154, 0.7750651836395264, 0.2465597689151764, 1.218036413192749, -0.6854881644248962, 0.5316946506500244, -0.4677577316761017, -1.020841360092163, -0.731551468372345, -0.36153045296669006, -1.386185646057129, 0.04233776032924652, 0.8313634991645813, 0.34116899967193604, 0.008608425036072731, -0.9644497632980347, 0.6120828986167908, 1.1969014406204224, 0.7081493139266968], [-0.7349615097045898, 0.4858744740486145, -0.5050603151321411, 1.3314239978790283, 0.22508959472179413, 1.1044543981552124, -1.1101534366607666, 1.2506377696990967, -0.5096845626831055, -0.5423213243484497, 0.5378870964050293, -0.9118379354476929, -1.3908683061599731, 1.2741618156433105, -0.8971993923187256, -1.0677400827407837, 0.5962740778923035, -0.1611832082271576, 0.5708464980125427, 1.6129828691482544, 1.1983493566513062, 0.770663321018219, -0.9053969383239746, -1.4353379011154175, -0.5033863186836243, -0.306253045797348, -0.011918650008738041, -0.8678874969482422, 0.8419132828712463, -0.3498762249946594, -0.7295860648155212, 0.8458666801452637, -1.1350123882293701, -0.8640562891960144, 0.5398285388946533, -0.9617776274681091, -0.03061002679169178, -1.217799425125122, -0.6651822924613953, 0.13390758633613586, -0.08494393527507782, -0.34764426946640015, 0.42514562606811523, -1.0483547449111938, -0.1978815495967865, -0.7613455653190613, 0.010896347463130951, -0.24745485186576843, -1.615114688873291, 0.37509262561798096, 0.4952949583530426, 0.16535311937332153, 0.9017075300216675, -0.627216637134552, 0.5049580931663513, 0.7848485708236694, 0.7220605611801147, -0.002957194112241268, 1.2128475904464722, -0.7509610652923584, 0.7611251473426819, -0.38562676310539246, -1.4145170450210571, -0.60500568151474, -0.9875903129577637, -0.699222207069397, -0.7832661867141724, 0.006044602487236261, 1.1914763450622559, -0.17837515473365784, -0.5978572964668274, -0.4597172439098358, -0.05523538216948509, 0.40471431612968445, 1.0709333419799805, -0.5336453318595886, -0.7738094329833984, -0.8633248805999756, -0.3876035511493683, 0.051517222076654434, 0.25519809126853943, 0.08791140466928482, 0.07474558055400848, -1.5040079355239868, -1.5850545167922974, -0.568674623966217, -1.359472632408142, -0.8185879588127136, 1.0911922454833984, 0.8570854663848877, -0.09274322539567947, 0.000540319480933249, 0.207111656665802, 1.0871602296829224, -1.2179794311523438, -0.7121838927268982, 0.19467899203300476, -0.5272693634033203, -0.5203632116317749, 0.34502696990966797, -0.27468591928482056, -0.33703359961509705, -1.4704265594482422, -1.8296970129013062, -0.8196142911911011, -0.43541157245635986, 0.35937443375587463, -0.3845457136631012, 0.983898401260376, 0.06689521670341492, -0.468451589345932, -0.2271803468465805, -1.677037239074707, -1.1512047052383423, -0.7132788896560669, -0.14153604209423065, -0.21150733530521393, 1.3409414291381836, 0.4128357768058777, 1.11825692653656, -1.3470488786697388, 1.4563398361206055, 0.33421966433525085, 1.3334195613861084, -0.6095248460769653, -1.1264452934265137, 0.5924121737480164, -1.4246020317077637], [-0.03727803751826286, 0.6233592629432678, 0.13545307517051697, -0.5349390506744385, -0.7182232141494751, 0.4722587764263153, 0.09011097997426987, -0.34807088971138, 0.31337180733680725, -0.031391166150569916, 0.032202377915382385, 0.14931347966194153, 0.29838258028030396, 0.09417355805635452, -0.6719732880592346, -0.2005450427532196, 0.6694656014442444, -0.5519288182258606, -0.44022852182388306, -0.28040507435798645, 0.73152095079422, -0.5205634832382202, -0.2556723654270172, 0.4218338429927826, 0.466798335313797, -0.6420998573303223, 0.6341763138771057, 0.29075887799263, -0.6978178024291992, 0.7408547401428223, 0.17605212330818176, 0.4288746416568756, -0.09493804723024368, 0.2606693506240845, 0.2591322064399719, -0.7772198915481567, 0.33646637201309204, 0.7301216721534729, -0.19384227693080902, -0.4648817479610443, 0.40121176838874817, 0.10951439291238785, 0.18804962933063507, -0.7601641416549683, 0.18428416550159454, 0.6569973230361938, -0.2759234309196472, 0.2746327221393585, -0.13949145376682281, -0.006200175266712904, 0.8264175653457642, -0.13515619933605194, 0.3573664724826813, -0.24870510399341583, 0.306681364774704, 0.6827208399772644, -0.7698462605476379, -0.359849750995636, -0.5026435852050781, 0.5389671921730042, 0.3093729019165039, -0.736382246017456, -0.30462801456451416, 0.5267503261566162, -0.13012726604938507, 0.4048434793949127, -0.31252288818359375, -0.26753100752830505, 0.16494964063167572, 0.8049178719520569, -0.18946239352226257, -0.9268097877502441, 0.6389120817184448, -0.6024640798568726, -0.2635659873485565, -0.13631810247898102, -0.300408273935318, 0.17227250337600708, -0.2585248053073883, 0.645088255405426, 0.1822769045829773, -0.5031006932258606, 0.03885597735643387, -0.004164900630712509, -0.5312674641609192, 0.29166916012763977, 0.36531132459640503, 0.7395892143249512, 0.16448752582073212, 0.44583481550216675, 0.5586864352226257, -0.17547614872455597, -0.657867431640625, 0.08359120786190033, 0.605689525604248, -0.18985092639923096, -0.39689457416534424, 0.18962565064430237, 0.4921782910823822, -0.4151647090911865, 0.526055097579956, -0.45355409383773804, 0.17810092866420746, -0.25237777829170227, -0.22721050679683685, 0.43263933062553406, 0.14354899525642395, -0.6769507527351379, 0.6158251166343689, 0.7377235889434814, 0.7483978271484375, -0.3864360451698303, 0.25921711325645447, -0.8275865316390991, -0.33949822187423706, -0.7459639310836792, -0.24035528302192688, 0.3087488114833832, -0.5380603075027466, 0.7824642062187195, -0.30044129490852356, 0.41544944047927856, 0.750137209892273, 0.49026110768318176, -0.025225628167390823, 0.5546069145202637, 0.336842805147171, -0.33732542395591736], [0.5396831035614014, -0.6527490615844727, -0.7998961806297302, -0.05178913474082947, 0.5098892450332642, 0.3914264738559723, 0.19581416249275208, -0.04316636547446251, 0.9336387515068054, 0.3600814640522003, 1.0692226886749268, -0.12229140102863312, -0.9727476239204407, -0.9127842783927917, 0.11225166916847229, -0.15539118647575378, -0.5564215183258057, 0.8050891757011414, -0.5564377903938293, 0.6097522974014282, -1.4049233198165894, 0.46660804748535156, 0.40952399373054504, 0.2403399795293808, -0.4290192723274231, 0.8807126879692078, -0.027939051389694214, -0.23661887645721436, -0.7578124403953552, -1.5636800527572632, 0.1580476462841034, -0.8345822691917419, -0.27028027176856995, -0.07239775359630585, 0.4259645342826843, 0.15612195432186127, 0.5593517422676086, 0.1881113499403, 0.5976139307022095, -0.548620879650116, 1.2747617959976196, -0.5937933325767517, 0.39940300583839417, -0.8675849437713623, -0.13266271352767944, -0.503659725189209, 0.20940588414669037, -0.7370644807815552, -0.5610908269882202, -0.7133458256721497, -0.030586980283260345, -1.5291707515716553, -0.18582378327846527, 0.007493582554161549, -0.24195635318756104, -0.6226719617843628, -1.7873592376708984, -0.15636415779590607, 0.3298434019088745, 0.1585398018360138, 0.2874448895454407, 1.6531391143798828, 0.8115308284759521, -0.17203831672668457, -0.5442975759506226, 1.0958452224731445, -1.132338047027588, 0.23585988581180573, 0.2585747241973877, 1.0466961860656738, 0.01930749975144863, 0.06646723300218582, -1.4312219619750977, -1.353085994720459, 1.137219786643982, -0.18897420167922974, 0.06703446805477142, -1.0047860145568848, -0.7864997982978821, -1.1630992889404297, 0.2223825454711914, -1.0884660482406616, -0.3823601007461548, 0.7097375392913818, 1.2899911403656006, -1.1574516296386719, 0.8695984482765198, -0.21345262229442596, 0.4141002893447876, -0.6812122464179993, -0.05834770202636719, 0.7614999413490295, 0.2590697109699249, -0.011709405109286308, 0.7913737893104553, -0.5123008489608765, 0.5938602089881897, -0.06672953814268112, 0.6098175048828125, 0.7567044496536255, -0.8965415358543396, 0.5172950029373169, -0.4605933725833893, 0.3596760034561157, -0.08403018862009048, 0.3173965811729431, -0.8349896669387817, 0.18915709853172302, 0.6058141589164734, 0.756447434425354, -1.2579622268676758, 0.3559236228466034, -0.6026592254638672, 0.4931078255176544, -0.8742727637290955, 0.04604988917708397, 1.0805165767669678, -0.4775238633155823, 1.315601110458374, 0.2715727388858795, -0.299035906791687, 1.571620225906372, -0.15956440567970276, -1.0119879245758057, -0.32439184188842773, -0.4474744498729706, 0.660686731338501, 0.5496359467506409], [-0.3961977958679199, 1.349406123161316, -0.6140542030334473, 0.851150631904602, -0.8365983963012695, -0.5043984055519104, -0.7093879580497742, 0.8750678300857544, -0.6088232398033142, 0.9635888338088989, -0.7603812217712402, -0.4436339735984802, -0.8680880069732666, -0.37277573347091675, 0.457276314496994, 1.2932837009429932, 1.0130994319915771, -1.1832720041275024, -0.7622414827346802, 0.5119989514350891, -1.057145118713379, -0.6809679269790649, 1.399062991142273, -1.0386338233947754, 0.5833997130393982, -1.040668249130249, -1.0794708728790283, 0.20611734688282013, 0.5037291646003723, -1.376934289932251, -0.3949272036552429, 1.0814861059188843, 7.618961535627022e-05, 0.8949648141860962, -0.3716980218887329, 0.8617500066757202, 0.72054123878479, -0.39375874400138855, -0.13105502724647522, 1.756761908531189, 0.718734622001648, -0.7503256797790527, 0.9792410135269165, -1.5212485790252686, -0.5789008140563965, 0.019952312111854553, -0.7151055932044983, 0.26252710819244385, -0.06504511833190918, -1.6525561809539795, -1.0558440685272217, -0.6857671737670898, 1.2486541271209717, 0.14574404060840607, -1.3495370149612427, -1.3900659084320068, 0.2699100375175476, 0.16050086915493011, 1.0775469541549683, 0.6244236826896667, -0.909538209438324, 0.619784951210022, 1.0222371816635132, 0.9228914380073547, 1.2022784948349, -0.7752141952514648, 1.231303334236145, 0.9147707223892212, 1.0233216285705566, -1.6239383220672607, 0.2522890269756317, 0.306124210357666, -0.3601785898208618, -0.9570479989051819, 1.6705948114395142, -1.313235878944397, -0.17481791973114014, -0.12549196183681488, 0.43116164207458496, 0.35981833934783936, -1.3781808614730835, 1.0752233266830444, -0.6931083798408508, -0.40719717741012573, 0.2539069950580597, 0.35244619846343994, -0.7351555228233337, 1.801743984222412, -0.7623825669288635, 1.1228042840957642, -0.24994304776191711, 1.5210527181625366, -0.5816757082939148, -0.9294559955596924, 0.5155288577079773, 0.3683978021144867, 0.544122576713562, -0.5574828386306763, -1.3725439310073853, -0.46833065152168274, -1.7784042358398438, -1.2055368423461914, 0.03389237821102142, 0.2410387098789215, -0.8991221189498901, 1.5506049394607544, 1.0677725076675415, 0.7330970168113708, -0.5401783585548401, 0.0033977392595261335, -0.4447271525859833, 0.1255948543548584, -1.430655837059021, -0.23947519063949585, 1.3325611352920532, -0.42831137776374817, 1.1650500297546387, 1.2211012840270996, 0.4624181389808655, 0.4784996807575226, -1.7233340740203857, -0.8704266548156738, -1.4732215404510498, 0.7826337218284607, 1.3635739088058472, 0.7688782811164856, -1.6247897148132324, 0.6497966051101685], [1.1069165468215942, -0.8557366132736206, -0.620936930179596, 0.9026138782501221, 0.21762128174304962, 0.8494144678115845, -1.0552315711975098, 1.0328418016433716, 0.5805279016494751, 0.7137020230293274, -0.5967523455619812, -0.4367375373840332, -1.2034251689910889, -0.10697678476572037, 0.14336328208446503, -0.2746146321296692, 0.13069455325603485, -0.4556049406528473, 0.7246364951133728, -0.7759667038917542, -0.23141802847385406, 1.0915310382843018, 0.9003044366836548, 0.09510447829961777, 0.4070501923561096, 0.009171560406684875, 0.897663414478302, -0.2643749415874481, -0.24036741256713867, -0.9664484858512878, -0.38020145893096924, -0.3938765525817871, 0.9981317520141602, 0.9977499842643738, -0.42598241567611694, -0.08224627375602722, 0.8758988380432129, 0.4712039530277252, -0.6889825463294983, 0.892058789730072, -0.7867729067802429, -0.4527822732925415, 0.9560500979423523, 0.9219505786895752, 1.1049168109893799, 0.5254272222518921, 0.3589797019958496, 0.1746576726436615, -0.4456196129322052, -0.6962297558784485, 0.37667837738990784, -1.1389861106872559, 0.16690650582313538, 0.9142059683799744, 0.28231358528137207, 0.8192413449287415, 0.952323317527771, -0.21542972326278687, -0.9404528737068176, 0.9544023275375366, -0.23975436389446259, -0.29645922780036926, -0.25056150555610657, 0.9555498361587524, -0.6743523478507996, -0.7850990295410156, 1.2194749116897583, 0.481341153383255, -0.7021432518959045, -0.753768265247345, 0.9665204286575317, 0.8539544939994812, 0.004374968819320202, 0.9000610709190369, -0.593625545501709, -0.3799154758453369, 0.16724927723407745, -1.0988715887069702, -0.8538760542869568, -0.5028983354568481, -1.0070760250091553, 0.7685784697532654, -0.8486504554748535, 0.7560626864433289, 0.44864052534103394, -1.0156912803649902, -0.8121510744094849, -0.553031861782074, -0.3877965807914734, -0.6488011479377747, -0.35842663049697876, -0.4003669023513794, 0.1015109121799469, -0.08933599293231964, 0.5041777491569519, -0.2535078525543213, 0.5859025120735168, -0.529798150062561, 0.6385381817817688, -0.4458908140659332, 0.4957767724990845, 0.10224027931690216, 0.3941326141357422, 0.14486853778362274, -0.10171099752187729, -0.8036559820175171, -0.17242251336574554, -0.984761655330658, -0.7814158797264099, -0.13408777117729187, -1.1336067914962769, 0.0198953989893198, 1.1255897283554077, -0.05694044008851051, -0.45980164408683777, 0.9050772190093994, 0.13373559713363647, 0.28172585368156433, 0.23376315832138062, 0.335908979177475, 0.5873225927352905, 0.778279185295105, -0.1884404718875885, 0.8399081826210022, -0.4400535225868225, 0.6914305686950684, -0.25243455171585083, -0.12232845276594162], [-0.4738852083683014, 0.15672963857650757, -0.30380457639694214, -0.31025460362434387, -0.09047430753707886, 0.11052130162715912, -0.31109458208084106, 0.2477271407842636, 0.16665221750736237, 0.28665098547935486, 0.3216100335121155, 0.3924289345741272, 0.36764755845069885, 0.46358370780944824, -0.2857625484466553, 0.19411978125572205, 0.026106925681233406, 0.2179366648197174, -0.14579112827777863, -0.3888392746448517, -0.19004036486148834, 0.22748945653438568, 0.24913743138313293, -0.17907845973968506, -0.25318020582199097, -0.4478856027126312, 0.06670600920915604, 0.6352332234382629, 0.11705669015645981, 0.3917715847492218, -0.031228968873620033, -0.12427492439746857, 0.18936793506145477, 0.37396273016929626, -0.4712604880332947, 0.03764747455716133, -0.39020389318466187, -0.005049587227404118, 0.40130627155303955, -0.4256019592285156, -0.08895797282457352, 0.2541649043560028, 0.435000479221344, 0.34171557426452637, 0.15556947886943817, -0.3639437258243561, -0.3239022195339203, 0.42013442516326904, -0.5380282402038574, 0.37290292978286743, -0.055745337158441544, 0.24123576283454895, 0.02740946225821972, -0.18439878523349762, 0.27189889550209045, -0.25342175364494324, -0.05781561881303787, -0.038966793566942215, -0.4933420717716217, 0.4422643482685089, -0.363648921251297, -0.10774031281471252, 0.5095888376235962, 0.3847199082374573, -0.536907970905304, 0.21289798617362976, -0.2271067351102829, -0.11561692506074905, -0.10785900056362152, 0.3205641210079193, -0.24944695830345154, 0.3260186016559601, 0.09532278776168823, -0.2429526299238205, 0.20425467193126678, -0.13746346533298492, -0.19922947883605957, -0.054620567709207535, 0.24866431951522827, -0.15295283496379852, -0.26251286268234253, 0.2237614244222641, -0.11663871258497238, -0.3696502149105072, 0.49443647265434265, 0.4503299593925476, 0.46485891938209534, -0.15028659999370575, -0.3102045953273773, 0.28909409046173096, 0.043806593865156174, -0.01859935000538826, -0.0018376053776592016, -0.032980769872665405, -0.16786512732505798, 0.4436192512512207, 0.3829783499240875, -0.1708754152059555, -0.2136094570159912, 0.11896556615829468, -0.40097856521606445, -0.2850894331932068, -0.08476288616657257, 0.5741719603538513, 0.23010021448135376, -0.17008104920387268, 0.069718137383461, 0.16557732224464417, -0.5349852442741394, -0.3645416498184204, -0.27795031666755676, -0.2507316768169403, 0.002041660249233246, -0.3386216163635254, 0.3631821572780609, 0.18531803786754608, -0.4914824664592743, 0.19905273616313934, -0.11584491282701492, 0.5579137802124023, -0.3688092529773712, 0.3090260326862335, -0.36618664860725403, -0.4132508337497711, -0.2639249563217163, 0.4007526636123657, 0.1256042867898941, 0.4228282868862152], [-0.27665746212005615, 0.05278146639466286, -0.492017924785614, -0.42174696922302246, -0.12456949800252914, -0.30297473073005676, -0.18345962464809418, -0.3722369968891144, -0.03997772932052612, 0.44516289234161377, 0.319090873003006, -0.3263881504535675, 0.22322659194469452, 0.34793585538864136, -0.32675009965896606, 0.3280803859233856, -0.3383057713508606, -0.014858991838991642, -0.1146075576543808, -0.2190474569797516, -0.14955735206604004, 0.2236306220293045, -0.2714948356151581, 0.16943195462226868, 0.2722335755825043, -0.2463451772928238, -0.32285764813423157, -0.0671042799949646, -0.02974436804652214, 0.13697361946105957, 0.2857576310634613, 0.17412351071834564, -0.23303081095218658, 0.00842768233269453, -0.36642563343048096, -0.20247377455234528, -0.08323416113853455, 0.47400370240211487, -0.3711239993572235, 0.24551717936992645, -0.41791895031929016, 0.22814752161502838, -0.21909168362617493, -0.13530105352401733, -0.2542518973350525, -0.3047142028808594, -0.08002913743257523, -0.013656211085617542, 0.4579302966594696, -0.016582276672124863, -0.3015570044517517, 0.39266514778137207, 0.39615845680236816, 0.3665352165699005, -0.2395591288805008, 0.033704616129398346, -0.3725717067718506, -0.07918955385684967, 0.16982011497020721, 0.6421390771865845, 0.2283296138048172, 0.3209961950778961, -0.3951624631881714, -0.33061090111732483, 0.009847716428339481, 0.6139862537384033, 0.28568920493125916, 0.3152311444282532, -0.5346075296401978, -0.09806142002344131, -0.12212984263896942, 0.03138352930545807, -0.0808483213186264, -0.09224151074886322, -0.04185379296541214, 0.2845527231693268, -0.03436869755387306, 0.01707855984568596, -0.2288309633731842, -0.5628952980041504, 0.228439062833786, -0.19979636371135712, -0.40443140268325806, -0.5334688425064087, -0.13624390959739685, -0.213636115193367, 0.23996615409851074, -0.5315924286842346, 0.49651864171028137, -0.3398381471633911, -0.3089509606361389, -0.3144950568675995, 0.3789101839065552, 0.5369418859481812, 0.2033311277627945, -0.05835610255599022, 0.290205717086792, 0.07522647827863693, 0.27429115772247314, -0.6623291969299316, 0.13843460381031036, -0.18060491979122162, 0.3091226816177368, -0.12305906414985657, 0.2693729102611542, -0.060612112283706665, -0.16573582589626312, 0.22987067699432373, 0.2560271918773651, -0.4779025912284851, -0.6971938014030457, -0.10502784699201584, 0.2760927379131317, 0.6205780506134033, 0.3191395103931427, -0.19548127055168152, 0.14840582013130188, -0.016808658838272095, 0.053703900426626205, 0.31002146005630493, -0.18970376253128052, 0.35474729537963867, -0.21900109946727753, -0.36415958404541016, 0.08487508445978165, 0.06184519827365875, -0.0720505490899086, -0.18971824645996094], [-0.6897737979888916, -0.5550077557563782, 0.44912007451057434, -0.47455790638923645, 0.2839612662792206, 0.26001498103141785, 0.09861443191766739, -0.03155555576086044, -0.08404906094074249, -0.20843669772148132, -0.21055567264556885, -0.2536953091621399, -0.5973310470581055, -0.3995635509490967, 0.3357760012149811, -0.11207594722509384, 0.22826790809631348, -0.24246813356876373, -0.4287201762199402, 0.15586169064044952, 0.4026997685432434, 0.1208699569106102, 0.3190964460372925, 0.34406736493110657, -0.45733293890953064, 0.29920414090156555, -0.21784855425357819, 0.036659400910139084, 0.1989046186208725, 0.34214136004447937, -0.040711451321840286, 0.40347129106521606, -0.34328120946884155, -0.07571704685688019, -0.4236574172973633, -0.789452850818634, -0.4580526351928711, 0.10122377425432205, 0.40795496106147766, 0.5741206407546997, 0.12541335821151733, 0.2089427262544632, -0.3629554808139801, 0.5179036259651184, -0.14422202110290527, -0.23172977566719055, -0.5188969969749451, -0.46883317828178406, 0.31701627373695374, -0.3576973080635071, 0.09640299528837204, -0.12185181677341461, -0.3757357895374298, 0.23530784249305725, 0.28114259243011475, 0.1563723236322403, 0.1703985333442688, 0.6191552877426147, -0.2611483037471771, 0.12025486677885056, -0.4895782172679901, 0.2378004789352417, -0.5102041363716125, -0.36995065212249756, -0.5527937412261963, 0.3371654748916626, -0.1838587522506714, -0.06075421720743179, 0.3489346206188202, -0.24393470585346222, -0.4428912103176117, -0.2105242758989334, -0.05499955266714096, -0.1791645586490631, 0.692050039768219, -0.12484173476696014, -0.4782005846500397, -0.047492630779743195, -0.4042436480522156, -0.2000223696231842, 0.3661121129989624, -0.18947048485279083, -0.06563097983598709, 0.44121208786964417, -0.32770925760269165, -0.3478984534740448, -0.31514912843704224, 0.15097759664058685, -0.5857869982719421, 0.10087210685014725, -0.3184547424316406, 0.35294392704963684, -0.4574298560619354, -0.6168502569198608, -0.6001698970794678, -0.4559078514575958, -0.33711397647857666, -0.23818950355052948, -0.16761653125286102, -0.09665756672620773, 0.1372814029455185, 0.3280453085899353, 0.3353177309036255, 0.013682172633707523, 0.663343608379364, -0.026856103911995888, -0.40380430221557617, -0.4854104816913605, -0.48040536046028137, -0.09212880581617355, -0.4468735456466675, -0.2371758073568344, -0.11918389052152634, 0.25275617837905884, -0.23451274633407593, -0.6954724788665771, 0.5839397311210632, -0.12435801327228546, -0.47147494554519653, -0.4522385895252228, 0.11555366218090057, 0.17408932745456696, -0.3312569856643677, -0.5361945033073425, -0.13560520112514496, -0.010594312101602554, -0.32771414518356323, -0.07040182501077652], [-0.3451771140098572, -0.11390817910432816, -0.07120807468891144, -0.14253352582454681, -0.1568051278591156, -0.4519694745540619, 0.10913864523172379, -0.3568221926689148, 0.3261958658695221, 0.06781608611345291, -0.3556336760520935, 0.11455532163381577, 0.15754719078540802, -0.18311898410320282, 0.3986806869506836, -0.19014306366443634, -0.4624404311180115, -0.12149977684020996, -0.4338993430137634, -0.47324949502944946, 0.020150724798440933, -0.5105557441711426, 0.40544915199279785, -0.3497993052005768, 0.1481456160545349, -0.36807486414909363, 0.3778856098651886, 0.4218873381614685, -0.4958827793598175, -0.32702207565307617, -0.49758610129356384, -0.02030286006629467, -0.297269731760025, -0.22193431854248047, 0.005254514515399933, 0.26027774810791016, 0.4151860177516937, -0.4143149256706238, 0.09753360599279404, 0.42669054865837097, 0.27828431129455566, -0.36372944712638855, 0.11522768437862396, 0.05172445997595787, 0.40684646368026733, -0.4015224277973175, 0.21986432373523712, 0.21358054876327515, 0.38695913553237915, 0.28831589221954346, -0.01247766800224781, -0.0608820766210556, -0.27221593260765076, -0.07945304363965988, -0.10045231133699417, -0.33770856261253357, 0.3922608196735382, -0.11954950541257858, -0.21573695540428162, -0.19872914254665375, -0.39473626017570496, -0.10741372406482697, -0.43380066752433777, -0.1701921671628952, -0.08830288797616959, 0.30053195357322693, -0.3685649335384369, -0.2779420018196106, 0.24880269169807434, -0.23321056365966797, -0.0483412928879261, -0.2002052664756775, 0.533206582069397, -0.2751922011375427, -0.16323059797286987, 0.38652101159095764, 0.38799190521240234, -0.1531609743833542, 0.005620541982352734, 0.138320192694664, 0.6230590343475342, 0.23928302526474, -0.3034960627555847, 0.22312967479228973, -0.3951440155506134, -0.16589206457138062, -0.11276257038116455, -0.44216862320899963, 0.4020167291164398, 0.19404689967632294, 0.45346009731292725, 0.39010682702064514, 0.40126127004623413, 0.06325120478868484, -0.3636792302131653, -0.4324054419994354, 0.3457901179790497, 0.2847925126552582, 0.15638284385204315, -0.47716444730758667, -0.05576583370566368, 0.44860073924064636, 0.32884177565574646, 0.16979549825191498, 0.04757632315158844, -0.013649201020598412, 0.2885498106479645, 0.5665007829666138, -0.42102786898612976, 0.08238682150840759, 0.23166616261005402, -0.2051384150981903, -0.5356012582778931, 0.16048280894756317, 0.26021820306777954, -0.17160944640636444, 0.39665889739990234, -0.09259890019893646, -0.42693084478378296, 0.039798855781555176, 0.46721410751342773, 0.372357577085495, 0.3858284056186676, 0.26616331934928894, 0.019130071625113487, -0.1367635428905487, -0.25775668025016785, -0.42167139053344727], [0.5107973217964172, -0.49752771854400635, 0.3087855279445648, 0.3669688403606415, -0.3383953273296356, 0.03442421555519104, 0.15996147692203522, 0.10139106214046478, -0.29059267044067383, 0.20665045082569122, 0.521442174911499, -0.42895206809043884, -0.06237166002392769, -0.345883846282959, 0.06865612417459488, -0.47956451773643494, 0.5226468443870544, -0.04764838516712189, 0.3126239478588104, 0.2221466302871704, -0.0997529849410057, 0.35071495175361633, 0.39853435754776, -0.5235868692398071, -0.18015235662460327, 0.19178840517997742, -0.3821333348751068, 0.5849231481552124, -0.3764178156852722, -0.1166139766573906, 0.12455669790506363, 0.618264377117157, 0.46817293763160706, -0.6840569376945496, 0.6357684135437012, -0.38183364272117615, -0.05569175258278847, -0.15668851137161255, 0.4141216576099396, 0.4242710471153259, -0.3744557499885559, -0.5599566102027893, -0.3092588186264038, 0.4882170259952545, -0.030565939843654633, -0.3927394449710846, -0.5562450885772705, 0.03624662756919861, 0.12954604625701904, 0.3532710671424866, -0.4232919216156006, -0.015138169750571251, 0.27450042963027954, -0.13228937983512878, 0.07507409900426865, 0.32673388719558716, 0.2254607230424881, -0.353035032749176, -0.2972851097583771, 0.014659693464636803, -0.2422465831041336, 0.464249849319458, -0.5130696892738342, -0.5823540091514587, -0.056604109704494476, -0.25932639837265015, -0.6882745623588562, 0.20699405670166016, -0.1545490324497223, -0.49280786514282227, -0.29491862654685974, -0.483142614364624, 0.679124653339386, 0.014178398996591568, -0.23161597549915314, -0.056636929512023926, -0.3672633469104767, 0.2722797691822052, -0.4594140648841858, -0.48229914903640747, -0.5004963278770447, -0.15548917651176453, 0.3293178081512451, -0.015438336879014969, -0.4097656309604645, 0.05127467215061188, 0.4109010100364685, 0.34538108110427856, -0.5757919549942017, -0.3934553861618042, -0.23455911874771118, 0.6251870393753052, -0.27760761976242065, -0.5535585880279541, -0.1877714991569519, 0.04650149121880531, 0.004268348682671785, -0.36614468693733215, 0.17639599740505219, -0.6422433853149414, 0.03198931738734245, 0.4683249592781067, -0.5517602562904358, 0.22505131363868713, 0.37256816029548645, 0.4367111921310425, 0.11458618193864822, -0.005340463947504759, 0.30213573575019836, -0.2006853073835373, -0.4894178807735443, -0.20039278268814087, -0.06272413581609726, -0.6466721892356873, 0.6132959723472595, -0.2384214848279953, -0.07933244109153748, -0.24387593567371368, -0.12887275218963623, 0.05501876026391983, -0.38974693417549133, 0.0024640278425067663, -0.5421687364578247, 0.3679843246936798, 0.33435577154159546, 0.256936252117157, 0.5342128276824951, 0.31355106830596924], [0.49128541350364685, -0.08893848210573196, 0.5504533052444458, -0.337995320558548, 0.16531434655189514, -0.3799717426300049, -0.5000935792922974, -0.1695644110441208, -0.11094744503498077, 0.15993086993694305, -0.3316914141178131, -0.05692038685083389, 0.11096300929784775, 0.36213061213493347, -0.3560619354248047, 0.20983710885047913, -0.14908261597156525, -0.16437198221683502, -0.04131997376680374, 0.28339824080467224, -0.11770881712436676, -0.07753323763608932, 0.2140980213880539, 0.13818155229091644, -0.34206491708755493, -0.02380811795592308, -0.20512497425079346, 0.09107369184494019, 0.26698005199432373, 0.4289713203907013, -0.2548210918903351, 0.28660693764686584, -0.14711232483386993, 0.27719569206237793, -0.12678106129169464, -0.3377378284931183, -0.007241206243634224, -0.3882829546928406, -0.14154693484306335, 0.3873109519481659, -0.09877947717905045, -0.1379511058330536, 0.17381244897842407, 0.17662161588668823, 0.30676257610321045, -0.40822306275367737, -0.44592809677124023, -0.02933904342353344, 0.4991042912006378, 0.23777583241462708, 0.2837129831314087, 0.2984054386615753, 0.006288944277912378, -0.27944886684417725, -0.029027588665485382, 0.4308411478996277, -0.37962567806243896, 0.117529958486557, -0.39553946256637573, -0.21945393085479736, 0.10729965567588806, 0.5774612426757812, -0.08706308901309967, -0.4025450646877289, 0.2679762542247772, -0.2791149318218231, -0.39453354477882385, -0.03209036588668823, 0.11099208146333694, -0.40274083614349365, 0.3251442611217499, -0.3693668246269226, -0.11667255312204361, -0.46991613507270813, -0.194069966673851, 0.2635062038898468, -0.3397967517375946, -0.09484405815601349, -0.1305500864982605, 0.14205226302146912, 0.20430146157741547, -0.3960471451282501, -0.040274862200021744, -0.0664558857679367, -0.1372709423303604, -0.41437476873397827, -0.3032251000404358, -0.09285964071750641, 0.01132223755121231, -0.16039186716079712, -0.2956804633140564, 0.27242907881736755, 0.5012111663818359, 0.13016332685947418, -0.014257590286433697, 0.3063810169696808, -0.41688650846481323, -0.03190656006336212, 0.07052276283502579, -0.04831831157207489, 0.05235021561384201, 0.2912435233592987, 0.4584825932979584, 0.1255287528038025, 0.07956136018037796, 0.3194440007209778, -0.12437321990728378, 0.11959939450025558, -0.3694979250431061, -0.34564170241355896, -0.3839489817619324, 0.025533823296427727, -0.16084285080432892, -0.020670577883720398, 0.22980231046676636, 0.5919056534767151, 0.095241479575634, -0.02111140638589859, 0.27386200428009033, -0.5040963888168335, 0.008133834227919579, -0.20088736712932587, 0.11449044197797775, 0.01720670610666275, -0.49072766304016113, -0.21589551866054535, 0.24422462284564972, -0.18133288621902466], [-0.5540004372596741, -0.37883317470550537, 0.4004420340061188, -0.12065437436103821, 0.28084439039230347, -0.6334158182144165, 0.4885050654411316, -0.09397605806589127, -0.07377670705318451, 0.344734251499176, 0.21556811034679413, 0.08752930909395218, 0.10630159080028534, -0.5289261341094971, -0.05046214163303375, -0.22920790314674377, -0.5410774946212769, -0.20574532449245453, 0.05173496529459953, 0.4458567798137665, 0.29702091217041016, -0.17090141773223877, 0.26513949036598206, 0.24178187549114227, 0.2601512670516968, -0.2671692371368408, 0.4522305727005005, -0.4194699823856354, 0.4599062204360962, 0.11240482330322266, 0.23793303966522217, 0.25480175018310547, 0.36455875635147095, -0.12773822247982025, -0.32036396861076355, 0.40945348143577576, 0.25492462515830994, 0.11804408580064774, -0.07323480397462845, 0.5229990482330322, 0.06014402583241463, -0.489638090133667, -0.3909716308116913, -0.042140815407037735, 0.28845420479774475, 0.16828839480876923, 0.08414644747972488, -0.20092086493968964, -0.06393816322088242, 0.5542874336242676, -0.21321016550064087, -0.41078677773475647, -0.5263292789459229, -0.11775118112564087, 0.33120226860046387, -0.22471462190151215, -0.483489453792572, -0.3445301353931427, -0.34436920285224915, 0.14660581946372986, -0.20397453010082245, 0.25010982155799866, 0.6102243065834045, 0.546006977558136, 0.03789522126317024, -0.2914946377277374, 0.11864431947469711, -0.1632113754749298, -0.2676483690738678, -0.20247018337249756, -0.2055974304676056, -0.2535274624824524, -0.43148523569107056, 0.6370334029197693, -0.0055980440229177475, 0.5803211331367493, -0.03630184754729271, 0.07179439067840576, 0.5651729106903076, 0.13263173401355743, -0.3242742717266083, 0.40851444005966187, 0.4035471975803375, -0.38385438919067383, 0.00038709567161276937, -0.17121770977973938, -0.30893802642822266, -0.40347227454185486, 0.018425660207867622, 0.1511428952217102, -0.4178158938884735, -0.39550596475601196, 0.4459557831287384, 0.2347719669342041, -0.18964684009552002, -0.14034731686115265, -0.40545031428337097, -0.285552442073822, 0.4388076066970825, -0.47371336817741394, -0.1431182622909546, 0.23390504717826843, -0.05375692993402481, 0.187447652220726, -0.018693743273615837, -0.26663562655448914, 0.3525995910167694, 0.297668993473053, 0.45631447434425354, -0.337603896856308, 0.4115714132785797, -0.4187508821487427, 0.04965538904070854, -0.23693984746932983, 0.05491522327065468, -0.11322440207004547, 0.21065223217010498, -0.2571868598461151, -0.25227922201156616, 0.5181522965431213, 0.33143526315689087, -0.12443320453166962, -0.5555562376976013, -0.06105022504925728, -0.5290730595588684, 0.4926894009113312, 0.09988810867071152, -0.4894379675388336], [0.40408340096473694, -0.3950401544570923, 0.2862831950187683, 0.06444300711154938, -0.013975059613585472, -0.366967111825943, 0.3581615090370178, -0.1216224655508995, 0.12261154502630234, 0.49190378189086914, 0.28809279203414917, -0.1626826822757721, -0.009562108665704727, 0.2120775729417801, -0.2094184011220932, 0.3307648301124573, -0.35950741171836853, -0.2630122900009155, 0.5981000065803528, -0.11496805399656296, 0.3878166675567627, 0.3485109508037567, 0.01764499954879284, 0.25693386793136597, 0.24937669932842255, 0.3916464149951935, -0.16047801077365875, -0.21206822991371155, 0.39690300822257996, -0.4547220766544342, 0.009312222711741924, -0.2987993657588959, -0.4155903160572052, -0.06199050694704056, 0.4204595386981964, 0.4913727939128876, -0.43305808305740356, 0.35424527525901794, -0.09105324745178223, 0.29125988483428955, 0.2355317771434784, -0.4371793568134308, -0.3986707329750061, -0.25032681226730347, -0.5058035850524902, -0.0681154727935791, -0.1398259699344635, -0.30573025345802307, -0.37897375226020813, 0.4072437584400177, 0.22111919522285461, -0.2284511923789978, 0.1829071193933487, -0.31778427958488464, 0.05721316859126091, 0.4868631660938263, 0.2595956325531006, -0.0335855558514595, 0.3875519037246704, 0.16440267860889435, 0.3060199022293091, -0.07651755213737488, -0.3739546239376068, -0.2243984341621399, -0.3882945775985718, 0.4802306890487671, -0.29003265500068665, 0.006518391892313957, 0.1312304586172104, -0.32323363423347473, 0.0983356162905693, -0.21036528050899506, -0.03953711315989494, -0.626578152179718, -0.17091837525367737, -0.02607090026140213, 0.07384222000837326, -0.26513180136680603, -0.15958274900913239, -0.22586271166801453, 0.1928180754184723, 0.09881678968667984, -0.2702849507331848, -0.27280858159065247, -0.21233217418193817, 0.3422345519065857, -0.33556026220321655, 0.27192068099975586, -0.35768789052963257, -0.4663429856300354, 0.19850188493728638, -0.05244079604744911, 0.1944596767425537, -0.46406427025794983, 0.21961155533790588, -0.2512767016887665, -0.11851343512535095, 0.23442383110523224, -0.37730103731155396, -0.3023412525653839, 0.2735860347747803, 0.16140013933181763, 0.47434961795806885, -0.11584220826625824, 0.2939073443412781, 0.3317258358001709, -0.10251907259225845, 0.30824100971221924, -0.05508178099989891, -0.286990225315094, 0.06828393787145615, 0.14208294451236725, -0.5056031346321106, 0.37476110458374023, 0.2589113116264343, 0.38326895236968994, -0.3932640254497528, 0.24700810015201569, 0.45226019620895386, 0.43427830934524536, 0.036735717207193375, -0.3730223774909973, -0.01875198259949684, -0.12257982045412064, 0.14665262401103973, 0.5634335875511169, -0.08072973042726517, 0.3628970980644226], [-0.25857067108154297, 0.20151107013225555, 0.3011038899421692, 0.4070297181606293, -0.13912749290466309, 0.11172978579998016, -0.3721754848957062, -0.12292204797267914, -0.3687915503978729, -0.23838098347187042, 0.014965956099331379, -0.40449243783950806, -0.30148762464523315, -0.21263864636421204, -0.3824220597743988, -0.4148727059364319, -0.20254795253276825, -0.20563237369060516, -0.1820981800556183, -0.03458861634135246, -0.2456018030643463, -0.3031550347805023, -0.09092218428850174, -0.0968153327703476, -0.3552694022655487, 0.07419100403785706, -0.2216341495513916, -0.3308786451816559, 0.35819050669670105, 0.19295768439769745, 0.2596297562122345, 0.3236854076385498, 0.14099650084972382, -0.027881192043423653, 0.1403643935918808, 0.31099751591682434, 0.07339345663785934, 0.028201324865221977, -0.3859410285949707, 0.12720702588558197, -0.5278283357620239, -0.10935007780790329, -0.20148169994354248, 0.1497069150209427, -0.4926704466342926, 0.4402654469013214, 0.3999338448047638, 0.1768822818994522, 0.28198421001434326, -0.38440531492233276, 0.0815991759300232, 0.08937343209981918, 0.035671405494213104, -0.3502386808395386, 0.05182353034615517, -0.5173943638801575, 0.08671014755964279, -0.04659345746040344, 0.2695254981517792, 0.39688706398010254, 0.0349816270172596, 0.07527759671211243, -0.009107156656682491, -0.37613144516944885, -0.01449907198548317, 0.07102183252573013, -0.13264994323253632, -0.09230875968933105, 0.4742087423801422, 0.3723675012588501, 0.07727174460887909, -0.20150913298130035, 0.3561854064464569, -0.24279402196407318, -0.012991705909371376, -0.303061842918396, 0.12792371213436127, -0.04991712421178818, 0.08563537150621414, -0.15443669259548187, -0.5089011192321777, -0.17574988305568695, -0.05133654177188873, 0.2579326927661896, 0.19890142977237701, 0.0585608184337616, -0.5722181797027588, -0.1364014595746994, -0.3207787871360779, 0.1810024231672287, -0.23846127092838287, 0.4307501018047333, -0.2842807471752167, 0.28649914264678955, 0.19801609218120575, -0.32088503241539, 0.3187946379184723, 0.10556238144636154, 0.26766401529312134, 0.2015797346830368, 0.34199512004852295, -0.27629348635673523, -0.1759665161371231, 0.03776165470480919, 0.25906768441200256, 0.058432307094335556, -0.1982206553220749, -0.19194331765174866, -0.45703259110450745, -0.11427971720695496, 0.08470749109983444, 0.40392738580703735, -0.26930609345436096, 0.180711030960083, -0.22326986491680145, 0.4548737108707428, 0.4581861197948456, 0.4361019730567932, -0.38538938760757446, 0.30020877718925476, -0.25663432478904724, 0.3149193823337555, 0.042567040771245956, 0.27288174629211426, 0.07017785310745239, 0.1702873408794403, 0.3165784478187561, 0.1017787903547287], [0.20583544671535492, -0.07769440114498138, -0.3558482527732849, -0.5689446330070496, 0.3518126606941223, -0.5876932144165039, -0.1400907188653946, 0.2469455599784851, 0.08686750382184982, -0.2074696570634842, -0.3184942305088043, 0.25847771763801575, 0.31474947929382324, 0.19790607690811157, -0.06277371197938919, 0.5456982851028442, 0.10682792961597443, -0.0428030751645565, -0.08056909590959549, -0.26072439551353455, -0.04171355813741684, -0.12444034963846207, -0.14123736321926117, -0.06832833588123322, -0.3213038444519043, -0.12104473263025284, -0.3555978834629059, 0.05381493270397186, 0.06852743774652481, -0.15925654768943787, -0.09214787185192108, -0.3016849756240845, 0.3257052004337311, 0.42287635803222656, 0.585751473903656, -0.2466413378715515, -0.42253848910331726, 0.24936258792877197, -0.3924947679042816, -0.3301084637641907, -0.45121410489082336, 0.24871064722537994, 0.3154572546482086, 0.5766400694847107, -0.29122135043144226, -0.11719631403684616, -0.4491056501865387, -0.08240671455860138, -0.11361093074083328, 0.09506827592849731, 0.07066662609577179, 0.27662989497184753, 0.565111517906189, 0.06344404071569443, -0.46003079414367676, -0.007333988323807716, 0.20368200540542603, 0.15357640385627747, 0.10304076969623566, 0.31850966811180115, -0.32705390453338623, 0.5403284430503845, -0.2741166055202484, 0.5842213034629822, -0.08318781107664108, -0.2411811202764511, -0.432761549949646, 0.406429260969162, 0.6073627471923828, 0.3311559557914734, -0.030163737013936043, -0.12317598611116409, 0.25279760360717773, -0.08240461349487305, 0.4003024995326996, -0.4764241874217987, 0.18976297974586487, -0.20068852603435516, 0.07083450257778168, -0.6538789868354797, -0.23232033848762512, 0.11223793774843216, 0.01139188464730978, 0.03644442930817604, 0.46801361441612244, -0.3393074572086334, -0.1096220463514328, 0.08172290772199631, 0.303729772567749, -0.047161173075437546, -0.32239094376564026, 0.0017935073701664805, -0.4696376323699951, 0.37937232851982117, 0.0973149761557579, -0.11556288599967957, 0.1740933060646057, 0.46331313252449036, -0.2834526300430298, 0.47428250312805176, -0.3375132083892822, -0.4354837238788605, 0.5113022327423096, 0.5230653285980225, 0.32707658410072327, 0.6095325350761414, 0.5730947256088257, 0.22660191357135773, -0.14488555490970612, 0.39889609813690186, -0.31346648931503296, -0.25666531920433044, 0.5717495679855347, -0.4588943123817444, -0.15357598662376404, -0.05491182580590248, -0.4173566997051239, 0.007406353019177914, -0.03841688483953476, 0.4533223509788513, -0.28121674060821533, 0.09887094795703888, -0.5866970419883728, 0.16109783947467804, -0.44177237153053284, 0.18646350502967834, 0.37208330631256104, 0.09390787780284882], [-0.36914902925491333, 0.20388191938400269, 0.119397833943367, -0.4505200982093811, 0.34603023529052734, -0.44817405939102173, -0.007722881622612476, -0.3534204065799713, -0.593766450881958, -0.29871252179145813, 0.10516089200973511, -0.4130980670452118, 0.09509021788835526, -0.23489253222942352, 0.058400776237249374, -0.12058983743190765, -0.18549422919750214, -0.4652547538280487, 0.012283287942409515, -0.12557728588581085, -0.007731372024863958, 0.5475447773933411, 0.3497534990310669, -0.11488111317157745, 0.38889995217323303, -0.26277631521224976, -0.5915210247039795, 0.2699979543685913, -0.20099259912967682, -0.16486488282680511, 0.2724992334842682, -0.5549619793891907, 0.3477920889854431, -0.44676005840301514, -0.32903486490249634, -0.0693884789943695, 0.013812251389026642, -0.20757369697093964, -0.28818127512931824, -0.1292848289012909, -0.4459341764450073, 0.4642852544784546, -0.5871596932411194, 0.03691598400473595, -0.49644148349761963, -0.3866971433162689, 0.23620040714740753, -0.29435065388679504, 0.048770371824502945, -0.015704631805419922, 0.35398349165916443, 0.4917919933795929, 0.049583129584789276, 0.13586081564426422, -0.3304751515388489, -0.19135160744190216, -0.32529500126838684, 0.30631279945373535, 0.5612793564796448, -0.7063490152359009, -0.10451292991638184, -0.29551923274993896, 0.09507233649492264, -0.1079244390130043, 0.13794566690921783, -0.31620514392852783, -0.24498958885669708, 0.32288673520088196, -0.054906636476516724, 0.2308400571346283, 0.13231170177459717, 0.22945405542850494, 0.03873436897993088, -0.407052218914032, 0.15949265658855438, -0.5395628213882446, 0.13116289675235748, 0.32381540536880493, -0.42366358637809753, -0.410142183303833, -0.1793287843465805, 0.11266167461872101, -0.20425671339035034, -0.003241544822230935, -0.05364269018173218, -0.0698794573545456, -0.48623043298721313, 0.5711170434951782, -0.3707503080368042, 0.17385077476501465, -0.5003620386123657, 0.2774621248245239, 0.17758367955684662, -0.37774381041526794, 0.3935784697532654, -0.3490328788757324, 0.4139554798603058, -0.18784622848033905, 0.3028516173362732, -0.19019675254821777, 0.15228088200092316, -0.23713140189647675, -0.147877037525177, 0.2563457787036896, -0.25635895133018494, -0.3077199459075928, -0.3011678457260132, 0.26248079538345337, -0.2770993113517761, -0.0564613901078701, 0.09336771816015244, -0.5814164876937866, -0.19040530920028687, 0.39687520265579224, 0.31147846579551697, 0.36502307653427124, 0.6548879742622375, -0.057229675352573395, 0.27712151408195496, 0.4528317451477051, 0.18199200928211212, 0.2218710482120514, -0.6164070963859558, 0.007064194418489933, -0.06631284207105637, 0.23822550475597382, -0.2631620764732361, -0.44551509618759155], [-0.5055206418037415, 0.2583324909210205, 0.01451576966792345, -0.5236951112747192, -0.294346421957016, -0.2117556482553482, -0.2204536348581314, 0.07763989269733429, -0.036716386675834656, -0.507786750793457, 0.38006392121315, 0.012186428532004356, 0.4865794777870178, 0.35073742270469666, 0.2482973039150238, -0.1344895213842392, 0.4041929244995117, -0.20961347222328186, 0.08574570715427399, 0.11501386016607285, -0.12677836418151855, 0.0035720455925911665, -0.15966172516345978, -0.33986613154411316, -0.189546138048172, -0.5069834589958191, -0.26458939909935, 0.4874432384967804, 0.542608916759491, 0.39580827951431274, 0.27631571888923645, 0.2222796380519867, 0.4213346242904663, -0.2065972089767456, 0.5592016577720642, 0.22734232246875763, 0.19792047142982483, -0.387567400932312, 0.3989148736000061, -0.11223302781581879, -0.2762484550476074, -0.15801814198493958, -0.06830492615699768, 0.35473939776420593, 0.25424671173095703, 0.2035847008228302, 0.2515708804130554, -0.13180390000343323, 0.4969269335269928, -0.42454037070274353, 0.054985206574201584, -0.41976431012153625, -0.47108587622642517, -0.14173293113708496, -0.06554773449897766, -0.2494308352470398, -0.26903846859931946, 0.4594942629337311, 0.39801695942878723, -0.21151091158390045, -0.2648453712463379, -0.3775058686733246, -0.04322725906968117, -0.17929789423942566, -0.10712480545043945, 0.5937705039978027, -0.27873843908309937, -0.367473840713501, -0.019062485545873642, -0.1892135590314865, 0.26664045453071594, -0.273298978805542, 0.02471153438091278, 0.06324582546949387, -0.47774115204811096, 0.12410705536603928, 0.1783808469772339, -0.05785563215613365, 0.5013074278831482, 0.33368217945098877, 0.11460793018341064, 0.4447489380836487, -0.31711289286613464, 0.01827666535973549, 0.002088545821607113, -0.2752879858016968, -0.25132814049720764, -0.3691793978214264, 0.23973627388477325, -0.037466276437044144, -0.037256430834531784, -0.31456342339515686, -0.2727798819541931, -0.4540509283542633, 0.10057001560926437, -0.23152434825897217, 0.24462084472179413, 0.48652222752571106, 0.06345250457525253, -0.2350839525461197, 0.34973061084747314, -0.10876167565584183, 0.06866254657506943, -0.2106596976518631, -0.23029056191444397, 0.3939310610294342, -0.4279007315635681, -0.5702796578407288, -0.09021342545747757, 0.32345420122146606, -0.2418929487466812, 0.381494402885437, -0.15473289787769318, 0.4932281970977783, 0.3431404232978821, 0.24833860993385315, 0.1636534482240677, -0.2853810489177704, -0.25711292028427124, 0.12563081085681915, -0.533710241317749, -0.45166948437690735, 0.398746132850647, -0.23792533576488495, 0.1584736704826355, -0.49028071761131287, 0.4454716145992279, -0.2542509138584137], [0.010989337228238583, 0.005830618552863598, -0.09598977118730545, -0.10882044583559036, -0.08340717107057571, 0.14866416156291962, 0.01025431789457798, 0.09206442534923553, 0.002858879044651985, -0.024265864863991737, -0.14054711163043976, -0.11613424867391586, 0.13218453526496887, 0.0020884594414383173, 0.1276462972164154, -0.09714550524950027, -0.16648243367671967, 0.015730049461126328, -0.07006490975618362, 0.02888721041381359, 0.09908200800418854, 0.18464511632919312, -0.05722177028656006, 0.0027936173137277365, 0.024254238232970238, 0.06665430963039398, 0.03450974076986313, -0.05434297397732735, -0.1349269300699234, -0.10638175159692764, 0.142727330327034, 0.08235825598239899, -0.16357478499412537, 0.0475628599524498, -0.01174055878072977, -0.04988594725728035, -0.1234283521771431, -0.013468323275446892, 0.23859676718711853, 0.06969235837459564, 0.1236439198255539, -0.13474296033382416, 0.1360069066286087, -0.07002392411231995, 0.023787662386894226, -0.08861248195171356, -0.005798975471407175, 0.09792027622461319, 0.0346958301961422, 0.04440638795495033, 0.08054174482822418, 0.028077172115445137, -0.16744452714920044, -0.06701233237981796, 0.12329953908920288, -0.15138556063175201, -0.12384746223688126, 0.21337944269180298, -0.0803147479891777, -0.18336133658885956, 0.16148154437541962, -0.0272150170058012, -0.15236954391002655, 0.09700824320316315, -0.018886417150497437, -0.13840968906879425, -0.020172107964754105, 0.13536979258060455, 0.039917442947626114, 0.08013849705457687, -0.16470330953598022, -0.11764706671237946, 0.10099577903747559, 0.06042513996362686, -0.1493428647518158, 0.13981851935386658, 0.08901616930961609, -0.05143327638506889, -0.10154402256011963, 0.17916133999824524, -0.06175197288393974, 0.04810621961951256, 0.006496727000921965, -0.09894152730703354, 0.015324223786592484, -0.04656803235411644, 0.0408756248652935, 0.02793499268591404, 0.05326712504029274, -0.05404850095510483, 0.1416344940662384, 0.06808704137802124, -0.00939168967306614, 0.005189471412450075, 0.02998916059732437, -0.13279001414775848, -0.013601413927972317, -0.07351858168840408, -0.07664762437343597, 0.09791721403598785, 0.06225704029202461, 0.12494819611310959, 0.1393294632434845, -0.016685597598552704, -0.03339247778058052, -0.025727316737174988, 0.04160367697477341, 0.05594000592827797, -0.10663171112537384, -0.1325404793024063, 0.1251394897699356, -0.03763800114393234, 0.21057814359664917, -0.09363197535276413, -0.16379868984222412, 0.029237283393740654, 0.03457671403884888, 0.05236915498971939, 0.06498787552118301, 0.02893521450459957, -0.09926546365022659, -0.001111657009460032, 0.08993033319711685, -0.006489587482064962, 0.10317914187908173, 0.04268771409988403, -0.11070714145898819, -0.025386055931448936], [-0.1018856018781662, 0.02676137536764145, 0.14264415204524994, 0.045167677104473114, 0.157847061753273, 0.05630044639110565, 0.00012777805386576802, -0.13318215310573578, -0.14641332626342773, 0.11765643209218979, -0.18614357709884644, -0.09038640558719635, -0.07300353050231934, -0.15266920626163483, 0.07369233667850494, -0.014358354732394218, -0.20731250941753387, 0.06899179518222809, -0.19941039383411407, 0.005742855370044708, 0.05562854930758476, -0.0929432287812233, 0.14300918579101562, -0.03003198467195034, 0.07198193669319153, 0.16537822782993317, -0.10291524976491928, 0.06407870352268219, -0.10006661713123322, 0.08381182700395584, 0.1153559759259224, 0.05070379376411438, 0.18769007921218872, 0.020255092531442642, 0.1803625226020813, 0.006410170346498489, 0.05350141599774361, 0.032047465443611145, -0.1459898054599762, 0.05464855208992958, 0.204226553440094, -0.1709287464618683, 0.05694221705198288, 0.10001717507839203, 0.18662835657596588, -0.19350828230381012, 0.07833794504404068, -0.14808493852615356, -0.11228512972593307, -0.094755157828331, -0.16786397993564606, -0.07236239314079285, -0.1656280905008316, 0.15041583776474, -0.002157394075766206, 0.13950741291046143, 0.012163718231022358, -0.04179691523313522, -0.14888913929462433, 0.07439732551574707, 0.11597704142332077, 0.13422420620918274, -0.17825008928775787, 0.11607923358678818, 0.06939627975225449, 0.05800717696547508, -0.0419173426926136, 0.046521078795194626, 0.005529842805117369, 0.031134305521845818, 0.08611973375082016, -0.04778716340661049, -0.09399007260799408, -0.31336310505867004, 0.1363336592912674, 0.02329457923769951, -0.15143010020256042, 0.05177711695432663, -0.21361534297466278, 0.024223443120718002, 0.10832575708627701, 0.08700419962406158, 0.035421885550022125, -0.006425806321203709, 0.12274117022752762, -0.07744383811950684, 0.021788137033581734, -0.08717937767505646, 0.06865155696868896, 0.03528914228081703, -0.16594097018241882, 0.21373014152050018, -0.01628563553094864, 0.06931810826063156, -0.12245716154575348, 0.2008894830942154, 0.08307519555091858, 0.07076964527368546, 0.06539339572191238, 0.16521510481834412, 0.1717962920665741, 0.11391302198171616, 0.012863325886428356, 0.10998962819576263, -0.019994299858808517, -0.08445320278406143, 0.06457821279764175, 0.09995723515748978, -0.02846657671034336, -0.12444954365491867, 0.12968793511390686, -0.04147375002503395, 0.05146895349025726, -0.13073888421058655, -0.21892768144607544, -0.0473732091486454, -0.11473632603883743, -0.03612041845917702, 0.13053670525550842, 0.0025640223175287247, -0.011212692596018314, 0.10044728219509125, 0.0492023304104805, -0.011946321465075016, -0.06189579516649246, 0.050997670739889145, -0.05794816091656685, -0.04991716518998146], [0.1157757118344307, -0.05527148023247719, -0.17114384472370148, 0.09074360132217407, 0.18933004140853882, 0.12706713378429413, -0.007516329176723957, 0.08661637455224991, -0.1668909639120102, 0.04658862203359604, 0.1250872015953064, 0.06389793753623962, -0.15796911716461182, 0.04963652789592743, -0.15045835077762604, -0.07254311442375183, 0.045960716903209686, 0.058361370116472244, -0.10294831544160843, -0.2174602448940277, 0.15768809616565704, -0.09660797566175461, 0.21052749454975128, 0.09516873210668564, 0.19688409566879272, -0.09795234352350235, 0.23674272000789642, 0.19761241972446442, 0.04054545611143112, -0.14882850646972656, -0.11379421502351761, -0.12456393241882324, -0.21485558152198792, -0.06858251243829727, 0.031014617532491684, 0.19902867078781128, -0.14947280287742615, -0.156571626663208, -0.007233813870698214, -0.008648078888654709, 0.1854832023382187, 0.05071602016687393, -0.10151343792676926, -0.08739954978227615, 0.05369250103831291, -0.20271837711334229, 0.029327986761927605, -0.1819124072790146, -0.12356655299663544, -0.19663314521312714, 0.12419629842042923, 0.13181018829345703, 0.11258026957511902, 0.04008392617106438, -0.09952432662248611, 0.04221957549452782, -0.10004635155200958, 0.07243166118860245, -0.0022042449563741684, 0.11282023042440414, -0.20168398320674896, -0.10878760367631912, 0.18358241021633148, -0.08675775676965714, 0.09653278440237045, 0.06049416959285736, -0.007633230183273554, -0.08787432312965393, 0.019294079393148422, -0.01481793262064457, -0.09580020606517792, -0.06901764869689941, 0.2125720977783203, 0.021476073190569878, 0.089386947453022, -0.07985483109951019, 0.03707407787442207, -0.20918357372283936, 0.11815131455659866, 0.11303221434354782, -0.01897808536887169, 0.19483116269111633, -0.1141415610909462, 0.2351607084274292, 0.09804869443178177, 0.008950713090598583, -0.011521288193762302, -0.02499667927622795, 0.015701962634921074, -0.13121755421161652, 0.030366256833076477, -0.06119358167052269, -0.09101492911577225, -0.067377969622612, -0.11307935416698456, -0.1716039925813675, 0.13266052305698395, 0.10001911967992783, -0.1631447821855545, -0.1409388929605484, -0.01158621720969677, -0.10156470537185669, 0.19467705488204956, 0.11525104194879532, 0.0879787728190422, -0.1780366599559784, 0.11321178078651428, 0.0287323035299778, -0.1433561146259308, 0.019921306520700455, 0.0820188820362091, -0.23855701088905334, -0.09380316734313965, 0.12368600070476532, 0.01794944703578949, -0.08955645561218262, -0.06414340436458588, -0.04876691475510597, 0.16065256297588348, 0.08152138441801071, -0.14803437888622284, 0.11366113275289536, -0.19734176993370056, 0.137737438082695, -0.04999907687306404, 0.001373782753944397, 0.2286042422056198, -0.1638176441192627], [-0.6872658729553223, -1.8502026796340942, 1.1934058666229248, 2.309002161026001, -0.025567226111888885, 0.23072406649589539, -1.129270076751709, -1.5665578842163086, -1.2190097570419312, 0.6223515272140503, -2.2086546421051025, 0.8752228617668152, 1.6925290822982788, -1.2037690877914429, -1.862061858177185, -0.7126590609550476, -1.264156699180603, -1.9037460088729858, -1.9367042779922485, 0.9966610074043274, -0.20477531850337982, -0.6213154196739197, 1.561919093132019, 1.1049320697784424, -1.635830283164978, 1.5249261856079102, -0.4741075038909912, 0.019022006541490555, 0.2002549171447754, -0.7285570502281189, 1.3295314311981201, -0.7366881966590881, 0.6426809430122375, 1.2652819156646729, -2.087132215499878, -0.4560043215751648, 1.5587464570999146, -1.754967451095581, -0.9239819645881653, -0.3920042812824249, 0.5685271620750427, 0.3491799831390381, -0.5195258855819702, 1.6238723993301392, 0.5645343065261841, 1.4932390451431274, 1.816605567932129, 1.4813916683197021, 1.4502780437469482, -0.5098097920417786, 1.4495747089385986, 1.502476453781128, 2.277632474899292, 1.7247424125671387, 1.9424854516983032, -0.9577887654304504, -1.257056713104248, 1.6838268041610718, -1.3720569610595703, -1.9387041330337524, 1.416419506072998, -1.1773039102554321, -2.4549238681793213, 0.22900299727916718, -1.4381284713745117, -2.352790355682373, 0.15762443840503693, 0.6736997961997986, 1.0428181886672974, 2.457535743713379, 1.8916065692901611, -2.2697300910949707, -1.7113525867462158, -1.4987128973007202, -1.8271750211715698, -0.4507576823234558, 1.3368881940841675, -1.929053544998169, -0.7790995836257935, 2.0064542293548584, 0.7374555468559265, 0.0749628022313118, 0.24311614036560059, -0.2781723439693451, -1.523228406906128, 1.4237486124038696, -1.543830394744873, 0.9742485284805298, 2.029092311859131, -0.5233514308929443, -0.8279257416725159, 1.478388786315918, 1.0141351222991943, 0.5395461320877075, 1.1305738687515259, -0.633039653301239, -1.6699907779693604, 2.714369297027588, 1.2179620265960693, -0.5992125868797302, 1.6216787099838257, 1.0438435077667236, -0.2946234941482544, -0.26652050018310547, 2.204129695892334, 0.15128575265407562, -1.6457948684692383, -1.0031930208206177, -0.8620952367782593, 1.3201152086257935, -0.094767265021801, 1.126953363418579, -0.08260153979063034, -0.15145225822925568, 0.6286389231681824, -1.0450751781463623, -0.5230181813240051, -1.5670109987258911, -1.4695091247558594, 0.11430303752422333, 0.37773123383522034, -1.2154710292816162, 0.9666226506233215, 2.091867446899414, 0.4074561595916748, 0.8198402523994446, 1.5866338014602661, -1.9689677953720093], [1.198508858680725, 1.2373791933059692, 2.0710489749908447, 0.754015326499939, 2.1926968097686768, 0.049607984721660614, -1.4042400121688843, 0.302926629781723, -1.7784570455551147, 0.5188955664634705, -2.378490447998047, -0.2690221667289734, -0.917076826095581, 1.0154705047607422, -1.2823841571807861, 1.9566843509674072, -0.309058278799057, -0.8518245816230774, -1.0446035861968994, 2.352773666381836, 0.2650488317012787, 0.5291889905929565, -0.5288289189338684, 1.921323537826538, -1.1942631006240845, -0.43742698431015015, -1.353117823600769, 