{"in_shape": [null, 66], "layers": [{"type": "dense", "activation": "elu", "shape": [null, 128], "weights": [[[0.05646425858139992, 0.14099127054214478, 0.006039735395461321, 0.10368835926055908, 0.012854980304837227, -0.0320003405213356, 0.028180984780192375, 0.09684089571237564, 0.14300698041915894, -0.019866149872541428, -0.05647073686122894, 0.08480581641197205, 0.11662553250789642, -0.04013743996620178, 0.21848253905773163, -0.09789793193340302, -0.07092102617025375, 0.11948516219854355, 0.11085119843482971, -0.14509151875972748, 0.10269896686077118, -0.0783395767211914, -0.1287533938884735, -0.09578803926706314, 0.0774504765868187, 0.12042510509490967, 0.11651381850242615, 0.0002091341302730143, 0.04331276938319206, 0.02955935336649418, 0.1422714740037918, -0.044012513011693954, 0.006101076491177082, 0.20762287080287933, -0.04677994176745415, 0.012520840391516685, -0.248163104057312, 0.13017424941062927, -0.05218930169939995, 0.10617510229349136, -0.08756663650274277, 0.05131956562399864, 0.032457444816827774, 0.07172667980194092, 0.19456513226032257, 0.01763063110411167, -0.038474876433610916, -0.08828522264957428, 0.05573240667581558, 0.2185317873954773, 0.08093409240245819, 0.05745042860507965, -0.10643619298934937, 0.11813246458768845, 0.0325746014714241, -0.08786992728710175, -0.008936328813433647, -0.11182256042957306, 0.12558963894844055, 0.07035395503044128, -0.028704939410090446, -0.08884142339229584, -0.02044004015624523, -0.12982265651226044, 0.011780672706663609, 0.022114690393209457, -0.1606396734714508, -0.17681185901165009, -0.059682704508304596, -0.09706031531095505, 0.014948458410799503, 0.021557193249464035, 0.07192152738571167, -0.04031302034854889, -0.17048032581806183, 0.01139070838689804, 0.08285360783338547, 0.0363004207611084, -0.00538194365799427, 0.09080152958631516, -0.07281874120235443, -0.10367019474506378, 0.04203234240412712, 0.024244071915745735, 0.07699953764677048, -0.05306793749332428, -0.12865956127643585, -0.0013041924685239792, -0.01874421536922455, -0.09524233639240265, -0.07506333291530609, 0.053610872477293015, 0.024561109021306038, -0.11987866461277008, -0.030598878860473633, -0.023404020816087723, -0.1440911740064621, 0.014840332791209221, 0.06978709250688553, -0.028926575556397438, 0.017575085163116455, -0.09859952330589294, 0.039344049990177155, 0.1286141276359558, -0.07170490175485611, 0.012584632262587547, 0.053659021854400635, 0.03724122792482376, 0.05377712845802307, 0.07990368455648422, 0.04251468554139137, 0.11231093108654022, 0.03120359405875206, -0.10324081033468246, 0.02164432592689991, -0.022927168756723404, 0.1435765027999878, 0.014701862819492817, -0.14237158000469208, 0.11395104974508286, 0.07667292654514313, 0.09596579521894455, 0.0750771015882492, -0.09007755666971207, -0.09982578456401825, -0.13107720017433167, 0.09242776036262512, -0.032647378742694855], [0.010447867214679718, -0.16959257423877716, -0.033019255846738815, -0.14371734857559204, -0.09090739488601685, 0.014701117761433125, -0.013917727395892143, -0.09330176562070847, 0.1382962167263031, 0.06926937401294708, -0.09850398451089859, 0.04672947898507118, -0.06753727048635483, 0.11025799065828323, 0.08583562076091766, -0.07948492467403412, -0.035744547843933105, -0.002586920978501439, 0.09548015147447586, -0.12672297656536102, -0.028747286647558212, 0.10772909224033356, 0.013935862109065056, 0.06961598247289658, -0.10801718384027481, 0.028592117130756378, -0.029801268130540848, 0.01572403311729431, 0.05708381533622742, 0.15560297667980194, 0.09346318989992142, 0.0829632505774498, 0.01872338354587555, 0.07082173973321915, 0.02326723001897335, -0.024153489619493484, 0.044528815895318985, -0.04047858715057373, 0.11107377707958221, 0.04462960362434387, 0.03932939097285271, -0.12623713910579681, -0.1347084641456604, -0.053066834807395935, -0.13433760404586792, -0.057212814688682556, 0.10281647741794586, -0.11185909062623978, -0.06781776249408722, -0.15053032338619232, 0.010648524388670921, -0.18283526599407196, 0.08555545657873154, 0.07974739372730255, 0.003953447565436363, -0.19825704395771027, -0.02200491353869438, -0.028178805485367775, -0.0329320915043354, -0.13017694652080536, -0.02130456082522869, 0.07269012928009033, 0.08608350157737732, -0.024316078051924706, -0.10093814134597778, 0.1712324321269989, 0.047796305269002914, 0.04636001214385033, 0.029638634994626045, -0.18245506286621094, -0.0014995234087109566, -0.10072410106658936, 0.10461203753948212, -0.02479403093457222, 0.08255581557750702, 0.05283287167549133, -0.10654611885547638, 0.1697167307138443, -0.1566670835018158, 0.00442151166498661, -0.11842980980873108, 0.1430334597826004, -0.03230459243059158, 0.08150022476911545, -0.09691713005304337, -0.10496608912944794, -0.018178360536694527, 0.08431174606084824, 0.07456839084625244, 0.11648443341255188, -0.03710290789604187, -0.08529289811849594, 0.07468340545892715, -0.09919217228889465, -0.22118912637233734, -0.1648741513490677, 0.07878447324037552, -0.16090713441371918, 0.12420936673879623, -0.016202731058001518, -0.039557430893182755, -0.0013883135979995131, -0.117900051176548, -0.025819728150963783, -0.07914964109659195, -0.1146002933382988, -0.02590032108128071, 0.025965873152017593, -0.08679413050413132, 0.13761337101459503, 0.14798282086849213, 0.12949365377426147, 0.17979957163333893, -0.04190446063876152, 0.056467439979314804, 0.02965044230222702, 0.08750568330287933, 0.08808539062738419, 0.005351214203983545, -0.0768541470170021, -0.020246155560016632, -0.07767308503389359, -0.09341845661401749, -0.09917336702346802, 0.11607585847377777, 0.00912459846585989, -0.09043270349502563, -0.03817465156316757], [-0.12036627531051636, -0.2889098823070526, 0.2212400734424591, 0.27583304047584534, -0.06306623667478561, -0.019013652577996254, -0.15133389830589294, 0.07888671010732651, 0.1953197568655014, -0.09899382293224335, 0.10572824627161026, -0.1837187260389328, 0.35323506593704224, -0.2563183009624481, -0.02770724520087242, 0.07857342064380646, -0.14560987055301666, -0.18133775889873505, 0.1310521513223648, 0.2421562671661377, -0.30316686630249023, 0.17196567356586456, 0.30624696612358093, -0.12857331335544586, 0.29094868898391724, -0.11041536927223206, -0.007816469296813011, -0.3599914312362671, -0.024972042068839073, 0.19621115922927856, -0.04249831289052963, -0.25123700499534607, 0.19793696701526642, 0.04499378055334091, -0.20077285170555115, -0.12645168602466583, -0.0015831630444154143, -0.15335562825202942, 0.13453710079193115, 0.10407011210918427, -0.15314476191997528, -0.16975606977939606, 0.09340617060661316, -0.10523194074630737, -0.01564490795135498, 0.01378401555120945, -0.25527119636535645, 0.08416634798049927, -0.31815242767333984, -0.12788036465644836, 0.26975131034851074, 0.1576414555311203, 0.2180590033531189, 0.2680598795413971, -0.21729789674282074, 0.002177442656829953, -0.028717877343297005, 0.10236562788486481, 0.1383325457572937, -0.06608729064464569, 0.225991353392601, 0.18942412734031677, 0.01125024352222681, 0.07788623124361038, -0.2931738793849945, 0.06992477923631668, -0.14329715073108673, -0.1920953243970871, -0.040513694286346436, 0.13640160858631134, -0.20036275684833527, 0.19982022047042847, -0.25545915961265564, -0.2486615926027298, 0.10826250910758972, -0.3966018557548523, -0.07611456513404846, -0.13070298731327057, 0.2669112980365753, -0.11542387306690216, -0.20401521027088165, -0.055255450308322906, -0.03850102052092552, -0.12482564896345139, -0.3188930153846741, -0.15241625905036926, -0.03642357140779495, 0.11409767717123032, 0.16481785476207733, -0.11432181298732758, 0.2288437783718109, -0.18623584508895874, 0.05774078890681267, -0.1774054765701294, -0.06896256655454636, 0.19253090023994446, 0.2311469465494156, 0.0488784983754158, -0.07447423040866852, -0.15382303297519684, 0.03767389804124832, 0.1838672161102295, -0.19244129955768585, 0.2690942585468292, -0.12045805901288986, 0.22431255877017975, 0.4040755331516266, -0.022384587675333023, 0.042551808059215546, -0.2099888026714325, 0.2369232177734375, 0.004347189329564571, 0.14139708876609802, -0.30284425616264343, -0.2467709332704544, -0.17036572098731995, -0.10720318555831909, 0.1942855417728424, 0.06566300243139267, -0.1908596307039261, 0.144266739487648, 0.24622796475887299, -0.16334277391433716, -0.10939349234104156, 0.26012367010116577, -0.16824884712696075, -0.17707465589046478, 0.07293036580085754], [1.852577567100525, 0.3565288782119751, 1.0295524597167969, -0.9605755805969238, -0.8607620000839233, 0.11593595892190933, -0.00896327756345272, -1.1424659490585327, 1.0164376497268677, 1.7013736963272095, -1.8745062351226807, -1.2998026609420776, 0.7112603187561035, 0.05284580960869789, 1.2328325510025024, -0.08780281245708466, 0.9548189043998718, 1.6939728260040283, -0.3279866874217987, -0.0016976871993392706, -0.2917863428592682, -0.8136199116706848, 1.1662722826004028, -1.8658097982406616, -2.1214609146118164, 1.770552635192871, -0.22787387669086456, 1.324083685874939, 1.1616854667663574, 1.0666836500167847, 0.9623581767082214, -0.5032776594161987, -0.1413397192955017, 1.2527568340301514, -0.6606599688529968, 0.9202086329460144, 1.5116057395935059, -1.8842260837554932, 1.377920389175415, -1.3648563623428345, -0.21187859773635864, -0.7694964408874512, -0.4352166950702667, -1.5213019847869873, -1.5607868432998657, 0.6834813356399536, -0.03867713734507561, -0.9081352949142456, -1.0704641342163086, -0.018118053674697876, -1.5238306522369385, -2.157012701034546, 0.5805552005767822, -0.8717146515846252, 0.8659101128578186, -1.4175673723220825, -0.46955621242523193, -0.8893922567367554, -1.6298574209213257, -0.5574669241905212, -0.18088069558143616, -0.031595196574926376, -0.19735662639141083, 0.7814937829971313, 0.6014612317085266, 0.8672338724136353, 1.3568527698516846, 0.32200804352760315, -0.9246594309806824, -0.5520588755607605, -0.24274221062660217, 0.9203535318374634, -0.895189642906189, -0.8504347205162048, 0.22181689739227295, 0.9343394041061401, -1.3770051002502441, -0.9876255393028259, -1.1698352098464966, 1.352051019668579, -0.7142531871795654, -0.8313789963722229, 2.144099235534668, -0.11326102912425995, -1.2916897535324097, -1.1700785160064697, -1.3194690942764282, -0.8577960133552551, 1.6671147346496582, 0.7141774892807007, 0.3925010859966278, -1.4276992082595825, -1.579964280128479, -1.8019540309906006, -1.9820775985717773, 0.7612855434417725, -0.712309718132019, -1.389974594116211, 1.7751296758651733, -1.8105825185775757, 0.9526004195213318, -1.27334725856781, 1.3441400527954102, 1.6520805358886719, 0.17695502936840057, -2.0684585571289062, -0.6088553071022034, 1.276717185974121, -0.35449478030204773, -0.6522274613380432, 0.6917387247085571, -1.3382736444473267, 1.5961195230484009, -3.135683059692383, -1.564184546470642, -1.4001208543777466, -0.12066227942705154, -0.34998297691345215, 1.0064935684204102, 0.47976604104042053, 0.4171142876148224, 1.0364933013916016, -1.9046128988265991, -0.42535775899887085, 0.2981725037097931, -0.7781885266304016, 1.0423542261123657, -0.27112939953804016], [-0.4556925296783447, -0.4733812212944031, -1.3862335681915283, -0.3110477030277252, -1.5137125253677368, 1.3884392976760864, -0.4702599346637726, -0.7501622438430786, -0.06330861896276474, -0.3696962594985962, 1.1645373106002808, -1.5718916654586792, 2.0849363803863525, -1.066376805305481, -0.842481255531311, 0.39522120356559753, 0.8146784901618958, 1.971570372581482, -0.28708744049072266, 0.9492269158363342, -1.3075553178787231, -0.18729858100414276, 1.9503315687179565, -1.3533951044082642, -1.2128041982650757, -0.8108614087104797, -0.06308256834745407, 1.2954237461090088, -2.0369091033935547, 0.5508075952529907, 0.04621105268597603, 0.571061909198761, -1.4826728105545044, -1.4736437797546387, 1.1140546798706055, -1.2611310482025146, 1.3300330638885498, -1.5292588472366333, -0.7109969258308411, 1.2991341352462769, -0.36271780729293823, -0.18600033223628998, 1.1635477542877197, 1.6166985034942627, -2.5239503383636475, 0.26750293374061584, 1.2871044874191284, -0.8750484585762024, -0.097172312438488, 0.027940936386585236, -1.3362066745758057, 1.2735331058502197, 0.5399090647697449, -0.7655971646308899, -0.19867950677871704, 0.8843551874160767, -1.3158475160598755, 1.6944596767425537, 1.5139484405517578, -0.7228457927703857, 0.029076749458909035, -0.02442813664674759, 0.8057048916816711, -2.0289227962493896, 0.25487151741981506, -1.4431525468826294, 0.859619677066803, 1.2842578887939453, -0.8964669108390808, -0.871517539024353, 0.0853954404592514, -0.8647515773773193, -0.06550612300634384, -1.1692672967910767, 2.053007125854492, -1.6081666946411133, 0.005461829248815775, -0.9233271479606628, 0.40884339809417725, -1.5711530447006226, 1.9197032451629639, 1.4625177383422852, 1.8755555152893066, 1.6512788534164429, 1.5821325778961182, 1.823431372642517, -1.785601258277893, -1.2047593593597412, -1.3864741325378418, 0.2535625100135803, -0.428158700466156, 0.01708027347922325, 2.238455295562744, 0.8739322423934937, -0.8344240188598633, -0.6336683034896851, 1.9585235118865967, 1.4765956401824951, -0.6194972991943359, 1.3089969158172607, 0.8373576998710632, 1.4105446338653564, -0.10529553145170212, -1.8521788120269775, -0.1794731467962265, 0.6673237085342407, -0.9639642238616943, 0.8544214963912964, 0.13606230914592743, -0.5234483480453491, 0.37740156054496765, -0.3397480249404907, -1.936034917831421, -1.03187894821167, 0.3349199593067169, 0.7074427604675293, 1.4392415285110474, -0.6368537545204163, -0.27416884899139404, -0.4139540195465088, -0.7732709050178528, 0.44090449810028076, -2.116102457046509, 0.3869256377220154, 0.9154512286186218, 2.0821878910064697, -1.330126404762268, 2.2375845909118652], [-2.4252853393554688, 5.000959873199463, 2.978895425796509, -0.3052631914615631, 6.5409932136535645, -2.417100191116333, 5.2793779373168945, 4.364725589752197, -1.5365861654281616, -3.928582191467285, 2.8243494033813477, -0.5346153974533081, -4.848342418670654, 4.144318103790283, -1.0633783340454102, 10.95179557800293, 10.848504066467285, -0.7923358082771301, 15.277111053466797, -7.951557636260986, 1.4890670776367188, 4.993897438049316, -2.9372243881225586, 7.859816551208496, 8.40036392211914, -2.875869035720825, -3.200103998184204, -6.219132423400879, 2.8952574729919434, -7.234638214111328, -2.8915350437164307, -0.5112218856811523, -2.846100091934204, 4.139991760253906, -1.8344810009002686, -6.429431438446045, -4.280105113983154, -1.3059951066970825, 8.114766120910645, -2.5568175315856934, 13.033684730529785, -8.190667152404785, -7.7426323890686035, 14.265780448913574, 8.09439468383789, 6.91423225402832, -4.494360446929932, 11.899008750915527, 3.0981616973876953, -10.560567855834961, -1.3189345598220825, -3.522265672683716, -13.069721221923828, -4.5466179847717285, 7.1679911613464355, -2.255899429321289, -5.627943992614746, 10.299278259277344, 8.8517484664917, 13.99887752532959, 9.685758590698242, -1.8161561489105225, -14.42751693725586, -9.886299133300781, -3.6538870334625244, 7.094842910766602, -6.29764461517334, -8.54438304901123, -7.876180648803711, -7.146482944488525, -9.27234172821045, 3.61357045173645, 5.612172603607178, -7.181818008422852, -12.300836563110352, 10.0365571975708, -7.8815813064575195, -0.8364212512969971, 6.405179023742676, 11.530906677246094, -5.236695766448975, 14.946045875549316, 3.146059036254883, -6.503103733062744, -13.085090637207031, 3.837667942047119, 7.337014198303223, -8.9910306930542, -1.036126732826233, 11.03664493560791, -2.8474843502044678, 2.7810091972351074, 2.6624088287353516, -4.816168308258057, -10.006951332092285, -4.222582817077637, 7.881011962890625, 5.3671555519104, 0.7357816100120544, 6.919283866882324, -2.165065050125122, -16.635984420776367, -0.08250291645526886, -7.749021530151367, 10.217168807983398, 0.024009373039007187, 2.4975059032440186, -8.344679832458496, 11.958380699157715, -1.1056442260742188, 4.91276741027832, 3.251282215118408, -10.844539642333984, -14.806846618652344, 3.4683644771575928, 10.592902183532715, 4.15946102142334, -0.3181478679180145, -1.6861876249313354, 4.315457820892334, 3.157593011856079, 2.9299163818359375, -13.184408187866211, 11.29123306274414, 3.8020505905151367, 7.264019012451172, 9.104440689086914, -1.397489070892334], [-0.11116480827331543, 0.5715441703796387, 0.031628817319869995, -0.25092288851737976, -0.03720143064856529, 0.5455549955368042, 0.30912545323371887, 0.41951867938041687, 0.4226481020450592, 0.36227211356163025, -0.31773582100868225, 0.08709639310836792, 0.08668703585863113, 0.19715017080307007, -0.30483028292655945, 0.36491847038269043, -0.13403701782226562, 0.3926450312137604, -0.36187002062797546, -0.5272866487503052, -0.25478413701057434, -0.5252939462661743, -0.1734205037355423, 0.08564258366823196, 0.2093169093132019, 0.31175389885902405, 0.3926195502281189, -0.37006428837776184, 0.14636971056461334, -0.23170307278633118, 0.17513416707515717, -0.5755387544631958, 0.5138605237007141, -0.5045982003211975, 0.270596981048584, -0.4375397861003876, -0.2938729226589203, 0.22559252381324768, -0.1223667785525322, 0.2815036475658417, -0.7896615862846375, 0.12499985843896866, -0.27060943841934204, 0.2922678291797638, -0.45789074897766113, -0.14822661876678467, -0.7630652785301208, 0.5950530171394348, -0.1534225046634674, 0.13138605654239655, -0.2127964198589325, 0.6205620765686035, 0.10974501818418503, -0.2718328535556793, 0.2822377383708954, -0.43552860617637634, 0.24140001833438873, 0.595170259475708, -0.25554201006889343, -0.2576834559440613, -0.31519174575805664, -0.1671910583972931, 0.04191189259290695, -0.14172354340553284, 0.3641248941421509, 0.09688761085271835, 0.2202686369419098, -0.009387570433318615, 0.28002941608428955, -0.5452231168746948, 0.22123007476329803, -0.041186485439538956, 0.47964462637901306, 0.5348284244537354, 0.1290673315525055, 0.20124126970767975, -0.5265783667564392, 0.3304325342178345, 0.48244157433509827, -0.1756104826927185, -0.48288044333457947, 0.14472278952598572, -0.2829805910587311, -0.07583564519882202, -0.5191807746887207, 0.4281698763370514, -0.5137227773666382, -0.6192088723182678, -0.3690185248851776, -0.31314343214035034, -0.32565903663635254, 0.37509873509407043, -0.39079397916793823, 0.1388789713382721, 0.2906566560268402, 0.3525013327598572, -0.0166607815772295, 0.19620616734027863, -0.09452565759420395, -0.3882199823856354, -0.3394847810268402, -0.11538225412368774, 0.007381997536867857, 0.4068211317062378, 0.2744837999343872, -0.7557631134986877, 0.025658534839749336, 0.030731771141290665, 0.05036114901304245, 0.2716667950153351, 0.0960603728890419, -0.02649213932454586, 0.17510366439819336, -0.038360971957445145, -0.4574419856071472, 0.06685125082731247, 0.27191781997680664, 0.07538452744483948, 0.11336138844490051, -0.20024897158145905, 0.6363145112991333, -0.10554919391870499, 0.0599026158452034, 0.16147823631763458, 0.22935758531093597, 0.2600941061973572, 0.5000804662704468, -0.3873823583126068], [0.30171698331832886, 0.39688247442245483, -0.5945946574211121, -0.8375803828239441, 1.2181711196899414, 1.0567978620529175, -0.11154679208993912, -0.6625195741653442, 0.4107302129268646, 0.64990234375, 0.3914125859737396, -0.03729647025465965, -0.26799455285072327, 0.17819629609584808, 0.2110106348991394, -0.19327296316623688, 0.20474709570407867, -0.26930609345436096, 0.43158867955207825, 0.4779002070426941, -0.1579452008008957, -0.06303992122411728, 0.4072763919830322, 0.3029516041278839, 0.06316756457090378, 0.7867127060890198, -0.5170576572418213, 0.43100398778915405, 0.03863929584622383, 0.11659742891788483, 0.1376536339521408, -0.9282488822937012, -0.2639191150665283, 0.4351034462451935, 0.43058809638023376, 0.2920103073120117, -0.08547155559062958, -0.8637145757675171, 0.643216609954834, -0.4402817487716675, -0.35543525218963623, 0.11628985404968262, 0.4237040877342224, -0.3069241940975189, -1.1974332332611084, 0.33824411034584045, -0.22407229244709015, -0.22690320014953613, 0.4444459080696106, -0.04091844707727432, -0.436231791973114, -0.4632205367088318, 0.13804884254932404, 0.5727877616882324, -0.6578205823898315, 0.017242304980754852, -0.04887954145669937, 0.5406626462936401, -0.7749453186988831, 0.6701788306236267, 0.5834274888038635, 0.5522044897079468, 0.6790014505386353, 0.9348488450050354, 0.4376159906387329, -0.6123290061950684, -0.6489131450653076, 0.2422972321510315, 0.3279981315135956, 0.5300661325454712, -0.9690737128257751, -0.3250215947628021, 0.03687436878681183, -0.7841561436653137, -0.17640690505504608, 0.42345359921455383, -0.09753750264644623, 0.6671856641769409, 0.7119787931442261, 0.834773600101471, 0.06017540395259857, -0.7416491508483887, 0.5889574885368347, -0.38067787885665894, -0.41067907214164734, -0.16246217489242554, 0.19863049685955048, -0.48925668001174927, 0.021484771743416786, 0.03312886133790016, -0.9704576730728149, -0.8334172368049622, 0.5012733936309814, 0.6777142286300659, 0.4322706162929535, 0.12465673685073853, -0.6494660377502441, -0.2948905825614929, 0.5171764492988586, 0.19371113181114197, 0.1119568943977356, -0.4861777424812317, -0.7023655772209167, -0.19898313283920288, -0.28159603476524353, 0.5825848579406738, 0.07716217637062073, -0.9750186204910278, -0.6795773506164551, 0.5158471465110779, -0.6008245348930359, 0.365031361579895, 0.3046540915966034, 0.03527707979083061, -1.281299114227295, -0.31873005628585815, 0.30202651023864746, -0.4429355263710022, -0.36445724964141846, 0.05652273818850517, 0.6429300904273987, -0.7608495354652405, 0.7541650533676147, 1.1456665992736816, -0.0026949194725602865, 0.40023332834243774, 0.47139766812324524, -1.1437052488327026], [0.20475803315639496, 0.3804399073123932, -0.12291698902845383, -0.3450843393802643, -0.11715395748615265, 0.28713753819465637, 0.3283560872077942, -0.2820087671279907, 0.14599622786045074, 0.03061245009303093, 0.07104947417974472, -0.036340951919555664, -0.2821345925331116, 0.020990056917071342, 0.18741953372955322, 0.16075371205806732, -0.48355865478515625, 0.33768826723098755, -0.02933385595679283, 0.1063438281416893, -0.03615443781018257, -0.19461122155189514, 0.2653209865093231, -0.0053826286457479, 0.22713768482208252, 0.4608485996723175, 0.09282616525888443, -0.23144447803497314, 0.07732762396335602, -0.011291943490505219, -0.12122499197721481, -0.21233469247817993, -0.4221312701702118, -0.22108539938926697, -0.11418630927801132, 0.04908830672502518, 0.06807871162891388, 0.3669494688510895, -0.494468092918396, -0.22265487909317017, 0.25389590859413147, -0.18533293902873993, -0.2285224199295044, 0.10315686464309692, -0.03250604867935181, -0.1358034759759903, 0.4361776113510132, -0.29633235931396484, 0.5454638004302979, 0.2862899899482727, -0.16904759407043457, 0.29537495970726013, -0.27934104204177856, -0.308951735496521, -0.05697416886687279, -0.20537985861301422, 0.09249250590801239, -0.0807756632566452, 0.5633756518363953, -0.4482680559158325, -0.3687341809272766, -0.45151132345199585, 0.2157004326581955, -0.3978026807308197, -0.30433350801467896, -0.21888473629951477, 0.27106887102127075, 0.025235028937458992, -0.015028336085379124, -0.07874732464551926, 0.19108621776103973, 0.10218137502670288, 0.3114379644393921, -0.013111951760947704, 0.32450059056282043, 0.6229175925254822, -0.5302546620368958, 0.07012409716844559, -0.2662654221057892, 0.1680132895708084, 0.2575147747993469, 0.06050603836774826, 0.3544943928718567, 0.3143533170223236, 0.3588906228542328, 0.3999349772930145, 0.06346946209669113, 0.24816718697547913, 0.20964837074279785, -0.10192243754863739, 0.4030473530292511, 0.3861328065395355, -0.24180102348327637, 0.15177439153194427, 0.1736551821231842, -0.10344596207141876, -0.0982893854379654, -0.43389949202537537, -0.07007123529911041, 0.0867747887969017, 0.2740676701068878, 0.3266955018043518, 0.304077684879303, -0.08652260154485703, 0.17849577963352203, -0.06566011905670166, -0.5406022071838379, -0.16506324708461761, -0.31489336490631104, -0.19109395146369934, 0.15340685844421387, -0.027887262403964996, -0.17982365190982819, -0.20093664526939392, 0.11729050427675247, -0.12186719477176666, 0.0816412940621376, 0.23389963805675507, -0.06511764973402023, 0.1386861801147461, -0.31303516030311584, -0.3873937427997589, 0.22470623254776, 0.10710437595844269, 0.16719263792037964, 0.3181910216808319, 0.09049654006958008, -0.1383611410856247], [-0.2586142420768738, -0.8891831040382385, 1.1039046049118042, 0.9258861541748047, 1.0686371326446533, 0.6020381450653076, -0.5337177515029907, -0.2378690540790558, -0.5507992506027222, -0.1053093746304512, 0.10043744742870331, -0.8077991604804993, -0.21334317326545715, -0.11850845813751221, 0.3639504313468933, 0.8751639723777771, 0.13147270679473877, -0.08611895143985748, 0.618015706539154, 0.9383378028869629, -0.41663411259651184, -0.07365654408931732, -0.22802618145942688, 0.27802616357803345, 0.44153067469596863, -0.9838776588439941, -1.0605415105819702, -0.13249751925468445, -0.802065372467041, -0.9853338003158569, -0.659538745880127, -0.8811748623847961, 0.44833460450172424, 0.06516338884830475, -0.21743561327457428, -0.6253572702407837, 0.0028653184417635202, 0.14196883141994476, -0.3550266921520233, 0.5572748780250549, -0.212413027882576, 0.2053522765636444, 0.7797220349311829, -0.3681682348251343, 0.7607011198997498, -0.19634710252285004, 0.36587288975715637, 0.19111475348472595, -0.6997146010398865, 0.3667354881763458, 1.1365457773208618, -0.3307562470436096, -0.2910653352737427, 0.1764768809080124, -0.5071278214454651, 0.013195691630244255, -0.8377328515052795, 0.9225073456764221, 0.9648836255073547, 0.679397463798523, 0.8883227109909058, 0.2407691925764084, -0.3916027247905731, -0.8185407519340515, 0.532311737537384, 0.41923561692237854, -0.7697177529335022, -1.140138030052185, 0.0790909007191658, 1.2766162157058716, 0.2519780993461609, 1.2358934879302979, 0.7154309153556824, 0.43501168489456177, 0.7044594883918762, -0.2763241231441498, 0.26338696479797363, -0.6430560350418091, -0.03484585881233215, 0.22056767344474792, 0.015107096172869205, -0.3438510000705719, 0.7715380191802979, 0.3138312101364136, 0.018419019877910614, 0.6158231496810913, -0.05285356566309929, -0.8750770092010498, -0.1316560059785843, -0.4595755636692047, 0.8772011399269104, -0.7324024438858032, -0.45750364661216736, 0.236390620470047, -0.29414233565330505, -0.28033018112182617, -0.1884082555770874, -0.5426235795021057, -0.9114224910736084, -0.6219466328620911, 0.13648240268230438, -0.5666982531547546, -0.08022087067365646, 0.6112341284751892, 0.5236288905143738, 1.1063573360443115, 0.7696504592895508, 0.03240780904889107, 0.8746569752693176, -0.6708323955535889, 0.7660232186317444, -0.08854199200868607, -0.45623713731765747, 0.31310150027275085, -0.042045384645462036, -0.3016680181026459, 0.40089091658592224, -0.7004433274269104, 0.7348088622093201, 0.6697279214859009, 0.8091886043548584, 0.8102085590362549, 0.6407270431518555, -0.4914039671421051, -0.1328054815530777, -0.5355527997016907, 0.24245376884937286, -0.28874146938323975], [-0.26009541749954224, -0.4136084020137787, -1.0647927522659302, 1.1207221746444702, -0.5035176277160645, -0.5172414183616638, -0.6212766170501709, -0.029184961691498756, -0.9732382297515869, -0.38823506236076355, -0.10350412875413895, 0.730955958366394, -0.13847112655639648, -0.40218526124954224, 1.3708832263946533, -0.21092656254768372, -1.2417088747024536, 1.3671876192092896, -1.3493926525115967, -0.7677934169769287, -0.8283358216285706, 1.6790388822555542, 1.3821995258331299, 1.3169515132904053, -1.6917284727096558, -2.169137716293335, 0.6774339079856873, 0.48548296093940735, -0.4452536106109619, 0.3175411820411682, -0.44295594096183777, -0.5987386703491211, 0.8932468891143799, 0.26144930720329285, 0.7783887982368469, 1.2805542945861816, 0.3401907980442047, -0.9917664527893066, -1.0776787996292114, -0.4387502372264862, 0.3512071967124939, -0.6110467910766602, -0.2317802757024765, 1.5737239122390747, -0.9663110971450806, 0.2156510055065155, 0.6264864802360535, 1.823936939239502, -0.5471201539039612, 0.17026877403259277, -1.1261287927627563, 1.1242116689682007, 1.3347877264022827, 0.19028082489967346, 0.8764312863349915, -1.3733233213424683, -1.815260410308838, 0.04256295785307884, 0.5923901796340942, 0.2756117284297943, 1.509592056274414, 0.2249918282032013, 0.3848499059677124, 1.1315975189208984, 0.3532203137874603, 0.19053786993026733, 1.1672873497009277, 0.4605131447315216, 1.0550917387008667, -1.9894839525222778, -1.9862557649612427, 0.6147282123565674, 0.8167303204536438, 1.502354383468628, -0.7828546762466431, 0.03228581324219704, -0.7752460837364197, 0.7181211709976196, 1.185101866722107, -1.9535211324691772, 0.6093259453773499, -0.39160317182540894, -0.2666500210762024, -0.04996455833315849, 2.252439260482788, 1.136965274810791, 1.2665144205093384, 0.12392625212669373, -0.12712375819683075, 0.16706781089305878, 1.455021858215332, 0.4269801080226898, 1.107967734336853, 0.5730732679367065, 1.785118579864502, 0.1873425990343094, -1.6538422107696533, -1.9324922561645508, 0.28257739543914795, 0.6657223701477051, -1.3193018436431885, -0.17689970135688782, -0.040381040424108505, -0.6031733155250549, 0.10141949355602264, -0.6646746397018433, 0.3039633631706238, 1.5048761367797852, -0.5917804837226868, 1.1618953943252563, -0.4734126925468445, 0.49549400806427, -1.187599539756775, 0.939839243888855, -1.2518261671066284, 0.8217585682868958, 1.1413187980651855, 0.5827893018722534, 1.233507513999939, 0.11662725359201431, -1.3823436498641968, -0.9634212851524353, -1.1355774402618408, -0.6269914507865906, 1.379711627960205, 1.473691463470459, -0.3385378122329712, 0.9721592664718628], [0.13943728804588318, -0.6479164958000183, 0.2744373679161072, 0.5371925830841064, 0.843100368976593, -0.7766826748847961, -1.488006353378296, -1.0059289932250977, -0.9507879018783569, -0.04842175915837288, 1.3454927206039429, 0.06367092579603195, 0.571439802646637, 0.9389008283615112, -0.45296549797058105, -0.43823832273483276, 1.2119301557540894, 1.7802839279174805, 0.9228659272193909, -0.4106689393520355, 0.9291239976882935, -0.8865973353385925, 0.8358880281448364, 1.4143496751785278, 0.5131651759147644, -1.3361905813217163, -1.3562415838241577, 0.6277260184288025, -0.8528768420219421, -0.840357780456543, -1.1789934635162354, 0.2791748642921448, 1.5906203985214233, 0.7296755313873291, 0.16970515251159668, -0.691312313079834, 0.38429173827171326, -0.6581375002861023, 0.040593892335891724, -0.8664634227752686, -1.3329672813415527, 0.7080503106117249, 0.17259451746940613, 0.44160759449005127, 0.47275203466415405, 0.3398066759109497, -0.33647722005844116, 0.15820589661598206, -0.6512736082077026, 0.8681474328041077, 1.0160657167434692, -0.3248629868030548, 0.6284278631210327, -1.6385774612426758, 1.3383233547210693, -1.0215681791305542, -0.5577626824378967, 1.4994196891784668, 0.2804825007915497, -1.079300880432129, -0.7189154624938965, 0.7911434173583984, -0.05929511412978172, 0.31792178750038147, 0.3928333818912506, -1.194847822189331, -0.8319406509399414, -0.697929859161377, 1.3790816068649292, -0.7569195032119751, 1.3552501201629639, 1.2484416961669922, -0.9960119128227234, -0.3711552321910858, 0.23774537444114685, 0.9508687257766724, -1.0898793935775757, 0.8380217552185059, 0.14180293679237366, -1.0126957893371582, 0.5491431355476379, -0.7350871562957764, 0.6802343130111694, 0.2146395891904831, -0.07603150606155396, 0.9989772439002991, 1.1208890676498413, -0.6625223755836487, -0.6520037055015564, -0.7086642384529114, 1.0932300090789795, -1.6211689710617065, -0.4770856499671936, 0.14274603128433228, 0.6584250330924988, 0.07334749400615692, 0.6416705846786499, -1.577573299407959, -0.9857901930809021, 0.8231526017189026, 1.2512776851654053, -0.989111065864563, 1.0716774463653564, 0.636738121509552, -0.16216108202934265, -0.36703041195869446, -0.14735490083694458, 1.196303367614746, -0.15946964919567108, -0.8933973908424377, -0.8282510042190552, -1.2139641046524048, 1.0774078369140625, 1.4114147424697876, -0.05671044811606407, -0.2794332802295685, -0.3674659729003906, 1.555505633354187, -0.32716643810272217, 0.7828326225280762, -0.12893226742744446, 1.679565668106079, -0.12618497014045715, -0.7265431880950928, 0.8030680418014526, 0.029234793037176132, 0.8318895101547241, 0.2582409083843231], [0.12796786427497864, -0.27538129687309265, -0.8594793081283569, 0.419815331697464, -0.8403176665306091, -0.43985748291015625, -0.5824639797210693, 0.916107177734375, -0.32031357288360596, -1.1362923383712769, -0.47614264488220215, -0.9233875274658203, 0.8983353972434998, -1.1215285062789917, 0.4171000123023987, -0.10501089692115784, -0.5497212409973145, 0.49768149852752686, 1.5220091342926025, -0.01607644371688366, -0.7744868993759155, 0.22686748206615448, -0.16678516566753387, 1.034243106842041, 0.05673467740416527, 0.0016576448688283563, -0.37265172600746155, 0.32517364621162415, 0.05252158269286156, 1.035203456878662, -0.3436337113380432, -0.05674559250473976, 1.2064887285232544, -0.5023983120918274, -0.5409276485443115, -0.7624220252037048, 0.6637872457504272, -0.7514644861221313, -0.14499405026435852, 0.49503904581069946, 0.5605147480964661, -0.2659609913825989, -0.09196072071790695, 0.2213495522737503, 0.9446629881858826, 1.3657053709030151, -0.016743578016757965, -0.6676719188690186, -1.505335807800293, 0.08656986802816391, 0.5901924967765808, -1.0842691659927368, 1.0690821409225464, 0.26393958926200867, -0.9119274020195007, -1.0255407094955444, -0.1984868347644806, 0.4004627466201782, -0.2826766073703766, -0.5190774202346802, -0.8957147002220154, 0.35293006896972656, -0.29474392533302307, 0.42830368876457214, 0.7809971570968628, 0.1665380895137787, -0.7688551545143127, -0.2619987428188324, -0.3459140956401825, 0.3821641206741333, -0.4713844060897827, 0.6796802878379822, 0.9395449757575989, -0.7072325348854065, 0.9523435831069946, -0.4677330255508423, -0.6477357745170593, -0.09554827958345413, -0.0691460445523262, -0.41996315121650696, -1.0829813480377197, -0.3585236966609955, -0.6828065514564514, -0.022784890606999397, -0.4491522014141083, -1.034855604171753, -0.43570172786712646, -1.7722091674804688, -0.19037789106369019, 0.14693805575370789, 0.2707231342792511, -0.6127446293830872, -0.01636189967393875, -1.0880744457244873, -0.7334712743759155, -0.7177067399024963, 0.6055346727371216, -0.891005277633667, 0.5463157892227173, -0.009204545989632607, 0.0025030947290360928, 0.9652625918388367, 0.29848361015319824, 0.8608795404434204, -0.9012253284454346, -0.4351925253868103, 0.9130333065986633, -1.2671147584915161, 0.700702965259552, -0.6692676544189453, -0.07684001326560974, 0.8595895767211914, 0.7856345772743225, -0.2845788598060608, -0.44162100553512573, 0.3104736804962158, 0.43652254343032837, 0.4839435815811157, 0.322398841381073, -0.9219604134559631, 0.27436280250549316, -0.5074349641799927, -0.46681275963783264, -1.0967944860458374, -0.47994038462638855, -0.9355542063713074, 0.11808061599731445, 0.29923155903816223], [1.3845868110656738, -1.4519333839416504, -1.2125493288040161, -0.5163509845733643, -0.11318504065275192, 2.150514841079712, -0.8075998425483704, -0.9502257108688354, 1.3711216449737549, -1.9245396852493286, -0.4770272672176361, 1.5846961736679077, 1.2301548719406128, 0.44393208622932434, -0.8918671011924744, 0.8473482728004456, -0.203582763671875, 1.8268558979034424, 0.15002000331878662, 0.1270466297864914, 0.2841450273990631, -0.4318992793560028, 0.2593555748462677, 1.6556847095489502, -1.3199360370635986, -0.5297603607177734, 0.7296786308288574, -0.7344474196434021, -0.32157739996910095, 0.18447092175483704, -0.7495664358139038, 0.29839596152305603, -1.113718032836914, 0.09345899522304535, 1.4420422315597534, -0.6947559714317322, -0.8974891304969788, 0.6623454689979553, 1.525949478149414, -0.5967033505439758, -0.06507869809865952, -0.040894050151109695, 0.9421942830085754, -1.2057465314865112, 0.5333232879638672, 0.4425053894519806, -0.7367098331451416, 1.042634129524231, 1.1699615716934204, -0.18320393562316895, -1.2026166915893555, 0.20781168341636658, -0.3612710237503052, -0.8174050450325012, 1.798662543296814, 1.2928156852722168, -0.418890118598938, 0.42120006680488586, 0.8061197996139526, -0.2231518030166626, 0.443078875541687, -0.9953985810279846, -0.02188812755048275, 0.4189693331718445, -1.2169708013534546, -1.8950437307357788, -0.18842549622058868, 1.778306245803833, -0.9937958121299744, -1.2666887044906616, 0.8373458385467529, -0.7962669730186462, 1.405446171760559, 0.27499231696128845, 0.5077582001686096, -1.6137908697128296, -1.6049997806549072, 0.6411027312278748, -1.0040231943130493, 1.7064449787139893, 0.5550980567932129, -0.989517867565155, 0.5368166565895081, -1.3454391956329346, 0.7639237642288208, 0.49250519275665283, 0.39309608936309814, -1.1284306049346924, 0.1948205828666687, 2.044773817062378, -0.4451124668121338, 0.9056885838508606, -1.5674666166305542, -0.4378270208835602, 1.6572028398513794, -0.4799216091632843, 1.0068327188491821, 0.9758694767951965, 0.07786957174539566, -0.2635456621646881, 0.9205426573753357, 0.27124372124671936, -1.0366138219833374, -0.6394031047821045, -1.5064748525619507, 0.8412845730781555, 0.08554738014936447, -0.6812232136726379, 0.3537084758281708, 0.33311283588409424, 0.4226258397102356, -1.130050539970398, -1.3781176805496216, -0.30576854944229126, 0.2651174068450928, -0.24006322026252747, -0.815671980381012, -0.33266013860702515, 1.335063099861145, -0.23561176657676697, -0.7518836855888367, -0.3759949803352356, 1.0273839235305786, 1.1577389240264893, 0.562427282333374, 2.231048107147217, -0.7846856117248535, 0.4821644127368927], [0.6530942320823669, -0.48036617040634155, -1.689525842666626, -0.8659065961837769, 0.9983575344085693, -1.2369141578674316, 0.701420783996582, -0.25451964139938354, 0.09890171140432358, -1.145804524421692, -0.03204343467950821, 0.4826807379722595, 1.0049536228179932, 0.03732164576649666, 0.8017857670783997, 0.08303017914295197, 0.4768344461917877, -0.5524082779884338, 0.7757130265235901, -0.9838952422142029, -0.8527877330780029, -1.758147120475769, 0.5370690226554871, 1.3407173156738281, -0.9775451421737671, -0.3742601275444031, 0.905502200126648, 1.2838993072509766, -0.44095173478126526, -0.46612468361854553, -0.03009706363081932, 0.02091972343623638, 0.3411526679992676, 0.29750046133995056, -0.9401696920394897, 0.39903315901756287, 0.3307459354400635, -0.6810010671615601, -0.9613099098205566, -1.3146134614944458, -0.4219023585319519, 0.5901035666465759, 0.8297383785247803, -0.44736209511756897, 0.44637975096702576, 1.8869352340698242, 0.8788829445838928, 0.2948623597621918, -0.32653358578681946, 0.03673355653882027, 0.33094924688339233, -1.1692811250686646, 1.6250649690628052, 0.5034545660018921, -0.3107284605503082, -0.35293465852737427, 0.263889342546463, -1.2675999402999878, 0.19102609157562256, 1.3697731494903564, 1.0622856616973877, -0.9672504663467407, -1.1565462350845337, -0.3425140976905823, -0.8194451928138733, 0.49466773867607117, -0.786279022693634, -0.13460953533649445, -1.1762233972549438, -0.608160138130188, -0.08445776253938675, 0.16068334877490997, 0.6149712204933167, -0.016964487731456757, -0.24902476370334625, -0.5708011388778687, 0.19616928696632385, 0.6454821825027466, 0.19327636063098907, 0.22668588161468506, -0.7298271059989929, -0.5253530144691467, -0.585873544216156, 0.688363254070282, -1.1060385704040527, 0.5230969786643982, -0.2846546769142151, 0.5377897620201111, 0.44774168729782104, 0.43986403942108154, -0.3216099739074707, -0.3179369866847992, 1.2415951490402222, 0.5707536935806274, -0.5109789371490479, 0.7464330792427063, -1.8103349208831787, -0.7940516471862793, -0.5897865295410156, 0.03540314733982086, -0.9639573693275452, 0.5401694774627686, 1.4001655578613281, 1.4201743602752686, -0.3183714747428894, -1.0166981220245361, 0.5824437737464905, -0.8863908648490906, -0.23122525215148926, -0.8053936958312988, 0.14942936599254608, 1.1641697883605957, -0.9537994265556335, -0.7665022015571594, -1.3126752376556396, -1.7189176082611084, 0.059985823929309845, 0.21561868488788605, 1.2510706186294556, 0.4671352207660675, 0.1434544026851654, 0.38336116075515747, 0.08520732074975967, 0.5942071080207825, -1.4054726362228394, 0.9630085825920105, 1.3386552333831787, 0.5247427225112915], [0.5713600516319275, 0.28693047165870667, -0.5405571460723877, 0.1559668779373169, 0.14442257583141327, -1.037731647491455, -0.3728463351726532, -0.0784689411520958, 1.4824153184890747, -0.0496603325009346, 1.3350772857666016, -1.0208587646484375, 0.12840725481510162, -0.14069125056266785, -0.5697561502456665, -0.2943406105041504, -0.3616216778755188, 0.2541292905807495, -0.501910924911499, 0.7215887308120728, -0.7160834074020386, -1.072813630104065, -0.37716805934906006, -0.5092269778251648, -0.008876942098140717, -0.807263195514679, -0.9536080360412598, -0.03359149396419525, -0.053256526589393616, 0.8885337710380554, -0.4517653286457062, 0.6805317401885986, -0.2123105376958847, 0.6146783828735352, 0.4373355805873871, -0.7562930583953857, -0.4064120650291443, -0.26940348744392395, -0.005011269822716713, 1.0040631294250488, -0.6080713272094727, -0.1350797563791275, -0.6673901677131653, 0.03367193043231964, 0.6946561932563782, 1.2974371910095215, -1.905463457107544, 0.6100706458091736, -0.819516122341156, -0.21547433733940125, 1.680637001991272, 1.568861961364746, 0.5780836939811707, 0.10937745869159698, -0.7025238275527954, -0.6964238286018372, -0.7088425159454346, 0.6151965260505676, -0.726611316204071, 0.5755842328071594, 0.0695120096206665, 0.7420895099639893, 0.01611313410103321, 0.10032131522893906, 0.3064793348312378, -0.6147263050079346, -0.44499337673187256, 0.6314900517463684, -0.2705360949039459, 0.8176364898681641, -1.002514123916626, 0.5897676944732666, -0.1215953603386879, 0.9370572566986084, -0.21034382283687592, -1.1608344316482544, 1.5113108158111572, -0.11373765766620636, 1.1320738792419434, 1.0362718105316162, -0.06789733469486237, 1.482454538345337, -0.23641905188560486, 0.20270822942256927, -0.9636673927307129, 0.5389626026153564, 1.3959189653396606, -0.021795034408569336, -0.37857702374458313, -0.9494374990463257, -0.49190258979797363, 0.6726012825965881, -0.3753938674926758, -0.8047255873680115, 0.03961307182908058, 1.162663221359253, 0.45111608505249023, -0.2927860617637634, -1.048509955406189, 0.2245202362537384, 0.021988147869706154, -0.09270916134119034, 0.6043134927749634, -0.0157339908182621, 0.7489379644393921, 0.7413935661315918, 1.2458782196044922, 0.9743176102638245, -0.06624095141887665, 0.31405678391456604, 0.6484394073486328, 0.10995502769947052, -0.2626914978027344, -0.3928608298301697, 0.11807143688201904, -0.7487375736236572, -1.0466630458831787, -0.7348781228065491, -0.037552349269390106, -0.955278217792511, -0.08010490983724594, 0.7691210508346558, 0.10194245725870132, -0.24433554708957672, -0.408156156539917, -0.005724678747355938, 0.842282772064209, 0.378370463848114], [-1.2652418613433838, -0.2511383891105652, -0.1321110725402832, 0.6409671902656555, 0.13634613156318665, 1.1440491676330566, -1.63523268699646, 1.274675726890564, -0.35858336091041565, -0.17357394099235535, 0.2888137698173523, -1.9077613353729248, -0.5647996664047241, 0.35915088653564453, -1.2061914205551147, -0.5739263892173767, 0.07006220519542694, 0.31398525834083557, 1.0941274166107178, 1.469585657119751, 0.4979122579097748, 1.4798972606658936, -0.6720711588859558, -1.235748529434204, -0.7775772213935852, -0.6185464262962341, -0.438525915145874, -1.4390511512756348, 0.5592307448387146, -0.2609645128250122, 0.27144360542297363, 0.2162337750196457, -0.08507394790649414, -0.6047580242156982, 0.09935207664966583, -1.066970944404602, 0.8426557779312134, -1.5406442880630493, 0.0893351286649704, 1.067708969116211, 0.2784823477268219, -1.0390187501907349, 0.2878333032131195, -1.590764045715332, -0.50003582239151, -1.3638379573822021, 0.5436303615570068, -0.3112798035144806, -2.079542875289917, -0.024998974055051804, 0.5747449398040771, -0.4574025273323059, 0.9483212232589722, -1.272686243057251, -0.05579088628292084, 0.4170572757720947, 0.6543701887130737, -0.17641155421733856, 1.3064229488372803, -1.0927866697311401, 1.0829180479049683, 0.06620951741933823, -0.9859675765037537, -0.23171724379062653, -1.839084506034851, -0.5109255313873291, -1.2855374813079834, -0.06748339533805847, 1.8326462507247925, -0.019181175157427788, -1.3067662715911865, -0.9901803135871887, -0.5778323411941528, -0.37689408659935, 2.1663289070129395, -1.2780475616455078, -0.16336959600448608, -1.2618094682693481, -0.6098611354827881, -0.25201964378356934, -0.019564030691981316, 1.048475980758667, -0.11138994991779327, -1.5546787977218628, -1.0936367511749268, -0.6560209393501282, -0.4591875970363617, -0.6867889165878296, 1.2894980907440186, 0.6017950177192688, 0.3344641923904419, -0.5489943623542786, 0.1836394965648651, 1.0976295471191406, -0.7049245834350586, -0.14851784706115723, 0.9578859806060791, -0.7957749962806702, 0.24271336197853088, -0.18817752599716187, -0.46786031126976013, 0.026700809597969055, -2.7313199043273926, -1.5266776084899902, -1.0595279932022095, -0.7698746919631958, 0.5679138898849487, -1.0262250900268555, 1.6330316066741943, -0.11120160669088364, -0.36063045263290405, -0.30884677171707153, -1.2517626285552979, -0.06534921377897263, -1.349567174911499, -0.06542852520942688, -0.536514163017273, 0.5177372097969055, 0.9635790586471558, 0.1602669656276703, -0.9449691772460938, 1.6926097869873047, 0.021646982058882713, 0.33088216185569763, 0.7789767980575562, -1.1010496616363525, 0.112545907497406, -0.988264799118042], [-0.28062453866004944, 0.664057731628418, 0.23933222889900208, -0.2983693480491638, -0.9661985039710999, 0.4005052149295807, -0.34538915753364563, -0.40006688237190247, 0.320303350687027, 0.32143571972846985, 0.20290672779083252, -0.5521482229232788, -0.07375052571296692, -0.18457551300525665, -1.1334656476974487, -0.3197031319141388, 0.6396563649177551, -0.5497730374336243, -0.8978703022003174, -0.3787836730480194, 0.23983468115329742, -1.0624639987945557, -0.48176097869873047, 0.6353931427001953, 0.3174634873867035, -0.7173817157745361, 0.25850576162338257, 0.000302453845506534, -0.9892098903656006, 0.7563742399215698, -0.14328627288341522, -0.07039139419794083, 0.16358135640621185, 0.19884197413921356, 0.43632158637046814, -0.9487525820732117, 0.7992308139801025, 0.240916445851326, -0.13083231449127197, -0.7227917909622192, 0.356136292219162, -0.395118772983551, 0.5323690176010132, -0.783009946346283, 0.3741855025291443, 0.7218717336654663, -0.820428192615509, -0.18956905603408813, -1.178085207939148, 0.3713529109954834, 0.6839545369148254, 0.17906074225902557, 0.7947081327438354, -0.3191618323326111, 0.28299960494041443, 0.4984906017780304, -0.7599520683288574, -0.32664188742637634, -0.8958015441894531, 0.7478529810905457, 0.37294498085975647, -0.32756197452545166, -0.3323141038417816, 0.7477440237998962, -0.006957865785807371, 0.23371155560016632, 0.04635880887508392, 0.02265627309679985, 0.0012413531076163054, 0.7113772034645081, -0.5290110111236572, -0.7575603127479553, 0.16760775446891785, -0.9235218167304993, 0.10152257978916168, -0.331579327583313, -0.20660218596458435, -0.24814416468143463, -0.2669776976108551, 0.10005192458629608, 0.13509300351142883, -0.3796522915363312, -0.01942197047173977, 0.10084845870733261, -0.6650298833847046, 0.44877246022224426, -0.03685025870800018, -0.03518782928586006, 0.14804966747760773, 0.35391393303871155, 0.9805238842964172, -0.1159229725599289, -0.7062526345252991, -0.09626904129981995, 0.7748042941093445, -0.36544525623321533, -0.1384049355983734, 0.24035093188285828, 0.5820145606994629, -0.3567584455013275, 1.4925510883331299, -0.8738501071929932, 0.20641332864761353, -0.20997384190559387, -0.22337107360363007, 0.08624178916215897, 0.017778988927602768, -0.495723158121109, 0.9907118082046509, 1.009980320930481, 0.6581199169158936, 0.0656132847070694, -0.0871434211730957, -1.0580155849456787, -0.4589347839355469, -0.3896910846233368, -0.5245052576065063, 0.6950119733810425, -0.4432072639465332, 0.6776295304298401, -0.274623304605484, 0.2614441215991974, 0.6099615693092346, 0.14138264954090118, -0.27893781661987305, 0.4813394248485565, -0.03399599716067314, -0.5812070369720459], [0.9962660670280457, -0.9655826687812805, -0.5621579885482788, 0.5430089235305786, -0.20974460244178772, 0.032003872096538544, 0.3111984431743622, 0.1629967838525772, 0.9291181564331055, -0.02301279827952385, -0.27765020728111267, -0.6810398697853088, -0.26617226004600525, -0.8311702013015747, 0.11752144247293472, -0.39398181438446045, -0.06977321952581406, 0.5824275612831116, -0.6523802280426025, -0.06293338537216187, -1.458085536956787, 0.573790431022644, 0.8627468347549438, 0.04375792667269707, -0.22630782425403595, 0.9363466501235962, -0.06244313344359398, 0.10706523060798645, -0.3357040286064148, -0.5137975811958313, 0.34150224924087524, -1.347322940826416, 0.1297568380832672, 0.025914007797837257, 0.6455605030059814, -0.20260010659694672, -0.3681972920894623, -0.07284138351678848, -0.09367531538009644, -0.49595028162002563, 1.286305546760559, 0.3064998388290405, 0.5734246969223022, -1.2522951364517212, 0.18749527633190155, -0.6785975098609924, 0.24215178191661835, 0.6449529528617859, -0.7907365560531616, -1.29805588722229, 0.9310958385467529, -0.9229833483695984, 0.3445464074611664, 0.5185254812240601, -0.4079395532608032, -0.9958154559135437, -0.956006646156311, -0.10251888632774353, 0.6460829973220825, 0.2169242948293686, -0.07070823013782501, 1.3285346031188965, 0.601073682308197, -0.4433438181877136, -1.3496530055999756, 1.1025584936141968, -1.1973423957824707, -0.20974646508693695, -0.38044473528862, 1.120917558670044, 0.5109339952468872, 0.47271236777305603, -1.1274703741073608, -0.7971678972244263, 0.6133313775062561, 0.3048240542411804, -0.04481801018118858, -0.49567678570747375, -1.0540144443511963, -0.5950737595558167, 0.010820109397172928, -0.2697104513645172, 0.029375791549682617, 0.005283745937049389, 0.613093376159668, -0.6914457678794861, 0.8417930006980896, -0.01659541390836239, 0.2302217036485672, -0.9121733903884888, -0.49681439995765686, 0.20016416907310486, 0.5767607092857361, -0.417659193277359, 0.08015003055334091, -0.15201199054718018, 0.8918596506118774, -0.3889310956001282, 0.3839259445667267, -1.0284593105316162, -0.9921284317970276, 0.9255838394165039, -0.8728664517402649, -0.14645260572433472, 0.2707749009132385, 0.1472410410642624, 0.11134921759366989, 0.30647170543670654, 0.5972930192947388, 0.03321852162480354, -0.6177140474319458, 0.4360311031341553, -0.8302499055862427, -0.025370856747031212, -1.3852839469909668, 0.24076279997825623, 0.6853365302085876, -0.3010496497154236, 1.0693347454071045, -0.03041367046535015, -0.4223212003707886, 1.458625316619873, -0.3742659389972687, -1.2821117639541626, 0.3764239251613617, -0.6918805837631226, 0.9701266288757324, 1.2575162649154663], [-0.8861654996871948, 0.43859216570854187, -0.05667455866932869, 0.9319952130317688, 0.1547323316335678, -0.7268363833427429, -0.9532067775726318, 0.6932297945022583, -0.5155968070030212, 0.8365766406059265, 0.584069013595581, -0.9939139485359192, 0.007586698513478041, -0.7989782094955444, -0.16079847514629364, 1.017313003540039, 2.106177806854248, -0.7600409388542175, -0.011027401313185692, 1.5968303680419922, -0.8051560521125793, -0.5629616975784302, 1.542515754699707, -0.6570135354995728, 0.2987597584724426, -1.004601240158081, -1.0275086164474487, -0.11646806448698044, 0.22821901738643646, -0.8403922319412231, 0.007197796367108822, 0.6171983480453491, -0.0597175769507885, 0.9146762490272522, -0.41389909386634827, 0.07624638080596924, 0.3007962107658386, -0.4044019281864166, -0.3623516261577606, 1.72251296043396, 0.15367574989795685, -0.4908304512500763, 1.3382465839385986, -1.5604811906814575, -1.2890664339065552, 0.2443532645702362, -0.1570458561182022, -0.17954322695732117, -0.8401237726211548, -1.133130431175232, 0.2593131363391876, -0.34918636083602905, 1.311924934387207, 0.18431182205677032, -1.3055351972579956, -0.8302677273750305, 0.11319931596517563, 0.031213948503136635, 1.0037699937820435, 0.7049157023429871, -0.4578254222869873, 0.5339016318321228, 0.9908231496810913, 1.0895622968673706, 1.7936351299285889, -0.3725131154060364, 1.144562840461731, 1.215511679649353, 1.1427825689315796, -0.7411192059516907, 0.28259843587875366, 0.3716855049133301, -0.4855399429798126, -0.5830973982810974, 0.5325145721435547, -1.4179133176803589, 0.008230887353420258, -0.38510197401046753, 0.47891169786453247, 0.3623579442501068, -1.6312761306762695, 0.34927088022232056, -0.35627955198287964, -0.6660264730453491, -0.5156508684158325, 0.0004419670149218291, 0.021552715450525284, 0.4472558796405792, -0.32549849152565, 0.7687280774116516, -0.8419215679168701, 0.7243020534515381, -0.6263335347175598, -1.287658452987671, -0.11896798759698868, -0.011749356985092163, 0.25490930676460266, -0.11693856120109558, -1.722121000289917, -0.3126724362373352, -1.1568574905395508, -1.104058027267456, 0.12758243083953857, 0.3938884139060974, -0.735346257686615, 0.6567321419715881, 1.1416804790496826, 0.5557730793952942, 0.45695197582244873, -0.051256343722343445, -1.0661026239395142, 1.0514307022094727, -0.6918566823005676, -0.13025619089603424, 0.22551561892032623, 0.09543942660093307, 1.5311410427093506, 0.7456560730934143, 0.5193144679069519, -0.14348505437374115, -0.13861072063446045, -0.017806271091103554, -0.771245539188385, 0.16565856337547302, 1.2483739852905273, 0.4257909059524536, -0.6036885380744934, 0.9979018568992615], [1.1454812288284302, -0.7841833233833313, -0.4998677968978882, 0.7690766453742981, 0.17286376655101776, 0.7467731237411499, -0.18943142890930176, 1.1199564933776855, 0.40067699551582336, 0.686738133430481, -0.8626118898391724, -0.4203363358974457, -1.303359031677246, -0.27829664945602417, -0.1657239943742752, -0.42023783922195435, -0.06195630505681038, -0.8436331748962402, 0.5303460955619812, -0.5040443539619446, 0.2059633731842041, 0.8674591183662415, 1.1107395887374878, 0.38813701272010803, 0.17728394269943237, -0.05321508273482323, 0.8069006204605103, 0.10908299684524536, -0.17153386771678925, -1.217469573020935, -0.6715906858444214, -0.030616555362939835, 0.44147416949272156, 0.7235535979270935, -0.4762082099914551, -0.4946340024471283, 0.6901702284812927, -0.007581964135169983, -0.43379807472229004, 0.28731679916381836, -0.6200054287910461, -0.3752475678920746, 0.4321758449077606, 0.3773013651371002, 0.4037078022956848, 0.8449798226356506, 0.2770729064941406, 0.1249818503856659, -0.5989172458648682, -0.8148914575576782, 0.5560913681983948, -0.8035638332366943, 0.08940073847770691, 1.13849675655365, 0.35006090998649597, 0.833605170249939, 0.721068263053894, -0.21975177526474, -0.7608118057250977, 0.6242141723632812, -0.7383168935775757, 0.17912954092025757, -0.12970179319381714, 0.7688745856285095, -0.305372416973114, -0.7010282278060913, 0.9041944742202759, 0.10401689261198044, -0.9271451830863953, -0.22505569458007812, 0.6854113340377808, 0.9398446679115295, -0.40906238555908203, 0.7116645574569702, -0.5996575355529785, -0.6000116467475891, 0.4018682837486267, -0.6025350689888, -1.1229759454727173, -0.5743869543075562, -0.21377335488796234, 0.9402757883071899, -0.6433015465736389, 0.8620638251304626, -0.11745743453502655, -0.8570934534072876, -0.8570922613143921, -0.11154749989509583, -0.3321671187877655, -0.48783615231513977, -0.2520199716091156, -0.4283447265625, 0.3414844274520874, -0.2612999677658081, 0.2432897388935089, -0.36528101563453674, 1.1656992435455322, 0.0415334478020668, 0.26432135701179504, -0.019346648827195168, 0.063222236931324, 0.2206301987171173, 0.43107667565345764, -0.5088841319084167, -0.2811785936355591, -0.7529226541519165, -0.039174191653728485, -0.6718503832817078, -0.21712811291217804, -0.23321636021137238, -0.8748749494552612, -0.2111240178346634, 0.6120042204856873, -0.534148633480072, 0.21049855649471283, 0.4171678125858307, 0.054213471710681915, 0.3217929005622864, 0.15407110750675201, 0.29592782258987427, 0.8925864100456238, 0.6975416541099548, -0.5186575651168823, 0.4008975923061371, -0.3464565873146057, 0.5683321952819824, -0.3667961061000824, -0.1294342428445816], [-0.3928803503513336, 0.09464078396558762, -0.12593409419059753, -0.36806216835975647, -0.17490345239639282, 0.08783375471830368, -0.37913671135902405, 0.032092321664094925, 0.05698128789663315, 0.2668481469154358, 0.1578851193189621, 0.333368718624115, 0.1758606880903244, 0.28973060846328735, -0.16521193087100983, -0.058236923068761826, 0.2434372901916504, 0.1819460541009903, -0.0036995443515479565, -0.17267528176307678, -0.07432273775339127, 0.3291027545928955, 0.09713764488697052, -0.3372791111469269, -0.30756378173828125, -0.1899309754371643, -0.18800118565559387, 0.3106542229652405, -0.0341358482837677, 0.34696272015571594, -0.14835482835769653, -0.2172207236289978, -0.01633189246058464, 0.4418882727622986, -0.28585606813430786, 0.05154845863580704, -0.18023216724395752, -0.0827367901802063, 0.29636725783348083, -0.257009893655777, -0.10182946175336838, -0.045307256281375885, 0.34681206941604614, 0.23748545348644257, 0.16420093178749084, -0.346451073884964, -0.2022082507610321, 0.43917474150657654, -0.2760167717933655, 0.27848538756370544, -0.032261136919260025, 0.10658290982246399, -0.1309136152267456, -0.08472929149866104, 0.18829840421676636, -0.09012878686189651, -0.1686299443244934, 0.12230238318443298, -0.45967888832092285, 0.11471977829933167, -0.30717262625694275, -0.25805118680000305, 0.2517297863960266, 0.1394086629152298, -0.2513769268989563, 0.2701687514781952, -0.283554345369339, -0.1448887586593628, 0.20786066353321075, -0.06512866914272308, -0.23402756452560425, 0.32150986790657043, 0.11412427574396133, -0.44499823451042175, -0.04344484955072403, 0.2636631429195404, -0.2820689380168915, -0.12130193412303925, 0.12108974903821945, -0.27370259165763855, -0.3606700003147125, 0.1519613116979599, -0.023537272587418556, -0.1424582153558731, 0.3503817319869995, 0.28008949756622314, 0.2231474369764328, -0.14074154198169708, -0.31534838676452637, 0.33065107464790344, 0.0705593004822731, 0.06714935600757599, -0.21711084246635437, 0.146565243601799, -0.25262361764907837, 0.2611199617385864, 0.3285745084285736, -0.18192358314990997, 0.2132684886455536, 0.31521308422088623, -0.2965250611305237, -0.5223209261894226, -0.24279430508613586, 0.43289709091186523, 0.1995914727449417, -0.19355423748493195, 0.13333790004253387, 0.0698615089058876, -0.19177795946598053, -0.22719989717006683, 0.12113935500383377, -0.19221866130828857, -0.14542917907238007, -0.3623685836791992, 0.35863783955574036, 0.012866797856986523, -0.46332457661628723, 0.18192020058631897, -0.05890481919050217, 0.38625091314315796, -0.4980051517486572, 0.31896352767944336, -0.28663626313209534, -0.06240496039390564, -0.2096371203660965, 0.16547347605228424, 0.10594911873340607, 0.0938863605260849], [-0.2927922308444977, -0.10376287251710892, -0.37135425209999084, -0.17943979799747467, -0.19155047833919525, -0.2704537808895111, -0.19308440387248993, -0.12574902176856995, -0.036655984818935394, 0.07590979337692261, 0.3321998715400696, -0.1635361611843109, 0.053663719445466995, 0.16225311160087585, -0.0324329175055027, 0.3673590123653412, -0.1198386624455452, -0.004747757222503424, 0.020272988826036453, -0.06779425591230392, -0.07543032616376877, 0.09812327474355698, 0.06608100235462189, 0.0639602318406105, 0.06528938561677933, -0.3686404526233673, -0.28673872351646423, -0.07271850854158401, -0.24582108855247498, 0.20192283391952515, 0.1420067697763443, -0.1086777076125145, -0.1616642028093338, -0.11934618651866913, -0.3539101481437683, -0.02719438448548317, -0.19086141884326935, 0.2975078225135803, -0.09641903638839722, 0.1193542405962944, -0.281144917011261, 0.28534090518951416, -0.25258806347846985, 0.06539332866668701, 0.053813617676496506, -0.1531793773174286, 0.005341567099094391, 0.045424867421388626, 0.23144273459911346, -0.23633742332458496, -0.1569869965314865, 0.27175572514533997, 0.3141349256038666, 0.2864909768104553, 0.06599151343107224, -0.03979448601603508, -0.21552246809005737, -0.24591703712940216, -0.09557138383388519, 0.2128029763698578, 0.2214389443397522, 0.04460570588707924, -0.3392605483531952, -0.1854628473520279, 0.08831961452960968, 0.41703924536705017, 0.26056361198425293, 0.11173176020383835, -0.5366422533988953, -0.20606231689453125, -0.1423567235469818, 0.09785410761833191, -0.23983466625213623, -0.18988963961601257, -0.06944700330495834, 0.2574533522129059, 0.052504394203424454, -0.07398592680692673, -0.03896035999059677, -0.476360946893692, 0.054588861763477325, -0.012998756021261215, -0.23069344460964203, -0.10864020884037018, -0.14654454588890076, 0.000436143483966589, 0.3326910734176636, -0.5518024563789368, 0.4929792881011963, -0.040885865688323975, -0.054176848381757736, -0.1763797253370285, 0.18078413605690002, 0.13318955898284912, 0.022225651890039444, -0.05579816550016403, 0.22609716653823853, -0.03223414719104767, 0.22906334698200226, -0.1925375610589981, 0.07737811654806137, -0.20705187320709229, 0.14295890927314758, -0.25965049862861633, 0.3110616207122803, -0.19217348098754883, -0.15162283182144165, -0.18407505750656128, 0.14323051273822784, -0.19320812821388245, -0.2819254994392395, -0.0043088896200060844, -0.021058380603790283, 0.24845744669437408, 0.09181440621614456, -0.2683454751968384, 0.17666670680046082, 0.19722938537597656, -0.10921693593263626, 0.20228900015354156, -0.12936259806156158, 0.346327543258667, -0.05966793745756149, -0.31623926758766174, 0.04289345070719719, 0.15243878960609436, 0.009886742569506168, 0.006717347539961338], [-0.4367937743663788, -0.4254968762397766, 0.35863375663757324, -0.21759569644927979, 0.1254323422908783, 0.1874849945306778, 0.10675902664661407, 0.13379669189453125, -0.09990788251161575, -0.05708879977464676, 0.02310842089354992, -0.2666137218475342, -0.29016274213790894, -0.28730639815330505, 0.45341265201568604, 0.08082491904497147, 0.16990973055362701, 0.009557901881635189, -0.20836141705513, -0.10718493163585663, 0.28858327865600586, 0.10855508595705032, 0.24245020747184753, 0.10532493144273758, -0.19229674339294434, 0.02576824463903904, 0.06956174969673157, 0.09849215298891068, 0.1102202758193016, 0.3111828565597534, 0.12999983131885529, 0.016432328149676323, -0.06375985592603683, 0.08125133067369461, 0.06213076785206795, -0.449689656496048, -0.34605249762535095, 0.19737522304058075, 0.16917964816093445, 0.07689029723405838, 0.013750001788139343, 0.11929479241371155, -0.4707528352737427, 0.34939074516296387, 0.11321470886468887, -0.020973706617951393, -0.20963433384895325, -0.09425605088472366, 0.23552443087100983, -0.19796974956989288, 0.15578295290470123, 0.11521246284246445, -0.39115843176841736, 0.26535332202911377, 0.06608942151069641, 0.05014839395880699, 0.08769974112510681, 0.214387446641922, 0.007110346108675003, -0.0917077362537384, -0.43213751912117004, 0.22755438089370728, -0.31273865699768066, -0.21812422573566437, -0.33534669876098633, 0.10193783044815063, -0.28568366169929504, -0.060188114643096924, -0.047436151653528214, -0.12901736795902252, -0.14918296039104462, -0.15094687044620514, -0.04168616980314255, -0.19819846749305725, 0.19771449267864227, -0.09875938296318054, -0.2211044430732727, -0.10066071152687073, -0.056779105216264725, -0.07439864426851273, -0.041678979992866516, -0.28528088331222534, -0.0998062938451767, 0.07591897249221802, 0.011831318959593773, -0.1205623522400856, -0.009989150799810886, -0.07567069679498672, -0.28342556953430176, 0.12513218820095062, -0.12498868256807327, 0.13356779515743256, -0.2165510505437851, -0.2243167608976364, -0.6356284022331238, -0.21470725536346436, -0.04087727516889572, -0.2155723124742508, -0.048209208995103836, -0.10316469520330429, 0.09048227965831757, 0.0422416627407074, 0.20505955815315247, -0.07213388383388519, 0.3083800971508026, -0.1361820250749588, -0.062263332307338715, -0.3526363670825958, -0.357769638299942, -0.08928579837083817, -0.1584179401397705, -0.07389956712722778, -0.12966683506965637, 0.16810008883476257, -0.1975807100534439, -0.2527881860733032, 0.39567506313323975, -0.004572449717670679, -0.3011581003665924, -0.26179641485214233, 0.11132407188415527, 0.227789506316185, -0.23661768436431885, -0.14315780997276306, 0.07022911310195923, -0.026397686451673508, -0.12678629159927368, 0.1962529718875885], [-0.010977703146636486, -0.1781008392572403, -0.23648475110530853, 0.048364702612161636, -0.2111458033323288, -0.4298562705516815, 0.26380711793899536, -0.06411273777484894, 0.25676703453063965, -0.06866498291492462, -0.23775751888751984, -0.08402061462402344, -0.13301733136177063, -0.29076263308525085, 0.5315045714378357, -0.07987893372774124, -0.37557631731033325, -0.1882619857788086, -0.24530000984668732, -0.17434290051460266, 0.11188483238220215, -0.3214266300201416, 0.3218444883823395, -0.07756248861551285, -0.045705508440732956, -0.4573656916618347, 0.24734999239444733, 0.3836345672607422, -0.3060055375099182, -0.2652674615383148, -0.3703996241092682, -0.06880832463502884, -0.36951330304145813, -0.18908639252185822, 0.07375909388065338, 0.354180246591568, 0.12222450971603394, -0.3515508472919464, 0.07470375299453735, 0.3525679111480713, 0.29566383361816406, -0.17163072526454926, -0.18185091018676758, 0.07186391949653625, 0.30769845843315125, -0.07758169621229172, 0.03794495388865471, 0.3640093505382538, 0.08870678395032883, 0.3211052119731903, -0.13673262298107147, -0.03995036333799362, 0.04995258152484894, -0.1711127609014511, -0.1106933057308197, -0.20067761838436127, 0.3132835328578949, -0.26793572306632996, -0.09758541733026505, -0.311796635389328, -0.38905900716781616, -0.39559486508369446, -0.30274221301078796, -0.23562604188919067, -0.01680755615234375, 0.12466985732316971, 0.036164816468954086, -0.0649416521191597, 0.03874266520142555, -0.39138492941856384, -0.04734852910041809, -0.047163721174001694, 0.393280029296875, 0.005121315363794565, -0.09083978831768036, 0.18448574841022491, 0.31725433468818665, -0.06260371953248978, -0.03642066568136215, 0.2024119794368744, 0.26125362515449524, 0.08125573396682739, -0.28162428736686707, 0.157339408993721, -0.4232836961746216, -0.2526610791683197, -0.16435933113098145, -0.622597336769104, 0.1941060721874237, 0.14522960782051086, 0.259988397359848, 0.2403135448694229, 0.2628568708896637, 0.09218788146972656, -0.1607012152671814, -0.3357125520706177, 0.20164045691490173, 0.1292356252670288, 0.3207506239414215, -0.1443488597869873, 0.006374610587954521, 0.141129732131958, 0.21520720422267914, 0.11016592383384705, 0.03373032063245773, -0.045150596648454666, 0.046440448611974716, 0.39883241057395935, -0.46884727478027344, 0.10156289488077164, 0.01828637346625328, 0.03964224457740784, -0.3646123707294464, 0.31625059247016907, 0.08188997954130173, -0.24408888816833496, 0.3400838077068329, -0.046723622828722, -0.2262544333934784, -0.019862139597535133, 0.1465652883052826, 0.2600124478340149, 0.4445488154888153, 0.136762335896492, 0.03444749861955643, 0.2520518898963928, -0.35011428594589233, -0.2557922601699829], [0.013536904938519001, -0.16035659611225128, 0.07241743057966232, 0.3696396052837372, -0.3809452950954437, 0.017002975568175316, 0.0210751723498106, 0.017089007422327995, -0.11082778871059418, 0.0007586147985421121, 0.4003971219062805, -0.07372361421585083, -0.4027642607688904, -0.5241812467575073, 0.105335533618927, -0.34931522607803345, 0.16845327615737915, -0.014747925102710724, 0.05361488088965416, 0.07693488895893097, -0.09020274877548218, 0.1800699383020401, 0.35023874044418335, -0.3152025640010834, -0.06171276047825813, 0.13386476039886475, -0.1643144190311432, 0.3137187659740448, -0.20205697417259216, -0.047599926590919495, -0.15388189256191254, 0.14650367200374603, 0.17664317786693573, -0.321941614151001, 0.2414712905883789, -0.1971263736486435, 0.004833576735109091, -0.08457843959331512, 0.21241402626037598, 0.20921441912651062, -0.11152369529008865, -0.4952563941478729, 0.01029414962977171, 0.17233669757843018, -0.0687316283583641, -0.23380129039287567, -0.23003296554088593, 0.022509964182972908, 0.22847886383533478, 0.29627588391304016, -0.2706362307071686, 0.10530909150838852, 0.07473830878734589, -0.35660216212272644, 0.08038648962974548, 0.3789205253124237, 0.2587447464466095, -0.15591992437839508, -0.033001843839883804, 0.03180219978094101, 0.14745882153511047, -0.06629650294780731, -0.3796848952770233, -0.29411473870277405, 0.09863322973251343, 0.07344641536474228, -0.2937133014202118, 0.1142612174153328, 0.09862636029720306, -0.300911009311676, -0.3759741485118866, 0.09347327798604965, 0.3770235776901245, -0.1503257006406784, -0.04556616023182869, -0.130401611328125, -0.3960346281528473, 0.34683164954185486, -0.20598028600215912, -0.32007861137390137, -0.45017457008361816, -0.1031644195318222, 0.2005520612001419, 0.029341474175453186, -0.33606982231140137, 0.07358775287866592, 0.3646906912326813, 0.3544151484966278, -0.40045785903930664, -0.11229967325925827, 0.20054300129413605, 0.372667521238327, -0.0826883316040039, -0.2169833779335022, -0.09827561676502228, 0.11542574316263199, 0.04819759726524353, -0.02460384927690029, 0.0498819537460804, -0.24976463615894318, 0.11192003637552261, 0.04373069480061531, -0.45522624254226685, 0.25782275199890137, 0.14982393383979797, 0.3465908467769623, 0.12385107576847076, -0.0967358872294426, 0.06811058521270752, 0.07283219695091248, -0.3528701066970825, -0.2955326437950134, -0.05917036905884743, -0.39570990204811096, 0.3675076961517334, -0.07312339544296265, -0.11709796637296677, -0.31723058223724365, 0.0033002968411892653, 0.14585913717746735, -0.2130819857120514, -0.0220252126455307, -0.35613781213760376, 0.3033846318721771, 0.3405733108520508, -0.01554124802350998, 0.12184750288724899, 0.1476118415594101], [0.43390530347824097, 0.12982715666294098, 0.28959619998931885, -0.09904705733060837, 0.09456652402877808, -0.011403219774365425, -0.33094480633735657, -0.20469865202903748, -0.07098212093114853, 0.146074116230011, -0.20523375272750854, 0.12696081399917603, 0.07053054124116898, 0.18043389916419983, 0.04431826248764992, 0.17821189761161804, -0.17136211693286896, -0.15131546556949615, 0.03246527910232544, 0.30300894379615784, -0.2568581700325012, -0.3760102093219757, 0.13902607560157776, 0.03945484384894371, -0.2296917885541916, -0.08789469301700592, -0.12911447882652283, 0.23151662945747375, 0.05790530890226364, 0.3066786825656891, -0.1827896386384964, 0.16330452263355255, -0.1071745753288269, 0.3097204267978668, -0.09054586291313171, -0.10867447406053543, 0.005507295951247215, -0.2535211741924286, -0.2178332656621933, 0.1455204039812088, -0.12703202664852142, -0.045774348080158234, 0.24712517857551575, -0.11416112631559372, 0.27915650606155396, -0.16836123168468475, -0.22789768874645233, 0.07968641072511673, 0.3808675706386566, 0.13338133692741394, 0.24110279977321625, 0.25266942381858826, 0.05112005025148392, -0.23187249898910522, -0.14643494784832, 0.47372063994407654, -0.26331639289855957, -0.17239807546138763, -0.09247522801160812, -0.09814843535423279, 0.09714668989181519, 0.4841441214084625, -0.11231278628110886, -0.49654191732406616, 0.177104651927948, -0.30491042137145996, -0.40198999643325806, -0.07042045891284943, 0.18534402549266815, -0.1378306746482849, 0.16768068075180054, -0.16490556299686432, 0.08335462212562561, -0.35467788577079773, -0.15834936499595642, -0.003209935035556555, -0.0975104570388794, -0.17775660753250122, -0.055714379996061325, 0.1859103888273239, 0.21440738439559937, -0.1562255173921585, 0.13056626915931702, 0.02940279431641102, 0.010016261599957943, -0.08330301195383072, -0.5637237429618835, -0.1617664247751236, -0.18494278192520142, -0.16249336302280426, -0.3335219919681549, 0.18025900423526764, 0.38477447628974915, -0.06370608508586884, -0.09025422483682632, 0.38173970580101013, -0.24858719110488892, 0.12140703201293945, 0.04373202472925186, -0.08081677556037903, 0.057443875819444656, 0.18504363298416138, 0.29968923330307007, 0.22126945853233337, -0.018385471776127815, 0.2016642838716507, -0.0634303092956543, 0.1890050172805786, -0.1173463761806488, -0.15252038836479187, -0.3524618446826935, -0.06360328197479248, -0.16791942715644836, -0.17862559854984283, 0.13500475883483887, 0.3043643832206726, 0.03184613212943077, -0.06402532756328583, 0.12484623491764069, -0.20437805354595184, 0.06858750432729721, -0.2084130197763443, 0.1861344873905182, 0.15023399889469147, -0.5515088438987732, -0.25070133805274963, 0.21725614368915558, -0.31440654397010803], [-0.3034881353378296, -0.04894719645380974, 0.062436554580926895, 0.04985547810792923, 0.02501058578491211, -0.35818904638290405, 0.1941557675600052, 0.0007379566668532789, -0.05722483620047569, -0.03268371522426605, 0.20718637108802795, 0.06606873869895935, 0.3066052198410034, -0.3795766234397888, 0.005020591430366039, -0.450959175825119, -0.38532504439353943, -0.050436004996299744, 0.13083355128765106, 0.255622535943985, 0.152139350771904, 0.030295152217149734, 0.2547050416469574, 0.39028987288475037, 0.042058464139699936, -0.2693655490875244, 0.3519483804702759, -0.08884481340646744, 0.2562040686607361, 0.04732073098421097, 0.14945906400680542, 0.16714994609355927, 0.1955171823501587, -0.09006934612989426, -0.08094403147697449, -0.041234761476516724, -0.063972108066082, 0.09224653244018555, -0.21271851658821106, 0.2626843750476837, 0.12446406483650208, -0.06778156012296677, -0.35095688700675964, -0.1861305683851242, 0.2120668739080429, 0.2542508840560913, -0.0187425147742033, -0.004540205467492342, 0.02963791973888874, 0.15574084222316742, 0.02485332079231739, -0.1315784752368927, -0.43680137395858765, -0.34487366676330566, 0.18935427069664001, -0.17666126787662506, -0.22729961574077606, -0.2872849106788635, -0.2879352569580078, 0.07624675333499908, -0.18665488064289093, -0.07635875046253204, 0.4321591854095459, 0.3384588062763214, -0.1300615519285202, -0.1964847892522812, 0.2598409652709961, -0.03742431476712227, -0.5014898777008057, 0.08975371718406677, -0.10609730333089828, -0.1893424093723297, -0.06763981282711029, 0.5110605955123901, 0.0339168980717659, 0.3206726908683777, 0.21866168081760406, 0.11751782894134521, 0.2802678942680359, 0.32967448234558105, -0.03339402377605438, 0.31726983189582825, 0.2169341892004013, -0.29554280638694763, 0.04460480064153671, -0.2157214730978012, -0.07511784881353378, -0.3418252468109131, -0.14374782145023346, 0.24183227121829987, -0.2619359493255615, -0.2139427214860916, 0.2921442985534668, 0.14062097668647766, 0.00220826780423522, -0.43565499782562256, -0.15547648072242737, -0.43472906947135925, 0.07445716857910156, -0.28592565655708313, -0.05691587179899216, 0.5138096809387207, 0.001891951309517026, -0.06892869621515274, 0.005770769901573658, -0.1624612808227539, -0.01215658150613308, 0.16943155229091644, 0.16970300674438477, -0.15069308876991272, 0.37158089876174927, -0.3306262791156769, -0.06755717843770981, -0.16990745067596436, 0.09208635985851288, -0.21615931391716003, 0.22624468803405762, -0.16106253862380981, -0.01360524445772171, 0.21128006279468536, -0.1295744627714157, 0.12278161197900772, -0.2979333996772766, 0.2772051990032196, -0.13293032348155975, 0.3077712059020996, 0.28227269649505615, -0.296830952167511], [0.3741813898086548, -0.2293694019317627, 0.290284126996994, -0.3300950229167938, -0.06318473070859909, -0.2042032778263092, 0.27252963185310364, -0.04467226564884186, 0.005208420567214489, 0.361056387424469, 0.26601386070251465, -0.28516024351119995, -0.015510683879256248, 0.16859053075313568, -0.3225005269050598, 0.1572297066450119, -0.22487491369247437, -0.43161606788635254, 0.3076876997947693, -0.027272913604974747, 0.09985709935426712, 0.1948624849319458, 0.057376306504011154, 0.18126939237117767, 0.04245765134692192, 0.28674766421318054, -0.13160373270511627, -0.0718521922826767, 0.38733744621276855, -0.3063998818397522, 0.04435579851269722, -0.28834593296051025, -0.14241361618041992, 0.0587441585958004, 0.25701749324798584, 0.3580440580844879, -0.05353739485144615, 0.3191319704055786, -0.17310066521167755, 0.332631379365921, 0.18393611907958984, -0.10501225292682648, -0.2832716703414917, 0.006892707664519548, -0.44801759719848633, -0.0028430153615772724, -0.17086701095104218, -0.0852249413728714, -0.27975308895111084, 0.1014413982629776, 0.20984826982021332, -0.12086976319551468, -0.017352253198623657, -0.34422391653060913, 0.056799083948135376, 0.2168271243572235, 0.10685093700885773, -0.1431579887866974, 0.012063765898346901, 0.2860468924045563, 0.23783649504184723, -0.18027108907699585, -0.33816656470298767, -0.035033099353313446, -0.10422758758068085, 0.36767449975013733, -0.2077483832836151, -0.05818099156022072, -0.014031040482223034, -0.3367806375026703, -0.014212454669177532, -0.4793682396411896, -0.06655271351337433, -0.30895015597343445, -0.01499122567474842, 0.07150181382894516, 0.24282169342041016, -0.3414056599140167, -0.08163527399301529, -0.31448793411254883, 0.14972282946109772, 0.11019991338253021, -0.3203965127468109, -0.04412923753261566, 0.10243462026119232, 0.3570297956466675, -0.021240273490548134, 0.21118338406085968, -0.4690096974372864, -0.47759613394737244, 0.029499568045139313, 0.16524159908294678, -0.04521564021706581, -0.1867089718580246, 0.37120288610458374, -0.06311804801225662, 0.07648192346096039, 0.22331252694129944, -0.004183875862509012, -0.2897646427154541, 0.4230479300022125, -0.0773048922419548, 0.33929112553596497, -0.07721471041440964, 0.3502165675163269, 0.46597832441329956, -0.24034593999385834, 0.3898667097091675, 0.3206029236316681, -0.034548867493867874, 0.014873111620545387, 0.13692888617515564, -0.5413051247596741, 0.39537447690963745, 0.08208325505256653, 0.22693952918052673, -0.29915913939476013, 0.07991465926170349, 0.18622778356075287, 0.3422005772590637, 0.4252234697341919, -0.13741712272167206, -0.027095643803477287, 0.06292033195495605, 0.23272322118282318, 0.37279728055000305, 0.049235839396715164, 0.3529738783836365], [-0.13492515683174133, 0.1400425285100937, 0.43523889780044556, 0.2696406841278076, 0.005063716322183609, 0.08850206434726715, -0.31914153695106506, 0.03677252307534218, -0.2530785799026489, -0.05539235472679138, -0.11493978649377823, -0.178266704082489, -0.037026528269052505, -0.015240481123328209, -0.2565551996231079, -0.2644927203655243, -0.179589182138443, -0.005242371931672096, 0.1010984256863594, 0.06500682979822159, -0.03528686985373497, -0.26346927881240845, -0.011654791422188282, -0.11656595021486282, -0.25400006771087646, -0.07261043787002563, -0.1616569310426712, -0.12254378944635391, -0.007005966268479824, 0.038769420236349106, 0.1884910613298416, 0.1452784240245819, 0.18487615883350372, -0.11231601238250732, 0.02361145243048668, 0.2530791163444519, 0.12129373848438263, -0.07712805271148682, -0.22308826446533203, -0.01307164877653122, -0.12241703271865845, -0.14933247864246368, -0.2115074247121811, -0.02866770699620247, -0.24320153892040253, 0.3112340569496155, 0.24185249209403992, -0.04243330657482147, -0.044394221156835556, 0.01578068546950817, -0.033020682632923126, -0.11593657732009888, 0.03405572474002838, -0.2189416140317917, 0.03481876850128174, -0.2885607182979584, 0.2256121039390564, -0.02988291159272194, 0.20876771211624146, 0.349170446395874, 0.10328613966703415, 0.08002451062202454, -0.06888748705387115, -0.23900283873081207, 0.015125956386327744, -0.1623189002275467, -0.11956577003002167, 0.16404390335083008, 0.2867140471935272, 0.5242486596107483, -0.1367146521806717, -0.11407778412103653, 0.0766410082578659, -0.2148977369070053, -0.20470386743545532, -0.3823181688785553, 0.08662865310907364, -0.262143611907959, 0.07594858109951019, -0.33333128690719604, -0.03810713812708855, -0.17165876924991608, 0.05731848627328873, 0.26513439416885376, 0.1599731147289276, -0.047598063945770264, -0.5469198226928711, -0.15208998322486877, -0.05204058066010475, 0.1371239423751831, -0.04391768202185631, 0.3286832273006439, -0.2527823746204376, -0.22804385423660278, 0.25471043586730957, -0.4120883345603943, 0.1866842806339264, 0.014795759692788124, 0.12009619176387787, 0.19465313851833344, 0.34825706481933594, -0.1611216962337494, 0.02611790969967842, -0.009301564656198025, 0.1675911843776703, 0.1271325945854187, -0.05898943915963173, -0.0496712327003479, -0.40177735686302185, -0.05526554211974144, 0.08993984013795853, 0.12463431060314178, -0.24235236644744873, 0.09372932463884354, -0.04778062552213669, 0.2880035936832428, 0.08453438431024551, 0.3596937358379364, -0.1577872335910797, 0.10434284806251526, -0.14802376925945282, 0.08028807491064072, 0.06165396794676781, 0.17439338564872742, -0.07039674371480942, 0.14963100850582123, 0.30330604314804077, -0.04876687750220299], [0.2672496438026428, -0.13473187386989594, -0.09761897474527359, -0.20876646041870117, 0.18990106880664825, -0.14419987797737122, -0.09807699918746948, 0.16686134040355682, 0.2511460781097412, -0.3319232761859894, -0.5375919342041016, 0.04826626554131508, 0.036683060228824615, 0.17971107363700867, 0.0949527695775032, 0.525046169757843, 0.07008924335241318, -0.16514888405799866, -0.10011602938175201, -0.1989165097475052, 0.12657217681407928, -0.11074846237897873, -0.006796717643737793, -0.18117880821228027, -0.2851283848285675, 0.16442497074604034, -0.27419811487197876, 0.0930115357041359, 0.16229531168937683, -0.18604709208011627, -0.2798804044723511, -0.06109846755862236, 0.26657378673553467, 0.33870095014572144, 0.5816792249679565, -0.2926143705844879, -0.30774813890457153, 0.20710186660289764, -0.4158305823802948, -0.36897119879722595, -0.27157700061798096, 0.23031559586524963, 0.23269422352313995, 0.11886768043041229, -0.07841964811086655, -0.3028598427772522, -0.10783460736274719, 0.20912908017635345, 0.07065654546022415, -0.12902837991714478, 0.13127818703651428, -0.011290374211966991, 0.2806948721408844, -0.08234041929244995, -0.20321020483970642, -0.009439513087272644, 0.1742323786020279, 0.1213650181889534, 0.22501234710216522, 0.015107722952961922, -0.42443567514419556, 0.248082235455513, -0.22514832019805908, 0.2905673384666443, -0.14388933777809143, -0.23506489396095276, -0.2482718676328659, 0.44106176495552063, 0.29738956689834595, 0.10299301147460938, 0.2688674032688141, -0.2491540014743805, 0.2518317699432373, 0.12494064122438431, 0.20288605988025665, -0.18664158880710602, 0.07877586036920547, 0.06310921907424927, -0.08951360732316971, -0.3889036774635315, -0.2063339650630951, 0.13566794991493225, 0.13249963521957397, -0.2895078659057617, 0.2707059979438782, -0.26915785670280457, -0.05871526896953583, -0.08608100563287735, 0.38177454471588135, 0.018575269728899002, -0.3304903507232666, -0.2131180763244629, -0.44202637672424316, 0.20055760443210602, -0.004237539134919643, -0.04575106501579285, 0.13275784254074097, 0.03131594508886337, -0.20050260424613953, -0.09630183130502701, -0.17052102088928223, -0.11197464913129807, 0.406311959028244, 0.21787482500076294, 0.31453737616539, 0.18664786219596863, 0.2841815948486328, 0.019306618720293045, -0.024374157190322876, 0.31054720282554626, 0.07145970314741135, -0.28089943528175354, 0.43726667761802673, -0.4833868443965912, -0.18959219753742218, -0.006020091474056244, -0.375485360622406, 0.20543545484542847, -0.029391691088676453, 0.2819659411907196, -0.3696298599243164, 0.02714150957763195, -0.5685272216796875, 0.16128452122211456, -0.19964727759361267, 0.1397133767604828, 0.2544885277748108, 0.3283991813659668], [-0.03566015884280205, 0.08464979380369186, 0.06806590408086777, -0.40962493419647217, 0.1564912497997284, -0.3831292688846588, 0.04450075700879097, -0.27499669790267944, -0.30002328753471375, -0.24361510574817657, 0.15280409157276154, -0.14624720811843872, -0.007256589829921722, -0.21810297667980194, 0.041349899023771286, -0.11678716540336609, 0.05550927668809891, -0.29777687788009644, -0.0727388933300972, -0.09184356033802032, 0.1367168426513672, 0.2811722457408905, 0.2585800886154175, -0.15263976156711578, 0.3065195679664612, 0.10394527018070221, -0.17537811398506165, 0.10608454048633575, 0.23824764788150787, 0.006708862259984016, 0.4451707601547241, -0.34545373916625977, 0.22229458391666412, -0.29838722944259644, -0.3179728388786316, -0.024050787091255188, 0.03360411524772644, 0.03608879819512367, -0.33495551347732544, -0.04577675834298134, -0.5849102735519409, 0.36894822120666504, -0.4607436954975128, 0.06900682300329208, -0.1517776995897293, -0.22546757757663727, 0.3652648627758026, -0.49464043974876404, 0.09577476978302002, 0.2808961868286133, 0.31404927372932434, 0.21741485595703125, -0.04794596508145332, 0.027815332636237144, -0.2231520116329193, -0.2495732605457306, -0.24739904701709747, 0.12358352541923523, 0.2349904328584671, -0.2148718684911728, -0.05553613603115082, -0.3712284564971924, 0.14350268244743347, -0.20356817543506622, 0.07324487715959549, -0.06559338420629501, -0.039279770106077194, 0.2972715198993683, -0.11256106197834015, 0.04049626365303993, 0.17564842104911804, 0.02376219443976879, 0.036511216312646866, -0.007262478116899729, -0.07304006069898605, -0.266525536775589, 0.20563329756259918, 0.2822295129299164, -0.42251056432724, 0.07180958986282349, -0.4024524688720703, -0.07103748619556427, -0.024434030055999756, -0.014665263704955578, -0.0580173097550869, -0.09426689147949219, -0.13062754273414612, 0.17680254578590393, -0.3173978924751282, 0.15870298445224762, -0.30337265133857727, 0.24971021711826324, -0.03860858455300331, -0.14716263115406036, 0.16076518595218658, -0.5214977860450745, 0.1943797469139099, -0.013334671035408974, 0.07681627571582794, -0.06451736390590668, -0.012270666658878326, -0.3708863854408264, -0.2130945324897766, 0.12422118335962296, 0.08690936118364334, -0.20725685358047485, -0.17404095828533173, 0.24152156710624695, -0.1981014907360077, 0.03890262916684151, 0.04762217774987221, -0.41406431794166565, -0.06367498636245728, 0.2591257691383362, 0.19384442269802094, 0.266925185918808, 0.3068296015262604, -0.09412549436092377, 0.2793544828891754, 0.2909163236618042, 0.1421472728252411, 0.1744382083415985, -0.4195878505706787, -0.15403324365615845, -0.21715787053108215, 0.20447874069213867, -0.12306661903858185, -0.19304585456848145], [-0.2715703248977661, 0.1848168969154358, -0.02159043960273266, -0.23310042917728424, -0.09808279573917389, -0.15921653807163239, 0.12504853308200836, -0.020945288240909576, -0.09871312230825424, -0.16858598589897156, 0.06958390027284622, 0.14439019560813904, 0.31924471259117126, 0.21531102061271667, -0.05021178349852562, -0.20957660675048828, 0.3423534035682678, -0.24167180061340332, 0.09811553359031677, 0.11923333257436752, 0.08961186558008194, 0.027979528531432152, -0.152854323387146, -0.17448276281356812, -0.2087489515542984, -0.4541932940483093, -0.32310813665390015, 0.020384980365633965, 0.158921480178833, 0.19013723731040955, -0.011112521402537823, 0.23312748968601227, 0.09584584832191467, -0.1818365752696991, 0.4190734624862671, 0.04730888828635216, 0.15087589621543884, -0.4613285958766937, 0.24543364346027374, -0.2940898835659027, -0.20833227038383484, -0.26692771911621094, -0.14511847496032715, -0.032178934663534164, -0.02999924309551716, 0.0009119656751863658, 0.1407330185174942, 0.025874756276607513, 0.2066752016544342, -0.20739120244979858, -0.024758996441960335, -0.24794070422649384, -0.11533056944608688, -0.20338869094848633, 0.040749091655015945, -0.19375984370708466, -0.31389352679252625, 0.22974933683872223, 0.3742172420024872, -0.17900991439819336, -0.4448607861995697, -0.013890782371163368, 0.049239400774240494, -0.12356894463300705, -0.043542247265577316, 0.422835111618042, -0.38397708535194397, -0.2321251779794693, 0.10058585554361343, -0.0908462256193161, 0.1289139837026596, -0.09282270818948746, -0.03561368212103844, 0.19106678664684296, -0.25236383080482483, -0.16411609947681427, 0.06412038952112198, 0.009442389011383057, 0.3172348141670227, 0.12328905612230301, 0.051184844225645065, 0.29679539799690247, -0.1127735897898674, 0.014304484240710735, 0.03660198301076889, -0.12296199798583984, -0.26909497380256653, -0.013378974981606007, 0.06295649707317352, -0.1912066638469696, 0.16824516654014587, -0.09059516340494156, -0.22962579131126404, -0.3397146463394165, -0.07770783454179764, -0.10059966892004013, 0.21367418766021729, 0.3071650266647339, -0.14768749475479126, -0.23517359793186188, 0.27016982436180115, -0.12070942670106888, 0.18260034918785095, -0.12392234802246094, -0.014523212797939777, 0.11838460713624954, -0.3835945725440979, -0.29067516326904297, -0.021170614287257195, 0.26241767406463623, -0.014612041413784027, 0.2826196253299713, -0.16853660345077515, 0.23972606658935547, 0.2043915092945099, -0.05883702263236046, 0.05372804030776024, 0.0008150535286404192, -0.20879969000816345, 0.02376442588865757, -0.2746443748474121, -0.04780920594930649, 0.47822272777557373, -0.1979849934577942, -0.07852652668952942, -0.25680118799209595, 0.1289743185043335, -0.2441927194595337], [-0.03413812443614006, 0.016825586557388306, -0.09450507164001465, -0.10516580194234848, -0.08768896013498306, 0.06465502828359604, -0.03165147453546524, 0.020584188401699066, 0.05814695730805397, -0.005094042979180813, -0.07764637470245361, -0.06960935145616531, 0.1427159607410431, 0.06664671748876572, 0.18650215864181519, -0.0699276551604271, -0.01905617117881775, -0.00011369054845999926, -0.020056486129760742, -0.0020846922416239977, 0.0641283467411995, 0.09691835939884186, -0.06981219351291656, -0.0020559094846248627, 0.01415915135294199, 0.12229397892951965, 0.03677475079894066, -0.09516856074333191, -0.06753719598054886, -0.09242740273475647, 0.08470292389392853, 0.021803060546517372, -0.041192200034856796, 0.03596842661499977, -0.06493408232927322, -0.002301703207194805, -0.220422625541687, 0.011318912729620934, 0.11686906218528748, 0.12117704749107361, 0.06403078138828278, -0.07621269673109055, 0.13026225566864014, -0.04136457294225693, 0.07346224784851074, -0.05125376954674721, -0.057685818523168564, 0.07165489345788956, 0.06340785324573517, -0.0036877787206321955, 0.06440062820911407, 0.0021767206490039825, -0.12448962777853012, -0.06374771893024445, 0.07779473811388016, -0.13498467206954956, -0.07638249546289444, 0.11004719883203506, -0.04645842686295509, -0.06255296617746353, 0.12300936132669449, -0.0015707914717495441, -0.08062298595905304, 0.060073159635066986, -0.0674784928560257, -0.07801501452922821, -0.07097724080085754, 0.048577673733234406, 0.028691403567790985, 0.006290115881711245, -0.07177800685167313, -0.08015911281108856, 0.026348667219281197, 0.0017504497664049268, -0.07801129668951035, 0.13925756514072418, 0.054975610226392746, -0.021864494308829308, -0.03747054934501648, 0.06372285634279251, -0.09669799357652664, -0.026591066271066666, -0.08609884977340698, -0.13024543225765228, -0.001844562590122223, 0.017646171152591705, 0.1329851597547531, 0.044223152101039886, 0.01789003424346447, 0.03565371781587601, 0.093252032995224, 0.03117874264717102, -0.09878634661436081, 0.12084929645061493, 0.04036755859851837, -0.07389797270298004, 0.0036768647842109203, -0.14257119596004486, 0.060857441276311874, -0.02531389519572258, -0.030374931171536446, 0.016888730227947235, 0.029400678351521492, 0.06124451756477356, -0.05428830906748772, -0.06218944117426872, 0.07588224112987518, 0.04814523831009865, -0.057874783873558044, -0.1064026802778244, 0.0725109651684761, -0.013793598860502243, 0.09044890105724335, -0.06067832186818123, -0.16301238536834717, 0.03303726390004158, 0.06087914854288101, 0.026964673772454262, 0.0679454654455185, 0.02500591240823269, -0.05526939034461975, 0.062146708369255066, 0.07353726774454117, 0.012490853667259216, 0.08945147693157196, 0.0273476280272007, -0.005113646388053894, -0.009200750850141048], [-0.02560983970761299, 0.04888663813471794, 0.17331619560718536, 0.02239135093986988, 0.07992556691169739, 0.07682030647993088, -0.05443566292524338, -0.15373308956623077, -0.10968237370252609, 0.10348032414913177, -0.09705858677625656, -0.03943510353565216, -0.018544692546129227, -0.03279101103544235, -0.09803073108196259, -0.004746043588966131, -0.033609308302402496, 0.10802115499973297, -0.12467213720083237, 0.019467420876026154, 0.040172211825847626, -0.10741288214921951, 0.04622548818588257, -0.08840642124414444, 0.04213011637330055, 0.09796302020549774, -0.11473153531551361, 0.09064134210348129, -0.04613904282450676, 0.07466188073158264, 0.025856051594018936, 0.0272564347833395, 0.07346560806035995, 0.07003658264875412, 0.06743976473808289, -0.01610396057367325, 0.0348161943256855, -0.008628914132714272, -0.05956006795167923, -0.04598993808031082, 0.1400834619998932, -0.2276485711336136, 0.09420369565486908, 0.03629287704825401, 0.05206214264035225, -0.09835638105869293, 0.041341912001371384, -0.08460212498903275, 0.018850285559892654, -0.04554236680269241, -0.06238683685660362, -0.14829497039318085, -0.09682224690914154, 0.054476089775562286, -0.018607057631015778, -0.022334204986691475, -0.03638796508312225, 0.0261369701474905, -0.20627065002918243, 0.1290435940027237, 0.11449097096920013, 0.07341942191123962, -0.0207955501973629, 0.08220458775758743, 0.023421524092555046, 0.020086068660020828, -0.05220075324177742, 0.002735844347625971, -0.0679553672671318, 0.04539915919303894, 0.06601656228303909, 0.030742041766643524, -0.01278654858469963, -0.09603915363550186, 0.030815260484814644, -0.0015026009641587734, -0.10652508586645126, 0.03085382841527462, -0.10672059655189514, 0.034208815544843674, 0.07521416991949081, 0.07625764608383179, 0.06903031468391418, 0.04778413847088814, 0.06131895259022713, 0.02424926497042179, -0.011899382807314396, 0.051741909235715866, 0.0029530893079936504, -0.013660138472914696, -0.03593903034925461, 0.10492042452096939, 0.014764352701604366, 0.041015155613422394, -0.09285703301429749, 0.11750161647796631, -0.02596653625369072, 0.004732946865260601, -0.01889357902109623, 0.08511538803577423, 0.23561370372772217, 0.05103480443358421, -0.04770934581756592, 0.12081170082092285, 0.017594562843441963, -0.03405652567744255, 0.0584062822163105, 0.13066713511943817, -0.05618788301944733, -0.0904817283153534, 0.12863165140151978, -0.03992851451039314, -0.030575264245271683, -0.05957336723804474, -0.08423282206058502, -0.07527652382850647, -0.04958150163292885, -0.02473984844982624, 0.15918688476085663, 0.024832196533679962, -0.026984065771102905, 0.08566724509000778, 0.005458602216094732, -0.009612271562218666, -0.021999388933181763, 0.010073418729007244, -0.07344640791416168, -0.03249916806817055], [0.09259514510631561, -0.0012800188269466162, -0.13573932647705078, -0.008864064700901508, 0.07000866532325745, 0.04242899641394615, 0.020306389778852463, 0.022953560575842857, -0.13722336292266846, 0.1329488456249237, 0.1719350963830948, 0.03994470089673996, -0.006093623116612434, 0.15314562618732452, -0.13183560967445374, -0.051453202962875366, 0.07336729764938354, 0.04945819824934006, -0.13407354056835175, -0.15473780035972595, 0.2188412845134735, -0.1119614690542221, 0.06200060620903969, 0.04842487722635269, 0.019735487177968025, 0.031247340142726898, 0.12004242092370987, 0.2204582691192627, 0.11694707721471786, -0.20694810152053833, -0.08146435022354126, -0.07194442301988602, -0.21856042742729187, -0.0997399240732193, 0.06317317485809326, 0.1394995003938675, -0.18442009389400482, -0.13982699811458588, 0.07232429832220078, -0.002552890684455633, 0.14127333462238312, 0.04698151722550392, -0.0577232800424099, -0.022632328793406487, 0.09649422764778137, -0.07214920222759247, -0.0007848460227251053, -0.09617526829242706, -0.13685445487499237, -0.09585621953010559, 0.044795822352170944, 0.04080541059374809, 0.06543637812137604, -0.10152208060026169, -0.04503908008337021, -0.031127411872148514, -0.017934732139110565, 0.11539517343044281, -0.015473077073693275, 0.06988082826137543, -0.03643658757209778, -0.06789342314004898, 0.04924649000167847, -0.12759773433208466, 0.03562947362661362, 0.05973830446600914, -0.03908105567097664, -0.06215379014611244, 0.013511341996490955, -0.05348413810133934, -0.02326493337750435, -0.13841286301612854, 0.18259267508983612, -0.02067980356514454, 0.007017396856099367, -0.11516918987035751, 0.006185374688357115, -0.1729012280702591, -0.001205651555210352, 0.11418205499649048, -0.0391647145152092, 0.08178988099098206, -0.1834510862827301, 0.08447374403476715, 0.020367871969938278, -0.031126709654927254, -0.06165522709488869, -0.005519821308553219, 0.011490368284285069, -0.06525755673646927, 0.05276131629943848, 0.006420545279979706, -0.03697469085454941, -0.11482517421245575, -0.13553014397621155, -0.18363261222839355, 0.032724324613809586, 0.07529445737600327, -0.11750389635562897, -0.12109008431434631, 0.012120136059820652, -0.19406633079051971, -0.010129302740097046, -0.03916562348604202, 0.13839545845985413, -0.17297090590000153, 0.07722988724708557, 0.025393884629011154, -0.14117783308029175, -0.012503971345722675, 0.06528310477733612, -0.07321273535490036, 0.059471458196640015, 0.02891153283417225, 0.06265426427125931, 0.009544320404529572, -0.16981324553489685, -0.013874749653041363, 0.09473054111003876, 0.05754929408431053, -0.09634330868721008, 0.181884303689003, -0.21613480150699615, 0.08125538378953934, -0.09373076260089874, 0.03717828169465065, 0.031093178316950798, -0.10636889934539795], [-0.11527112126350403, -1.7677700519561768, 1.3082705736160278, 0.7379917502403259, -0.5363938808441162, 0.7960138916969299, -0.7370573878288269, -1.8431754112243652, -0.6949880123138428, 1.0396754741668701, -2.4695627689361572, 0.38579657673835754, 1.7675212621688843, -0.8905549645423889, -0.6057396531105042, -0.513606071472168, -0.931259036064148, -1.1116211414337158, -1.7083524465560913, 0.4191597104072571, 0.05527295172214508, -0.4915808141231537, 1.2061771154403687, 0.5807517170906067, -1.5318174362182617, 1.9454649686813354, -0.40417975187301636, 0.7302019596099854, 0.23118530213832855, -0.2812010645866394, 0.927153468132019, -0.8940595984458923, 1.028621792793274, 1.4211187362670898, -1.4438321590423584, -0.08036448806524277, 1.38371741771698, -1.5717723369598389, -1.2023818492889404, -1.1580899953842163, 1.5517207384109497, -0.6050804853439331, 0.2790367305278778, 0.43121790885925293, 0.12213613837957382, 0.21689972281455994, 1.733325481414795, 1.4710849523544312, 0.9921627640724182, -0.6242791414260864, 1.5502440929412842, -0.3236619830131531, 1.8559551239013672, 1.5525041818618774, 1.380532145500183, -0.2901402711868286, -0.31064680218696594, 0.7833385467529297, -0.8196805119514465, -0.6047675609588623, 1.2348474264144897, -0.5990172624588013, -1.0317901372909546, 0.4442765414714813, -1.5435259342193604, -1.7071760892868042, 0.6800697445869446, -0.6252903342247009, 0.24382270872592926, 0.9295938014984131, 0.8918579816818237, -1.3720476627349854, -0.11102035641670227, -1.7158737182617188, -1.7959569692611694, -0.5528364181518555, -0.2568865716457367, -1.1981604099273682, -1.6768169403076172, 1.1911907196044922, 0.617440938949585, 0.3133355677127838, 0.6492814421653748, -0.49848538637161255, -1.6054409742355347, 1.2718921899795532, -2.357874870300293, 0.4766329526901245, 1.9022657871246338, -0.6084081530570984, -0.6264951229095459, 1.4135761260986328, 0.8440715074539185, -0.18801651895046234, 0.022681353613734245, -0.3954817056655884, -2.8412604331970215, 1.0821572542190552, 1.559600591659546, -1.8890562057495117, 0.5811633467674255, 1.2252362966537476, -0.4528719186782837, 0.3404611647129059, 1.071702241897583, -0.32489851117134094, -0.8853158950805664, -0.8069453239440918, -0.3104825019836426, 1.143776297569275, 0.08657873421907425, 0.6155771613121033, 0.3976946771144867, -0.5006583333015442, 0.11203712970018387, -1.8084912300109863, 0.4240666329860687, -0.9744586944580078, -0.761017382144928, 0.2763289511203766, -0.23172174394130707, -0.42643284797668457, -0.19122187793254852, -0.054707810282707214, 0.15693221986293793, 0.5327044725418091, 1.5024356842041016, -2.297609329223633], [0.7352330088615417, 0.20108389854431152, 1.5279512405395508, 0.3699524998664856, 2.444204568862915, 0.34509608149528503, -0.9792881608009338, 