{"in_shape": [null, 66], "layers": [{"type": "dense", "activation": "elu", "shape": [null, 128], "weights": [[[0.1540103703737259, 0.16510458290576935, 0.025333348661661148, 0.12296989560127258, -0.017555659636855125, -0.061565421521663666, -0.044636402279138565, -0.03307606652379036, 0.06982946395874023, 0.03666301444172859, -0.1310344636440277, 0.05158396065235138, 0.17309913039207458, -0.05142582580447197, 0.16982199251651764, -0.13230296969413757, -0.03139094263315201, 0.18695691227912903, 0.14300589263439178, -0.1644924432039261, 0.14543162286281586, -0.043753545731306076, -0.2511315941810608, -0.16270054876804352, -0.004191654268652201, 0.13290078938007355, 0.08011040091514587, 0.05038824677467346, -0.0018766443245112896, -0.012279585003852844, 0.24808409810066223, 0.06047490984201431, 0.022517895326018333, 0.16437587141990662, -0.1801895648241043, -0.16797563433647156, -0.11548206955194473, 0.12123457342386246, 0.027794871479272842, 0.11250182241201401, -0.0008870869060046971, -0.02166309766471386, 0.15051135420799255, 0.0953381285071373, 0.08558043837547302, -0.02446429431438446, -0.010260860435664654, -0.08968609571456909, 0.09933611005544662, 0.14745815098285675, 0.1729975789785385, 0.06828711181879044, -0.03886031359434128, 0.13375641405582428, 0.046222247183322906, 0.007916607894003391, -0.10786472260951996, -0.17287610471248627, 0.12076391279697418, 0.13780201971530914, -0.05391016975045204, -0.20224961638450623, 0.09450540691614151, -0.19530510902404785, -0.041911449283361435, -0.020947329699993134, -0.17457439005374908, -0.19873103499412537, -0.0857275128364563, -0.0732400119304657, 0.004181897733360529, -0.08283929526805878, 0.15053753554821014, 0.008554739877581596, -0.13788998126983643, -0.05825747177004814, 0.17020313441753387, 0.09419006109237671, 0.05055852234363556, 0.026491211727261543, -0.1619315892457962, -0.11218410730361938, 0.020644182339310646, 0.08147506415843964, 0.13452577590942383, -0.00705399876460433, -0.1365622580051422, 0.02979496866464615, -0.057629797607660294, -0.1014985665678978, -0.0458473339676857, 0.06539016216993332, 0.0930134505033493, -0.16036047041416168, -0.03740563988685608, -0.06528492271900177, -0.18751774728298187, 0.05865565687417984, 0.04076339304447174, -0.026485776528716087, 0.11030250787734985, -0.0945676639676094, 0.0878693088889122, 0.18878866732120514, -0.09845829755067825, 0.07194339483976364, -0.03642474487423897, 0.0876234844326973, -0.0018687802366912365, 0.01467440091073513, 0.06149100139737129, 0.127039834856987, 0.03803887590765953, -0.14201968908309937, -0.029002748429775238, -0.052571699023246765, 0.05888646841049194, 0.019321415573358536, -0.09769090265035629, 0.12358026951551437, 0.05736914277076721, 0.08547742664813995, 0.10758396983146667, -0.14377011358737946, -0.09248237311840057, -0.12686492502689362, 0.05352718383073807, 0.03482585400342941], [-0.05331892520189285, -0.16715098917484283, -0.021100355312228203, -0.10367213934659958, -0.21155044436454773, 0.08749838173389435, -0.06900081783533096, -0.1959584802389145, 0.15724287927150726, 0.06797825545072556, -0.06936679780483246, -0.01986459083855152, -0.20308642089366913, 0.08408156037330627, 0.12711864709854126, -0.05482432618737221, -0.08579526096582413, -0.06917198747396469, 0.011887570843100548, -0.11588087677955627, -0.08083202689886093, 0.04620026797056198, 0.004142195917665958, 0.0028191888704895973, -0.06749259680509567, 0.05116461217403412, -0.24807791411876678, -0.06377828121185303, 0.0478021465241909, 0.1466173529624939, 0.25112563371658325, 0.30780258774757385, 0.03614635765552521, 0.08006127178668976, -0.015694381669163704, -0.013933293521404266, 0.1026613786816597, -0.007487681228667498, 0.1698664426803589, 0.0580071285367012, 0.06625005602836609, -0.26302093267440796, -0.026902953162789345, -0.14308606088161469, -0.06968869268894196, -0.09710099548101425, 0.036273762583732605, -0.12216488271951675, -0.14749716222286224, -0.03988220542669296, -0.06684950739145279, -0.24037043750286102, 0.05948648974299431, -0.06686926633119583, 0.04691052809357643, -0.2993616461753845, -0.10723140835762024, -0.1402273029088974, -0.028473595157265663, -0.1835528314113617, 0.06206431984901428, 0.118512824177742, 0.04469709470868111, -0.04355818033218384, -0.19545458257198334, 0.12679007649421692, 0.05967703461647034, 0.12227743119001389, 0.08163241297006607, -0.037011489272117615, 0.01948336511850357, -0.09580307453870773, -0.027759145945310593, 0.016702240332961082, 0.17855162918567657, -0.053352825343608856, -0.17562848329544067, 0.22184914350509644, -0.2540113925933838, -0.09196124225854874, -0.20412930846214294, 0.10305164754390717, -0.015270290896296501, 0.13001786172389984, -0.10372509062290192, -0.10414129495620728, -0.030378278344869614, 0.17421600222587585, 0.13573692739009857, 0.18799787759780884, -0.08096437901258469, 0.0431392528116703, 0.042810648679733276, -0.12341027706861496, 0.055737756192684174, -0.12237057089805603, 0.008669664151966572, -0.2147229015827179, 0.18747980892658234, 0.06365103274583817, -0.008917373605072498, 0.03633149713277817, -0.09630897641181946, -0.018696961924433708, -0.15995460748672485, 0.004401047248393297, -0.1090654581785202, 0.10605091601610184, 0.017807282507419586, 0.26779675483703613, 0.21474610269069672, 0.19959808886051178, -0.0205148346722126, -0.1406966894865036, 0.11263398081064224, -0.014722858555614948, -0.008985227905213833, 0.024527596309781075, 0.04534453898668289, -0.0338267907500267, -0.08361732214689255, -0.02549835294485092, -0.059902746230363846, -0.13646195828914642, 0.17589600384235382, 0.031156623736023903, 0.0867067277431488, -0.042085178196430206], [-0.02412908710539341, -0.24334706366062164, 0.24257700145244598, 0.17082008719444275, -0.11835294961929321, 0.039664965122938156, -0.21150925755500793, -0.020773712545633316, 0.1396215707063675, -0.20541349053382874, 0.19192548096179962, -0.2881323993206024, 0.20267550647258759, -0.2180010974407196, 0.0010686928872019053, 0.08658440411090851, -0.0840543657541275, -0.09978145360946655, -0.03259202465415001, 0.3162660002708435, -0.411006361246109, 0.13469040393829346, 0.3442559838294983, -0.11476685106754303, 0.26915571093559265, -0.05435296893119812, 0.03425543010234833, -0.29717695713043213, -0.07949382811784744, 0.26827049255371094, -0.19533097743988037, -0.2762240469455719, 0.148164764046669, 0.0780152752995491, -0.05635085701942444, -0.13586966693401337, -0.036707207560539246, -0.1961515247821808, -0.01833949238061905, 0.08976802229881287, -0.30763980746269226, -0.35129913687705994, 0.11466770619153976, -0.13489149510860443, 0.09863855689764023, -0.009590907953679562, -0.2032763957977295, -0.016624435782432556, -0.24522438645362854, -0.15665756165981293, 0.2595764398574829, 0.10130000859498978, 0.33582520484924316, 0.19633372128009796, -0.0006648646085523069, 0.06240815669298172, -0.0529266819357872, -0.03556517884135246, 0.2711775302886963, -0.03704366832971573, 0.10430055111646652, 0.10625763982534409, -0.07126221805810928, 0.1388891488313675, -0.30556413531303406, 0.17618505656719208, -0.023726778104901314, -0.2647043466567993, 0.011906848289072514, 0.27526143193244934, -0.13283009827136993, 0.28877782821655273, -0.3167112171649933, -0.2411651313304901, 0.06615198403596878, -0.2745753228664398, -0.15952716767787933, -0.17820116877555847, 0.26601171493530273, -0.17308320105075836, -0.15748029947280884, -0.06443023681640625, -0.2524367570877075, -0.12484502047300339, -0.4507066309452057, -0.10950330644845963, -0.010640261694788933, 0.044766418635845184, 0.21891382336616516, -0.14982552826404572, 0.1315108835697174, -0.14058437943458557, 0.11564440280199051, -0.12938055396080017, -0.18541409075260162, 0.23911069333553314, 0.27988290786743164, 0.04845847561955452, 0.026005225256085396, -0.08244610577821732, -0.010929349809885025, 0.2627207636833191, -0.2253132462501526, 0.22434702515602112, -0.14479215443134308, 0.17894241213798523, 0.33106422424316406, 0.04471103474497795, 0.14445002377033234, -0.08726605772972107, 0.19812658429145813, 0.033661313354969025, 0.16654713451862335, -0.21657384932041168, -0.20845261216163635, -0.15934281051158905, 0.002210267586633563, -0.030780911445617676, 0.07375509291887283, -0.24430081248283386, 0.07752686738967896, 0.1745481789112091, -0.1198686808347702, -0.07612598687410355, 0.12138718366622925, -0.0842917412519455, -0.23360739648342133, 0.10618530213832855], [1.8044812679290771, 1.1575348377227783, 2.388824939727783, -0.26534563302993774, -0.49344170093536377, -0.49967634677886963, 0.21781198680400848, -1.6355007886886597, 0.7016487717628479, 1.4362289905548096, -3.370420217514038, -1.598802924156189, -0.19103388488292694, -0.12829823791980743, 0.5130906105041504, 1.1994717121124268, 1.997910737991333, 2.2042794227600098, -1.4337376356124878, 0.7194514870643616, -0.8904512524604797, 0.07033654302358627, 1.0690923929214478, -1.9976415634155273, -1.0719153881072998, 1.3376675844192505, -0.4876396059989929, 0.2798643708229065, 2.6706557273864746, 0.5709878206253052, 1.7448785305023193, -0.6251924633979797, -0.6710095405578613, 1.2605006694793701, -1.0065281391143799, 1.4562115669250488, 1.7483502626419067, -2.29339337348938, 1.659502387046814, -1.230222463607788, -0.8916338682174683, 0.7338583469390869, -0.5311906337738037, -2.0955569744110107, -2.7066750526428223, 1.1137017011642456, 1.2815734148025513, -1.1745848655700684, -1.2683963775634766, 1.0147556066513062, -1.3451765775680542, -1.408487319946289, 0.9178016185760498, -1.031004786491394, 1.757445216178894, -0.5844769477844238, -0.8039467334747314, -1.2071454524993896, -1.7591620683670044, -0.973990261554718, -0.6354416012763977, 0.06439027935266495, -2.1671290397644043, 0.9461493492126465, 1.3596277236938477, 1.526133418083191, 0.9337881803512573, 1.8557747602462769, -0.47016459703445435, -0.32236233353614807, -0.28372064232826233, 0.868076503276825, -1.1886671781539917, -0.8967704772949219, 1.3137173652648926, 1.077890157699585, -0.7381891012191772, -0.7991712093353271, -1.439322590827942, 1.2009090185165405, -0.2317272275686264, -2.4675166606903076, 1.375788927078247, -0.2793433964252472, -1.523037314414978, -1.4239747524261475, -0.01089949905872345, -0.9705848693847656, 2.1497271060943604, 2.0119004249572754, 1.1777369976043701, -1.608360767364502, -1.0011281967163086, -1.7515825033187866, -1.6851781606674194, 0.9204985499382019, 0.019359972327947617, -1.2060047388076782, 1.4324977397918701, -1.993457317352295, 1.623256802558899, -1.6418585777282715, 1.9662878513336182, 2.3441390991210938, -0.21421097218990326, -1.5167313814163208, -1.075906753540039, 0.7269957065582275, 0.6267129778862, -1.4977965354919434, 0.6532864570617676, -1.6590161323547363, 2.1629257202148438, -2.4667632579803467, -1.1060665845870972, -0.890984058380127, -0.7710111737251282, 0.7302438616752625, 0.7099186778068542, 0.40057697892189026, 0.5003643035888672, 0.8136904239654541, -0.7506349086761475, 0.7766579389572144, 0.44486939907073975, -0.4452173709869385, 0.7938960790634155, 1.5361671447753906], [-0.5867820978164673, 0.05234481021761894, -2.1107304096221924, 0.7294079661369324, -2.499340295791626, 1.2526088953018188, -0.36161738634109497, -1.0110386610031128, 0.1490638703107834, 0.2305528223514557, 1.160952091217041, -1.3410158157348633, 2.144618034362793, -1.0871561765670776, -0.2371867150068283, 0.4636043906211853, 2.400033950805664, 1.456748127937317, -1.3642964363098145, -0.26642554998397827, -1.3445727825164795, -1.2299858331680298, 3.261934757232666, -1.1100784540176392, 0.08286258578300476, -1.503955364227295, -0.03416232764720917, 1.450224757194519, -0.7662801146507263, 0.20107495784759521, 0.5290237665176392, 1.1850790977478027, -1.2527793645858765, -2.3950352668762207, 0.6518780589103699, -0.9873703122138977, 0.4971032738685608, -2.8041486740112305, -0.43962669372558594, 1.0512982606887817, 0.6696207523345947, 0.21939586102962494, 1.5650551319122314, 1.6660012006759644, -3.301490068435669, -0.5941293239593506, 1.3613115549087524, -2.1629650592803955, -0.8768935203552246, 1.3615409135818481, -0.7618479132652283, 0.4391770362854004, 0.3496733605861664, -1.0494329929351807, -0.17625755071640015, 0.10847507417201996, -0.7579655647277832, 1.7351199388504028, 1.2347466945648193, 0.057527873665094376, 0.9152286648750305, -0.42535504698753357, 0.15017911791801453, -1.6923234462738037, 0.784206211566925, -2.0231692790985107, 0.85585618019104, 1.699967384338379, -1.037434458732605, -0.9890369772911072, 0.5897928476333618, -1.2696858644485474, -0.623522162437439, -2.0674684047698975, 1.09804368019104, -2.4879236221313477, -0.16274386644363403, -1.9597231149673462, -0.5603683590888977, -1.1718467473983765, 1.316684603691101, 2.022010564804077, 0.22148483991622925, 1.6826658248901367, 0.4241441488265991, 1.7991710901260376, -2.960658550262451, -1.8452328443527222, -1.5858681201934814, 0.06619654595851898, 0.7074543237686157, -0.20958949625492096, 1.6745511293411255, 0.22629013657569885, -1.048751711845398, -1.2438932657241821, 1.7506358623504639, 1.1525585651397705, -0.7813039422035217, 1.76643705368042, 2.491180181503296, 0.5037392973899841, -0.6349661350250244, -2.1305177211761475, 0.6293373703956604, 0.3618391156196594, -1.8568499088287354, -0.43991315364837646, 0.461052268743515, 0.006672241725027561, 0.9197304844856262, -0.7799627184867859, -1.9823404550552368, -1.131277084350586, 1.275099515914917, 0.3299068212509155, 2.1248135566711426, -0.0182051919400692, -0.08230385929346085, 0.026864267885684967, 0.1396826207637787, -0.9353142380714417, -1.8355252742767334, -1.1639467477798462, -0.3230106234550476, 2.0060970783233643, -0.9818233251571655, 1.1852960586547852], [-9.927714347839355, 8.304166793823242, 0.2924545109272003, -1.1603572368621826, 20.29609489440918, -8.78154468536377, 18.23974609375, 16.065662384033203, -7.654333591461182, -10.077051162719727, 6.0382585525512695, -3.6765027046203613, -23.569255828857422, 3.2900359630584717, -3.4526712894439697, 22.282651901245117, 19.521764755249023, 1.7036550045013428, 16.842012405395508, -11.756616592407227, 1.8095240592956543, 15.399493217468262, -2.1869091987609863, 21.590259552001953, 14.909647941589355, 2.6703450679779053, -4.520956993103027, -8.336448669433594, 1.4664429426193237, -2.072277545928955, 2.3179733753204346, -2.9119043350219727, 3.6639010906219482, 9.378461837768555, -7.259608745574951, -2.540311336517334, -8.817662239074707, 0.5570520758628845, 22.59270477294922, 4.573321342468262, 13.362807273864746, -17.61313247680664, -6.824488162994385, 20.30423355102539, 7.907503604888916, 22.524578094482422, -4.536050796508789, 17.805654525756836, 14.485828399658203, -25.02887535095215, -4.538631916046143, -4.339319229125977, -16.457504272460938, -12.540360450744629, 19.925214767456055, -5.630377292633057, -3.1891207695007324, 14.563888549804688, 13.869095802307129, 12.309779167175293, 8.216148376464844, 1.002702236175537, -15.951425552368164, 4.695305824279785, 1.9670599699020386, 7.345418453216553, -17.443649291992188, 3.0355541706085205, -4.798158168792725, -14.38174057006836, -27.776893615722656, 8.880699157714844, 16.396385192871094, -3.4631729125976562, -26.98508071899414, 17.552879333496094, -9.274618148803711, -10.482148170471191, 8.605109214782715, 4.974377155303955, -6.6075439453125, 18.389461517333984, 2.222522497177124, -12.680083274841309, -24.696800231933594, 1.1262521743774414, 7.956321716308594, -19.435407638549805, 5.4999847412109375, 10.741653442382812, -12.600162506103516, 9.487496376037598, 18.98687744140625, -12.217690467834473, -7.190866947174072, -2.9172914028167725, 14.203113555908203, 7.925327777862549, 2.3339357376098633, 12.170634269714355, 2.751352548599243, -27.653034210205078, -3.648273229598999, -10.155098915100098, 17.932666778564453, 9.877445220947266, 1.855042576789856, 0.15635372698307037, 18.86647605895996, -3.3271825313568115, 6.513856887817383, 11.350881576538086, -14.771916389465332, -8.147295951843262, -1.6977015733718872, 18.502635955810547, 15.83222770690918, -0.05224624648690224, -12.141725540161133, 6.027064323425293, 10.194014549255371, 9.182048797607422, -15.598653793334961, 18.80453872680664, 5.283321857452393, 13.395962715148926, 9.085773468017578, 1.5856027603149414], [0.05110110715031624, 0.7333939671516418, 0.05988391116261482, -0.06628195196390152, -0.1273055374622345, 0.4024820923805237, 0.3324239253997803, 0.4518466591835022, 0.276297926902771, 0.6282761096954346, -0.2839822471141815, 0.10710451006889343, 0.05673493444919586, -0.03657819330692291, -0.2248348742723465, 0.5839906334877014, -0.09590122848749161, 0.41994962096214294, -0.1766434907913208, -0.3037753403186798, -0.2986929416656494, -0.44821760058403015, 0.05811116471886635, 0.22745729982852936, -0.060400523245334625, 0.15340304374694824, 0.19642461836338043, -0.33634668588638306, 0.23308180272579193, -0.3746001720428467, 0.07227709889411926, -0.28739866614341736, 0.4971007704734802, -0.3505304455757141, 0.23704369366168976, -0.42463305592536926, -0.36773502826690674, 0.3888218104839325, 0.10627690702676773, 0.29773393273353577, -0.6590203046798706, 0.14758148789405823, 0.0799233540892601, 0.26545536518096924, -0.34397196769714355, -0.22887016832828522, -0.8334000110626221, 0.3494320213794708, -0.3889206647872925, 0.2365970015525818, -0.4241402745246887, 0.6548311114311218, 0.04399779066443443, -0.20624928176403046, 0.17421351373195648, -0.3238193988800049, 0.2022736519575119, 0.47296467423439026, -0.1240885779261589, -0.2736908197402954, -0.17098990082740784, -0.177567720413208, -0.3121245801448822, -0.07953197509050369, 0.32552507519721985, 0.4495551288127899, 0.3400072753429413, 0.18914784491062164, 0.16411687433719635, -0.08065706491470337, 0.4025968313217163, -0.011765183880925179, 0.2525010406970978, 0.09694671630859375, 0.3320232331752777, 0.2600924074649811, -0.3086976110935211, 0.2374042272567749, 0.4061615765094757, -0.22883211076259613, -0.30301353335380554, 0.3567679524421692, -0.19020703434944153, -0.05546838045120239, -0.14550787210464478, 0.21080650389194489, -0.11785456538200378, -0.23940904438495636, -0.26868289709091187, -0.11140184104442596, -0.11751793324947357, 0.4486452043056488, -0.06391602754592896, 0.19183394312858582, 0.04300796240568161, 0.37887099385261536, 0.09230048954486847, 0.2052096128463745, 0.011576364748179913, -0.31842631101608276, -0.24709677696228027, -0.14315903186798096, 0.043313849717378616, 0.2050950825214386, 0.005253917537629604, -0.19093231856822968, -0.030806904658675194, -0.10237322002649307, 0.1195274218916893, 0.26503586769104004, 0.28417789936065674, 0.0929800420999527, 0.16926971077919006, -0.21149301528930664, -0.2837890386581421, 0.23288953304290771, 0.20819087326526642, -0.0743696317076683, 0.36327555775642395, -0.10775087028741837, 0.4594997465610504, 0.08809937536716461, 0.1597575843334198, 0.18173860013484955, 0.254676878452301, 0.2838389277458191, 0.7982481122016907, -0.24305009841918945], [0.5297128558158875, -0.05352414399385452, -0.5522140264511108, -0.8588295578956604, 0.9603651762008667, 0.5056954622268677, -0.4459800124168396, -0.6021772027015686, 0.5631040930747986, 0.20881295204162598, 0.6563965082168579, 0.31685391068458557, -0.8085111975669861, 0.40222203731536865, 0.3781428933143616, -0.1984039694070816, -0.39529162645339966, 0.27298128604888916, 0.21280157566070557, 0.7275009751319885, -0.5836114287376404, 0.01403492409735918, 0.07625043392181396, 0.5236791372299194, 0.07077089697122574, 0.38409683108329773, -0.35077977180480957, 0.5275778770446777, 0.2306538075208664, 0.08665569126605988, 0.23502758145332336, -0.8233199715614319, -0.6666398048400879, 0.7102716565132141, 0.4401450753211975, -0.05409584194421768, -0.1827591210603714, -0.7002406120300293, 0.33749154210090637, 0.008674404583871365, -0.09191493690013885, -0.09382662177085876, 0.43068981170654297, -0.5448378324508667, -0.6302962303161621, -0.2348039150238037, -0.4052889347076416, -0.23054616153240204, 0.06489232182502747, -0.22798526287078857, -0.5621860027313232, -0.10309058427810669, -0.1940692663192749, 0.6867805123329163, -0.4549590051174164, 0.05299752950668335, -0.0009880687575787306, 0.34619614481925964, -0.6214245557785034, 0.7144191265106201, 0.37034371495246887, 0.304618239402771, 0.5390943288803101, 0.972933828830719, 0.12956853210926056, -0.819644033908844, -0.5156686902046204, 0.13043969869613647, 0.10557101666927338, 0.4245019257068634, -0.9728352427482605, -0.34491345286369324, 0.28443819284439087, -0.764155387878418, -0.2634267210960388, 0.3198181390762329, -0.19420212507247925, 0.860000729560852, 0.9786495566368103, 0.6160908341407776, 0.1862618774175644, -0.8522043824195862, 0.34459224343299866, -0.7997155785560608, -0.41099804639816284, -0.6283327341079712, 0.001323046046309173, 0.2490379810333252, 0.778466522693634, -0.3915763795375824, -0.49309369921684265, -0.9306992292404175, 0.7643142342567444, 0.6570147275924683, 0.13882330060005188, 0.15237298607826233, -0.442708820104599, -0.417712926864624, 0.6705957055091858, -0.041992172598838806, 0.06112750992178917, -0.3292752802371979, -0.5634881258010864, -0.2641091048717499, 0.02407611720263958, 0.40606993436813354, -0.09786148369312286, -0.6991578936576843, -0.8046979904174805, 0.8050101399421692, -0.8067830204963684, 0.47715237736701965, 0.6037693023681641, 0.3065643906593323, -0.928529679775238, -0.06815286725759506, 0.4713752567768097, -0.6770697236061096, -0.03695729002356529, 0.3136744797229767, 0.6896315217018127, -0.8993615508079529, 0.9643542766571045, 0.562351405620575, -0.3989626169204712, 0.217544287443161, 0.11163836717605591, -1.2041796445846558], [0.3918251395225525, 0.2634323835372925, 0.03208935260772705, -0.20145605504512787, -0.2338819056749344, 0.15571600198745728, 0.3750869035720825, -0.22424371540546417, -0.07476459443569183, -0.10576113313436508, 0.19964537024497986, 0.206887349486351, -0.11692619323730469, -0.033034130930900574, 0.2323971390724182, 0.14212866127490997, -0.44776323437690735, 0.31796517968177795, -0.09237054735422134, 0.12644071877002716, -0.1649162918329239, -0.017523840069770813, 0.05112042650580406, -0.11498010158538818, 0.13844184577465057, 0.2873319387435913, -0.03349025920033455, -0.1749468296766281, 0.05250954255461693, -0.0473129041492939, -0.15509292483329773, -0.13701675832271576, -0.2575604021549225, -0.19615450501441956, 0.13683634996414185, 0.14912620186805725, -0.1309274584054947, 0.30665796995162964, -0.3665350377559662, -0.20370399951934814, 0.07452140003442764, -0.21709159016609192, -0.19104883074760437, 0.20664265751838684, 0.07221382111310959, -0.1154911071062088, 0.2798314690589905, -0.23991839587688446, 0.4499363303184509, 0.14695248007774353, 0.021178044378757477, 0.24980057775974274, -0.13044169545173645, -0.24551919102668762, -0.02284902334213257, -0.08597278594970703, -0.10359205305576324, -0.06743001192808151, 0.3215622901916504, -0.30184775590896606, -0.39383843541145325, -0.36105379462242126, 0.21399493515491486, -0.11186771094799042, -0.3412925601005554, -0.1776222586631775, 0.2807285487651825, -0.06594029068946838, 0.017042869701981544, -0.06718723475933075, 0.18941202759742737, -0.06949323415756226, 0.27393946051597595, -0.2398240566253662, 0.20835767686367035, 0.4921976625919342, -0.0432051420211792, -0.02723700739443302, -0.33185115456581116, 0.13591215014457703, 0.03357253596186638, 0.13188351690769196, 0.21190869808197021, 0.22248707711696625, 0.3382682204246521, 0.35943281650543213, 0.3123480975627899, 0.2927582859992981, 0.30020204186439514, 0.009171859361231327, 0.2967647314071655, 0.30113735795021057, -0.2012948840856552, 0.3681184649467468, 0.11754003912210464, -0.1497611254453659, -0.00901048630475998, -0.3347686231136322, -0.07961884886026382, -0.12191896885633469, 0.21723394095897675, 0.26794981956481934, 0.3361027240753174, -0.058655545115470886, 0.07461216300725937, -0.1933063566684723, -0.4867800772190094, -0.16686901450157166, -0.3188152313232422, -0.12380430102348328, 0.3990422785282135, 0.06235870346426964, -0.11238276213407516, -0.24202799797058105, -0.10218187421560287, -0.2507580518722534, 0.08450782299041748, 0.12730276584625244, 0.009453002363443375, -0.06835511326789856, -0.3668065071105957, -0.4012027680873871, 0.10314060747623444, 0.053617022931575775, -0.028376951813697815, 0.3287069797515869, 0.037467338144779205, 0.10056328773498535], [-0.10387782007455826, -1.233124017715454, 1.2190158367156982, 0.6393925547599792, 1.8790123462677002, 1.0327256917953491, -0.9427025318145752, -0.8659207820892334, -0.4962652027606964, -0.7069165706634521, 0.0029023736715316772, -0.9157426357269287, -1.0904332399368286, -0.02685205638408661, 0.8128470778465271, 0.46862417459487915, -0.3563949763774872, -0.5169392228126526, 1.0575151443481445, 1.1082230806350708, -0.2935851216316223, -0.5111297965049744, -1.0555570125579834, 0.6055282354354858, 0.2850636839866638, -1.4699397087097168, -0.7376893162727356, 0.7283614277839661, -1.1476978063583374, -0.9847752451896667, -0.34670495986938477, -0.9358618855476379, -0.07174350321292877, -0.2510662078857422, -0.7825236320495605, -0.7860822081565857, 0.468555212020874, 0.23342403769493103, -0.5334696769714355, 0.4492408335208893, 0.24979786574840546, 0.5688004493713379, 1.2139015197753906, -0.6696814298629761, 0.8705278038978577, 0.07718219608068466, 0.7284586429595947, -0.004091005306690931, -0.49257197976112366, 0.4058314263820648, 1.3619309663772583, -1.2307138442993164, -0.2501508593559265, 0.29146701097488403, -0.48586294054985046, 0.3386552333831787, -1.2743006944656372, 1.01033616065979, 1.095016360282898, 0.16927097737789154, 1.294066071510315, 0.1285206824541092, -0.3571566939353943, -0.8407190442085266, 0.18516528606414795, -0.1769115924835205, -1.2828547954559326, -1.3879390954971313, 0.019387373700737953, 1.5457870960235596, -0.39449211955070496, 1.5782121419906616, 0.674178421497345, 0.10345569998025894, 1.164737343788147, -1.1225870847702026, -0.18923643231391907, -0.8579583764076233, -0.007463792338967323, 0.412410169839859, 0.26861587166786194, -0.7641165256500244, 1.3815809488296509, 0.036498185247182846, -0.3255186676979065, 0.7714256644248962, 0.7516428828239441, -1.5095070600509644, -0.3352150619029999, -0.6894484162330627, 1.1894267797470093, -1.205377221107483, -0.5416412949562073, 0.05289022997021675, -0.2689378559589386, -0.9148295521736145, -0.5153651833534241, -1.0037909746170044, -1.4731112718582153, -0.7675766944885254, -0.4213249087333679, -0.44334402680397034, -0.27978256344795227, 1.7277072668075562, -0.17778930068016052, 0.9688369631767273, 0.6677095293998718, -0.0345943309366703, 0.9261172413825989, -0.8445386290550232, 0.3607155978679657, -0.17566098272800446, -0.41785845160484314, 0.6926464438438416, 0.004193242639303207, -0.7369352579116821, -0.17557916045188904, -1.180319905281067, 1.0180667638778687, 0.5793518424034119, 0.9225351810455322, 0.04804343357682228, 1.0287667512893677, -1.0628024339675903, -0.0016859077150002122, -0.4353029429912567, 0.0979592502117157, 0.0871565043926239], [-0.3070366084575653, -0.5591536164283752, -0.5960049629211426, 1.1054619550704956, -0.24460749328136444, -0.2978942394256592, -0.2051791548728943, -0.14599961042404175, -0.914668083190918, -0.301462858915329, -0.20565733313560486, 1.0132859945297241, -0.7552363872528076, 0.4237115979194641, 1.4706501960754395, 0.9509484767913818, -1.3460454940795898, 1.1162571907043457, -1.3332854509353638, -0.6934800148010254, -0.8266400098800659, 1.4990133047103882, 0.9794907569885254, 1.5461212396621704, -1.1999096870422363, -1.5401198863983154, 0.9934467077255249, -0.22482095658779144, -0.19550949335098267, 0.2621038258075714, -0.2823479473590851, -1.5896893739700317, 0.5105770826339722, 1.35638427734375, 0.03129677101969719, 1.6679010391235352, 0.3646606206893921, -0.36587777733802795, -1.5179051160812378, -0.6754074692726135, 0.3680957555770874, -1.370848298072815, -0.8622816205024719, 1.4289186000823975, -1.8400174379348755, -0.38654255867004395, 0.5810935497283936, 1.6369717121124268, -0.4111004173755646, 0.24308857321739197, -0.837716281414032, 1.144932746887207, 0.7007962465286255, 0.7147471308708191, 0.570222020149231, -0.8510195016860962, -0.7812359929084778, 0.5950896143913269, 0.2505101263523102, 1.611854910850525, 0.7255157232284546, 0.03919534012675285, 0.08751921355724335, 1.2353036403656006, -0.0818425863981247, -0.3805873394012451, 1.380224347114563, 0.32509544491767883, 0.5231397151947021, -1.4162355661392212, -1.7833672761917114, 0.5662605166435242, 1.3097307682037354, 1.4023840427398682, -0.9754423499107361, -0.15995092689990997, -0.9677510261535645, 0.9320328831672668, 1.057680368423462, -1.227871298789978, 0.7315659523010254, -0.6989434361457825, -0.8804264068603516, 0.05428222194314003, 1.885294795036316, 1.2717998027801514, 0.7633767127990723, 1.4920371770858765, 0.34772369265556335, -0.034770261496305466, 1.378851056098938, -0.48318418860435486, 0.8924025297164917, 0.32278114557266235, 1.065915584564209, -0.8933183550834656, -1.7307770252227783, -1.9807555675506592, -0.1461697816848755, 0.19808168709278107, -0.9464170932769775, -0.4090888202190399, 0.14001528918743134, -1.022896647453308, 0.5824401378631592, -0.7374551892280579, -0.09636721760034561, 1.2891188859939575, -0.4460114538669586, 1.1522413492202759, 0.41927188634872437, 0.6721924543380737, -0.5700051188468933, 0.9822333455085754, -1.0999181270599365, 0.630719006061554, 1.2414482831954956, 0.49660757184028625, 0.473184198141098, -0.11481015384197235, -1.270041584968567, -1.186278223991394, -1.1118431091308594, -0.39978212118148804, 1.319841742515564, 2.1474692821502686, -0.5008078813552856, 0.6125247478485107], [0.8774474859237671, 0.02830454707145691, 0.04821375012397766, 0.09430946409702301, 0.23680853843688965, -0.7524448037147522, -0.9970323443412781, -0.7141757607460022, -0.3805028796195984, -0.025953203439712524, 1.419346809387207, 0.32486170530319214, 0.9745852947235107, 0.39648303389549255, -0.03638291358947754, -0.48947596549987793, 0.5994717478752136, 1.0700263977050781, 1.1755692958831787, -0.045015882700681686, 0.6449698209762573, -0.6527933478355408, 0.3671957850456238, 1.3724687099456787, 0.8640661835670471, -1.2064440250396729, -0.4089239239692688, 1.0484827756881714, -0.8496458530426025, -0.641833484172821, -0.2326735556125641, 0.9734280705451965, 0.9788137078285217, 0.5117381811141968, -0.5991509556770325, -0.45969945192337036, -0.010090374387800694, -0.7712462544441223, -0.29213303327560425, -1.0051246881484985, -0.24914591014385223, 0.5770221948623657, 0.6942585706710815, 0.7712231874465942, 0.5016416311264038, -0.32233351469039917, -0.8494356274604797, 0.5214195847511292, -0.2273457795381546, 0.9675081372261047, 0.40417590737342834, -0.13167168200016022, 0.6896511316299438, -0.9843674302101135, 0.5439223647117615, -0.4420889914035797, -0.40258610248565674, 1.13401460647583, -0.5204097628593445, -0.27868402004241943, 0.18089017271995544, 0.5775994062423706, 0.34287044405937195, 0.05391686409711838, -0.12954813241958618, -1.196785807609558, -1.0195987224578857, -0.3714442849159241, -0.1370929479598999, -0.6607239842414856, 0.831990122795105, 0.202427476644516, -1.1707215309143066, -0.6619173884391785, -0.08295929431915283, 0.2916492521762848, -0.7181717157363892, 1.2028982639312744, 0.7134330868721008, -0.30070042610168457, 1.3071955442428589, -0.4207243323326111, 0.39074960350990295, 0.8997027277946472, -0.5388177037239075, 0.6909023523330688, 1.1235485076904297, -0.48170557618141174, -0.19505544006824493, -0.9217590689659119, 0.4281095266342163, -0.9907083511352539, -1.2836322784423828, -0.6248013973236084, 0.8518563508987427, 0.5567755699157715, -0.06902197748422623, -0.8207822442054749, -0.9462724328041077, 0.8210893869400024, 0.5587915778160095, -0.18487383425235748, 0.8966063857078552, 0.28644895553588867, -0.1602020263671875, -0.1051100343465805, -0.4324660003185272, 0.7549687623977661, -0.0944361537694931, -0.7559592127799988, -0.8813633918762207, -0.7793711423873901, 0.6681374907493591, 0.9503492712974548, -0.4747435748577118, -0.8187079429626465, -0.5027925372123718, 0.4236558675765991, 0.33531323075294495, 0.37302365899086, 0.10168638080358505, 0.9136255383491516, -0.0958482027053833, -0.2488572895526886, 0.3349092900753021, -0.08396144956350327, 1.392423391342163, -0.2751517593860626], [-0.192323699593544, -0.015521959401667118, -0.41942402720451355, 0.3846457600593567, -0.8708720803260803, -1.0535907745361328, -0.6011343598365784, 0.5945011377334595, -0.008727223612368107, -0.9866212606430054, -1.0334205627441406, -0.814775824546814, 0.6412165760993958, -0.9317308664321899, 0.079989954829216, -0.21155785024166107, -1.2802584171295166, 0.9015142321586609, 1.5195494890213013, -0.22462347149848938, -0.5902535915374756, 0.758643388748169, -0.13225911557674408, 1.0505908727645874, 0.6515192985534668, 0.07477834075689316, -0.09238477051258087, 1.1215306520462036, -0.16784800589084625, 1.174801230430603, -0.37093374133110046, 0.03478315845131874, 0.8749295473098755, -0.6981061100959778, -0.8113393187522888, -0.9673811793327332, 0.9104484915733337, -0.6837313771247864, -0.2537170648574829, 0.2846730053424835, 1.2238305807113647, 0.2888404130935669, 1.2465039491653442, -0.1718202382326126, 1.3213061094284058, 0.8506085276603699, -0.08277396112680435, -0.9203962683677673, -0.7386277318000793, 0.029332779347896576, 0.21854586899280548, -0.5679416060447693, 0.7368610501289368, 0.20291714370250702, -0.8783926963806152, -0.9929860830307007, 0.9170020818710327, 1.2887060642242432, -0.6492387652397156, -0.13941465318202972, -0.6898614168167114, 0.4750339984893799, -0.23856587707996368, 0.14838100969791412, 1.2693266868591309, 0.4239558279514313, -1.3314037322998047, -0.565195620059967, 0.46935713291168213, 1.0307064056396484, -0.3660109341144562, 0.9148707985877991, 1.6563177108764648, -0.8947281241416931, 0.526214599609375, -0.4162538945674896, -0.9665690660476685, 0.7520970702171326, -0.4746083617210388, -0.18025460839271545, -0.7226872444152832, -0.9176744222640991, 0.13470523059368134, 0.3278537094593048, -0.1669684648513794, -1.0739432573318481, -0.6589672565460205, -1.4692466259002686, -0.010104387998580933, -0.3871466815471649, 0.526624321937561, -0.5416449904441833, 0.5920055508613586, -1.0009526014328003, -0.21239863336086273, -0.14131727814674377, 0.7937224507331848, -0.9341199994087219, 0.635303258895874, -0.382354736328125, 0.2548125982284546, 1.3051122426986694, -0.03207262232899666, 1.2994791269302368, -0.49354663491249084, 0.011509999632835388, 1.4224927425384521, -0.5022740960121155, 0.6443699598312378, -0.5613242387771606, 0.09774842113256454, 1.398048996925354, 1.4518818855285645, 0.2658451795578003, -0.9083333611488342, 0.6152254939079285, 0.32637056708335876, 0.08979001641273499, 0.3416401445865631, -1.0631781816482544, 0.04411914199590683, -0.44881290197372437, -0.020388975739479065, -1.1409450769424438, -0.7096741795539856, -1.256616234779358, 0.32332485914230347, 0.22717121243476868], [0.7587540745735168, -0.5404458045959473, -0.9888222813606262, -1.3909296989440918, -0.025271842256188393, 1.0931814908981323, -0.41768133640289307, -0.9609950184822083, 0.4609129726886749, -1.2261743545532227, -0.6133589744567871, 0.6804400682449341, 0.47398990392684937, 0.4239773750305176, -0.72816401720047, -0.2334734946489334, 0.3542415499687195, 0.8224650621414185, 0.07985952496528625, 0.022923273965716362, -0.12137667089700699, -0.33552125096321106, -0.3904443681240082, 0.8092697858810425, -0.36114585399627686, -0.19873376190662384, 0.5786736011505127, -0.4048462510108948, 0.15079288184642792, 0.11722396314144135, 0.08086959272623062, 0.02118229679763317, -0.9010999202728271, 0.40317502617836, 1.313036322593689, -0.38019856810569763, -0.8952715992927551, 0.6000445485115051, 0.3917531967163086, 0.15807224810123444, -0.44186830520629883, 0.2772921323776245, 0.19872568547725677, -0.3635028004646301, 0.8244588971138, -0.010000194422900677, -0.3811754882335663, 0.2637840211391449, 0.1313963234424591, 0.170016810297966, -0.400871217250824, 0.6292580366134644, -0.2509952187538147, -0.7039276957511902, 1.0260145664215088, 0.8443583250045776, -0.6689576506614685, 0.3821863532066345, 0.7304006814956665, -0.33316072821617126, -0.023324893787503242, -0.18216125667095184, -0.13911785185337067, -0.04483006149530411, -1.3958687782287598, -1.3393875360488892, -0.2388787567615509, 0.8297310471534729, -0.5696674585342407, -0.620029866695404, 0.47829174995422363, -0.6541398763656616, 0.8825145363807678, 0.6347510814666748, -0.45029446482658386, -0.3489127457141876, -0.5753389000892639, 0.6983924508094788, -0.36807775497436523, 1.0669035911560059, 0.5527544021606445, -0.703079879283905, 0.4876959025859833, -0.9960808157920837, 0.6949339509010315, 0.2119045853614807, 0.8218281865119934, -0.37600505352020264, 0.4447803199291229, 1.134547472000122, -0.668507993221283, 0.5516740083694458, -0.6420067548751831, 0.05715889111161232, 0.7150318622589111, -0.5555983185768127, 1.096781611442566, 0.5884723663330078, -0.15589562058448792, -0.7507679462432861, 0.280312180519104, 0.8413867950439453, -0.38950520753860474, -1.0805541276931763, -0.9817553758621216, 0.0007823343621566892, -0.34419167041778564, -0.8861108422279358, 0.22701522707939148, 0.7093746066093445, 0.3152017593383789, -0.6517573595046997, -0.8276978135108948, 0.4621727168560028, 0.01635737530887127, -0.06816649436950684, -0.7893179655075073, -0.07497793436050415, 1.0644818544387817, -0.22148673236370087, -0.7038300633430481, -0.33612462878227234, 0.6871287822723389, 0.5481270551681519, 0.416786789894104, 0.7182215452194214, -0.32686498761177063, -0.03545831888914108], [-0.2847857177257538, -0.031099984422326088, -0.7780272364616394, -0.6474765539169312, 1.083487629890442, -1.3617138862609863, 0.38523000478744507, -0.3745323121547699, 0.4538925588130951, -0.9707857966423035, -0.024867234751582146, 0.0037734874058514833, 1.0788909196853638, -0.12708339095115662, 0.030293961986899376, 0.3850466310977936, 0.6278527975082397, 0.44365063309669495, 0.8526334166526794, -0.837460458278656, -0.9102188944816589, -1.316266655921936, 0.2499244213104248, 1.1215887069702148, -0.3442073464393616, -0.3202100098133087, 0.7501493096351624, 0.9262636303901672, -0.13779637217521667, 0.13334694504737854, -0.2206263393163681, 0.32942381501197815, -0.11374453455209732, 0.42220446467399597, -0.8351110219955444, 0.07511632144451141, -0.18880236148834229, -0.6584205031394958, -0.5041115283966064, -0.7584542632102966, 0.17717596888542175, 0.782380223274231, 0.8902891874313354, -0.9178537130355835, 0.11317064613103867, 0.7719928026199341, 0.4156421720981598, 0.33355435729026794, -0.9762992262840271, -0.21406427025794983, 0.43254581093788147, -0.5811347961425781, 0.719397783279419, 0.3998422920703888, 0.19748707115650177, -0.3713817596435547, -0.19154514372348785, -0.6964959502220154, 0.03124876879155636, 0.7974560856819153, 1.3399916887283325, -0.47534286975860596, -1.4443480968475342, 0.17531581223011017, -0.36083847284317017, -0.20584574341773987, -0.302459180355072, 0.9702317714691162, -1.0596638917922974, -0.48849180340766907, -0.0963757336139679, 0.39267459511756897, -0.40570107102394104, 0.8989570140838623, -1.0885101556777954, -0.4718624949455261, -0.0021036029793322086, 0.4702817499637604, 0.21338318288326263, 0.638710618019104, -0.1790338009595871, -1.6118991374969482, -0.3002414405345917, 0.5608882308006287, -0.9405649900436401, 0.030954448506236076, 0.7127912640571594, 0.22244416177272797, 0.6665657162666321, -0.09287184476852417, -0.8531452417373657, 0.5298682451248169, 0.6917055249214172, 0.3409271836280823, -0.5499274134635925, 0.37188848853111267, -0.8537103533744812, -0.5790513753890991, -0.6866183876991272, -0.7125503420829773, -0.6117982268333435, 0.6972848773002625, 0.7317291498184204, 1.07516610622406, -0.08652996271848679, -1.3128211498260498, 0.48600324988365173, 0.014292382635176182, 0.13383635878562927, -0.2340853065252304, -0.33854734897613525, 0.9005246758460999, -0.5142576098442078, -0.2349930703639984, -1.0927268266677856, -0.7303227186203003, -0.1124749481678009, 0.11679105460643768, 1.2211424112319946, 0.06580967456102371, -0.030086129903793335, 0.4144512116909027, -0.24656540155410767, 0.10376345366239548, -0.8354868292808533, 0.5230956673622131, 1.247710108757019, 1.0453104972839355], [0.8997133374214172, -0.6231620907783508, -0.9918091893196106, -0.21382567286491394, 0.3923707902431488, -1.278842806816101, -0.2148648202419281, 0.1668456643819809, 1.3222447633743286, -0.500026524066925, 1.1312180757522583, -1.0833723545074463, -0.008240366354584694, 0.0689292699098587, -0.7397276759147644, 0.3962419927120209, 0.10928642749786377, 0.16905198991298676, -0.7894811630249023, 1.0080299377441406, -1.2085623741149902, -0.7982399463653564, -0.5848602652549744, -0.16584210097789764, -0.8814985156059265, -1.176452398300171, -0.6632381081581116, -0.4190429747104645, -0.6575936079025269, 1.0110634565353394, -0.7361197471618652, 0.3601481318473816, -0.16645139455795288, 0.24050195515155792, 0.46426713466644287, -0.23895207047462463, -0.8266487121582031, -0.4023365080356598, -0.11293232440948486, 0.8231234550476074, -0.4041037857532501, -0.35501015186309814, -0.4081312119960785, -0.33746179938316345, -0.0025541207287460566, 0.7956582307815552, -1.3198133707046509, 0.4702748656272888, -0.8046184182167053, -0.319741815328598, 1.2821556329727173, 1.2257119417190552, 1.094638705253601, 0.33911529183387756, -0.7167308330535889, -0.18180878460407257, -0.5135952830314636, 0.538488507270813, -0.3227216303348541, 0.661068320274353, 0.34380123019218445, 0.5657769441604614, -0.16411256790161133, 0.11703851073980331, 0.5638347864151001, -0.2488502562046051, -0.00811568833887577, 0.37699323892593384, 0.10966791957616806, 1.071991205215454, -0.7968435287475586, -0.1408287137746811, -0.681618869304657, 0.7497454881668091, -1.128238558769226, -0.7279398441314697, 0.9829071760177612, -0.45216360688209534, 0.5820104479789734, 0.6585032939910889, -0.2947462797164917, 0.6349096894264221, -0.4890516400337219, 0.4245116114616394, -0.7529829740524292, 0.4574470818042755, 0.8958600163459778, 0.07122693210840225, -0.5036177039146423, -1.1377143859863281, -0.3446413576602936, 0.9607282876968384, -0.13126255571842194, -0.7117419242858887, -0.424765944480896, 1.101062536239624, 0.19502481818199158, -0.6328405737876892, -0.6626666188240051, -0.5300218462944031, -0.5419249534606934, -0.6231431365013123, 0.4414653480052948, -0.84444659948349, 1.1223485469818115, 0.9082620739936829, 1.395182490348816, 0.768753170967102, -0.2257416844367981, -0.30911821126937866, 0.6555150151252747, 0.38391199707984924, -0.18950018286705017, -0.0753144845366478, 0.11677058786153793, -0.7660471200942993, -0.887418270111084, -0.6183828115463257, -0.07075971364974976, -1.3271793127059937, -0.22094517946243286, 0.9117264747619629, 0.024074243381619453, -0.6324929594993591, -0.5574690103530884, 0.15791212022304535, 0.6240144371986389, 0.6212971210479736], [-0.9995954036712646, 0.41284844279289246, -0.4686709940433502, 1.3657991886138916, 0.27018219232559204, 0.973643958568573, -1.1869521141052246, 1.3950968980789185, -0.4982571601867676, -0.29118219017982483, 0.04531138017773628, -0.8173502683639526, -1.2633228302001953, 0.9656731486320496, -1.113957405090332, -1.2683961391448975, 0.42959561944007874, 0.464346319437027, 0.62408447265625, 1.552100419998169, 0.3041033446788788, 0.2747494876384735, -0.5025635957717896, -1.1944881677627563, -0.2948260009288788, -1.0207139253616333, -0.34933462738990784, -1.1039283275604248, 0.7834670543670654, -0.0859149843454361, -0.5789502859115601, 0.11747704446315765, -0.33957991003990173, -0.7798191905021667, 0.2884083688259125, -0.5969880223274231, 0.7686105370521545, -1.7040728330612183, -0.09339818358421326, 0.7226355075836182, 0.025210600346326828, -0.2187022864818573, 0.6285865902900696, -1.1810472011566162, -0.34394553303718567, -0.5621264576911926, -0.1542382389307022, -0.746884822845459, -1.0039749145507812, 0.19930465519428253, 0.5059195756912231, 0.49331656098365784, 1.2274434566497803, -1.2151176929473877, -0.3478127419948578, 1.1021814346313477, 0.6744184494018555, 0.42300477623939514, 0.5798762440681458, -0.9127024412155151, 0.4092358648777008, 0.04903905466198921, -1.2327247858047485, -0.03067481517791748, -0.7116848826408386, -0.14013107120990753, -1.1691840887069702, -1.478256344795227, 1.177459478378296, 0.6528749465942383, -0.9923059344291687, -0.03802850842475891, -0.3494114577770233, -0.0988970398902893, 1.799118161201477, -0.8632996678352356, -1.210018277168274, -0.6690838932991028, -0.25316759943962097, -0.6906747817993164, -0.01959151029586792, 0.5317165851593018, 0.22157306969165802, -1.4278122186660767, -1.5774229764938354, -0.5561017990112305, -0.4452958106994629, -1.0037449598312378, 0.17495845258235931, 0.7624082565307617, -0.30687153339385986, -0.15027768909931183, 0.36414116621017456, 1.1972827911376953, -0.9683263301849365, -0.5159804821014404, 0.5786841511726379, -0.6662253141403198, -0.38627758622169495, 0.5241818428039551, 0.22700592875480652, -0.40946024656295776, -1.932790994644165, -0.9872773289680481, -1.5162941217422485, 0.354580819606781, 0.5569247603416443, -0.8780654072761536, 1.0621709823608398, -0.18204444646835327, -0.9799109697341919, 0.2734006345272064, -1.5779192447662354, -1.2124131917953491, -0.5736952424049377, 0.3166137933731079, -0.2830406427383423, 0.7752982378005981, 0.9810093641281128, 0.8862811923027039, -0.873726487159729, 1.1920483112335205, 0.49201634526252747, 1.1591930389404297, 0.3350556492805481, -1.1678019762039185, 0.3401988446712494, -0.963976263999939], [-0.013979588635265827, -0.1963883638381958, 0.04986510053277016, -0.330172598361969, -0.6495795249938965, 0.6783947944641113, -0.0410056971013546, 0.10671630501747131, 0.36240312457084656, -0.11502867937088013, -0.19002127647399902, -0.04517306014895439, 0.009230051189661026, 0.06439816951751709, -1.110969066619873, 0.14381682872772217, 0.11904139816761017, -0.6348599791526794, -0.912868857383728, -0.30905115604400635, 0.9316206574440002, -0.4124336838722229, -0.40352681279182434, 0.44497355818748474, 0.6842408776283264, -1.3582727909088135, 0.5993337631225586, 0.17158885300159454, -0.9031597375869751, 1.0047177076339722, -0.18012742698192596, 0.6538995504379272, -0.08071978390216827, 0.09463093429803848, -0.04138299822807312, -0.7373762130737305, 1.1555382013320923, 0.43249502778053284, 0.484173446893692, -0.27032315731048584, 0.41934388875961304, 0.06330560147762299, 0.09367237985134125, -1.0956729650497437, 0.5828589797019958, 0.6559393405914307, -0.4844987392425537, -0.0005598920397460461, -0.14857971668243408, 0.3209322690963745, 1.1655371189117432, -0.18657143414020538, 0.8826968669891357, -0.15071305632591248, 0.33020395040512085, 1.2332117557525635, -0.25030598044395447, -0.5731662511825562, -0.9717652201652527, 0.9015454053878784, 0.8615589737892151, -1.1570377349853516, -0.41577982902526855, 0.9858036041259766, 0.23038099706172943, 0.8738946318626404, 0.02378559671342373, -0.33716678619384766, 0.5616360306739807, 1.1460704803466797, -0.3601366877555847, -1.325793981552124, 0.45795536041259766, -0.8937488794326782, -0.3395770788192749, -0.5525038838386536, -0.16124063730239868, -0.35395145416259766, -0.5894060134887695, 0.3428274691104889, 0.36317259073257446, -0.4671027660369873, -0.33735501766204834, -0.1371929794549942, -0.6591734290122986, 0.6061187982559204, 0.21693453192710876, 0.6410946249961853, -0.11839799582958221, 0.6341202259063721, 1.235874891281128, 0.2104291468858719, -1.1090600490570068, 0.5667781233787537, 0.9915814995765686, -0.37163957953453064, -0.6123678088188171, 0.8953179121017456, 0.31349295377731323, -0.4242619276046753, 1.008762240409851, -1.0899467468261719, 0.5518789291381836, -0.6631773114204407, 0.7814919352531433, 0.900715172290802, 0.6551955938339233, -0.9976168870925903, 0.5975842475891113, 0.990241289138794, 1.0487827062606812, -0.5512815713882446, -0.11516888439655304, -1.5711947679519653, -0.29127049446105957, -0.7786267399787903, -0.2800922095775604, 0.6403721570968628, -0.44710060954093933, 0.8525922894477844, -0.06122831627726555, 0.5832251310348511, 0.8279244303703308, 0.9281419515609741, 0.15245197713375092, 0.7064279317855835, 0.2974047064781189, -0.4833819568157196], [0.7590799927711487, -0.0209188312292099, -0.974444568157196, 0.44117310643196106, -0.26008084416389465, 0.09110010415315628, -0.04420649632811546, -0.25210413336753845, 0.7687992453575134, 0.14343389868736267, 1.1883825063705444, -0.39661985635757446, -0.6842138767242432, -1.3565415143966675, -0.6125627160072327, 0.6775574684143066, 0.02170615829527378, 0.894845187664032, -0.6211650371551514, 0.3008885681629181, -1.2038661241531372, -0.23152528703212738, 1.1413264274597168, 0.5387901067733765, 0.1434454768896103, 0.7564114332199097, 0.0893058329820633, 0.06375566869974136, -0.5757681131362915, -1.4328982830047607, -0.10248355567455292, -0.12521909177303314, 0.284591406583786, 0.00792906153947115, -0.19618956744670868, -0.5631911754608154, 0.36490362882614136, 0.7444267272949219, 0.5008507966995239, -0.7232160568237305, 1.1253257989883423, -0.08739477396011353, 0.8863189220428467, -1.4692178964614868, -0.2701377272605896, -0.22688789665699005, -0.3476695716381073, -0.25982213020324707, -0.9671858549118042, -1.4053277969360352, 0.030655980110168457, -1.1871566772460938, 0.44416800141334534, 0.08330868929624557, -0.5215587615966797, -1.2871017456054688, -1.6038968563079834, -0.2816081941127777, 0.5607880353927612, 0.5535655617713928, 0.654962956905365, 2.0995025634765625, 0.3950215280056, -0.50555819272995, -0.6606446504592896, 0.936892032623291, -1.078169584274292, 1.10996675491333, -0.6454038619995117, 1.1444787979125977, 0.8906236886978149, 0.3339354991912842, -1.1917543411254883, -0.7469236254692078, 0.6321799159049988, -0.30030354857444763, -0.4172637462615967, -0.7789782881736755, -0.568649172782898, -1.144605278968811, 0.1461024135351181, -1.0949270725250244, -0.5793399810791016, 0.5423261523246765, 0.14703473448753357, -0.8622509837150574, 0.958540678024292, 0.16713175177574158, 0.48347562551498413, -0.7712880969047546, -0.39965999126434326, 0.7617705464363098, 0.6308362483978271, -0.7991182804107666, 0.9108012318611145, 0.3790411651134491, 0.43323642015457153, 0.18457746505737305, 0.10672163963317871, 0.24272754788398743, -0.49019166827201843, 1.0572707653045654, -0.11635217070579529, -0.01616235449910164, -0.30057016015052795, 0.09415916353464127, -0.24556945264339447, 0.7156903147697449, 1.2470088005065918, 0.4372215270996094, -1.0062156915664673, 0.26047173142433167, -1.3243976831436157, 0.5563492178916931, -1.0912834405899048, 0.21379229426383972, 1.2786216735839844, -0.9022054672241211, 1.788277506828308, -0.3091774582862854, -0.2445673942565918, 1.9292564392089844, 0.12391989678144455, -0.9123448133468628, -0.20011061429977417, -0.19117684662342072, 1.4147478342056274, 0.5719256401062012], [-0.1464223712682724, 0.770375669002533, -0.3929131031036377, 0.8712812662124634, -0.19334471225738525, -0.3657839596271515, -0.6567941308021545, 0.9537455439567566, -0.396613210439682, 0.4587847888469696, -0.4427010118961334, -0.702769935131073, -0.7925599217414856, -0.53277587890625, 0.2581632733345032, 0.8837844133377075, -0.005123387090861797, -1.0649577379226685, -0.359266459941864, 1.2095626592636108, -0.8452086448669434, -0.4153977334499359, 1.1810946464538574, -0.9238945245742798, 0.2883777916431427, -1.1687592267990112, -1.002760648727417, 0.5371471643447876, 0.39376726746559143, -0.6628494262695312, -0.9527460932731628, 0.319240003824234, 0.5702052712440491, 0.614591658115387, -0.31283074617385864, 0.9708830714225769, 1.6026349067687988, -0.5503634810447693, 0.5302773118019104, 1.5901014804840088, 0.07237374037504196, -0.6076431274414062, 0.5099553465843201, -1.1868001222610474, -0.9582562446594238, 0.31170833110809326, -0.058251455426216125, -0.7218452095985413, -0.44606730341911316, -0.6970688104629517, 0.0916130542755127, -0.8903867602348328, 1.4838523864746094, 0.19831857085227966, -0.8692982792854309, -0.658145010471344, 0.45868948101997375, 0.2714886963367462, 0.5452770590782166, 0.22274766862392426, -0.3373543918132782, 0.17969755828380585, 0.35233262181282043, 0.7527816295623779, 0.8891406059265137, 0.108804851770401, 0.6228395700454712, 0.3666379451751709, 1.155470609664917, -0.5718033313751221, -0.11797190457582474, 0.6250045895576477, 0.1245449110865593, -1.5313071012496948, 0.8526386618614197, -0.7541838884353638, -0.500045657157898, -0.20165464282035828, 0.406997948884964, 0.5014538168907166, -1.1497286558151245, 0.8076393008232117, -0.35786283016204834, -0.398625910282135, -0.2535814344882965, 0.12039314955472946, -0.6614421606063843, 0.035186395049095154, -0.868851900100708, 1.0545845031738281, -0.17556214332580566, 0.3526504337787628, 0.15327510237693787, -0.778683602809906, -0.09960487484931946, -0.24183160066604614, 0.7104679942131042, -0.21329185366630554, -1.3782073259353638, -0.20898310840129852, -1.460715413093567, -0.7534729838371277, -0.15696004033088684, 0.3496745526790619, -0.6382318735122681, 1.4792536497116089, 1.1279163360595703, 0.057336676865816116, 0.1696254163980484, 0.041681017726659775, -0.08909978717565536, 0.42361167073249817, -0.8782870173454285, -0.4432896673679352, 0.6080342531204224, 0.13692378997802734, 0.8851141929626465, 0.8650867342948914, 0.2180219292640686, 0.007069918792694807, -0.5346123576164246, -0.3618101477622986, -0.9077162146568298, 0.416273832321167, 0.5800635814666748, 0.7157664895057678, -0.6729682087898254, 0.7565192580223083], [1.296608328819275, -0.7032268643379211, -1.2013707160949707, 1.1017087697982788, 0.28706714510917664, 1.116166353225708, -0.9408707022666931, 1.1286547183990479, 0.8912424445152283, 0.8046567440032959, -0.4445481300354004, -0.6734812259674072, -1.6259517669677734, -0.17415811121463776, -0.462098628282547, -0.17004206776618958, 0.31941965222358704, -1.2048205137252808, 0.4807695150375366, -0.6552991271018982, 0.003524074563756585, 0.781844437122345, 1.1694658994674683, 0.11170318722724915, 0.20594312250614166, 0.21146856248378754, 0.3903678357601166, -0.3006652593612671, -0.013813775964081287, -1.5884227752685547, -1.0198427438735962, -0.8027806282043457, 0.9239521622657776, 0.013182657770812511, -0.9977693557739258, -0.27903375029563904, 1.1754757165908813, 0.019541598856449127, -0.7705445289611816, 0.824317991733551, -1.149513602256775, -0.036999717354774475, 0.7679643034934998, 0.6034252047538757, 0.8996513485908508, 0.940359890460968, 0.2503793239593506, 0.6488187909126282, -0.7312190532684326, -1.3485331535339355, 0.3508228361606598, -1.6892163753509521, 0.5945634841918945, 0.7085564136505127, -0.11180026084184647, 0.6229339241981506, 0.490662544965744, -0.4928585886955261, -1.3106077909469604, 1.1900758743286133, -0.8704882860183716, 0.23461949825286865, -0.3540167808532715, 1.0853103399276733, -0.3371511697769165, -1.0923104286193848, 1.077290415763855, 0.7817367911338806, -0.26731017231941223, -0.7946025133132935, 1.5870933532714844, 0.8829078078269958, -0.2196803092956543, 0.8602395057678223, -0.2232164591550827, -0.7279893159866333, 0.1265747994184494, -1.1697839498519897, -1.4561030864715576, -0.6298559308052063, -1.039350152015686, 0.9581372737884521, -0.8307822346687317, 1.0700962543487549, 0.006376108154654503, -1.2621690034866333, -1.428328514099121, -0.6712614893913269, -0.3497143089771271, -0.7365885972976685, 0.1671420931816101, 0.1815904825925827, 0.3019917607307434, -0.021438797935843468, 0.46103066205978394, -0.0012565884971991181, 1.1882883310317993, 0.586219310760498, 0.5572331547737122, -0.3254758417606354, 0.21831734478473663, -0.06844158470630646, 0.045700911432504654, 0.10488252341747284, -0.23366564512252808, -0.7451634407043457, 0.13093873858451843, -1.3268145322799683, -0.3812595009803772, -0.19588904082775116, -1.4233033657073975, -0.08764930069446564, 0.5402172803878784, -0.24438007175922394, 0.19680117070674896, 0.9886059165000916, 0.5806010961532593, 0.20891602337360382, 0.22225575149059296, 0.44088685512542725, 0.4209566116333008, 1.1280148029327393, -0.6340610384941101, 0.6480709910392761, -0.6498219966888428, 0.7715269327163696, -0.42748257517814636, -0.18613950908184052], [-0.4042091369628906, 0.18660594522953033, -0.23947446048259735, -0.8256189823150635, 0.02514703944325447, -0.07012314349412918, -0.3763877749443054, 0.15269964933395386, 0.20289193093776703, 0.15252800285816193, 0.2220468968153, 0.22775967419147491, 0.3359680771827698, 0.47191089391708374, -0.2962266802787781, 0.05479089170694351, -0.2564241290092468, 0.17077796161174774, -0.1942949742078781, -0.33918458223342896, -0.23524416983127594, 0.1649893820285797, -0.08781085163354874, -0.38469207286834717, -0.1985761523246765, -0.4576936662197113, -0.027234159409999847, 0.5176315307617188, 0.18776756525039673, 0.6550028324127197, 0.09292908012866974, -0.23546446859836578, 0.35809263586997986, 0.5608047246932983, -0.5196462869644165, 0.0752856582403183, -0.379050612449646, 0.019081266596913338, 0.4094100892543793, -0.4564458429813385, 0.08371520042419434, 0.33284977078437805, 0.2653381824493408, 0.31023597717285156, 0.06789389997720718, -0.29917019605636597, -0.4438461363315582, 0.2682875096797943, -0.3515816330909729, 0.5480847954750061, -0.18990594148635864, 0.11414452642202377, -0.04836283624172211, -0.2789173424243927, 0.12449435889720917, -0.22768118977546692, -0.08295254409313202, -0.015540609136223793, -0.6029350757598877, 0.3800636827945709, -0.4137505292892456, -0.20531563460826874, 0.46108368039131165, 0.35496124625205994, -0.478084534406662, 0.21664687991142273, -0.40111085772514343, -0.24851836264133453, 0.09090301394462585, 0.2089231163263321, -0.49164170026779175, 0.3318161070346832, 0.18301191926002502, -0.5045353770256042, 0.06609033048152924, 0.05894940719008446, -0.4777018427848816, -0.10050295293331146, 0.34452974796295166, -0.5473320484161377, -0.3025209307670593, 0.048880890011787415, -0.1270395815372467, -0.6658698916435242, 0.45201897621154785, 0.461292028427124, 0.7655045390129089, -0.25903430581092834, -0.41256511211395264, 0.40966561436653137, 0.30666255950927734, -0.018616950139403343, -0.24737046658992767, 0.19381903111934662, -0.01882447861135006, 0.37511754035949707, 0.29487648606300354, -0.2531299889087677, -0.23083354532718658, 0.22173330187797546, -0.5459343791007996, -0.34865203499794006, -0.5079402327537537, 0.8686324954032898, 0.3143271505832672, -0.27150434255599976, 0.26783931255340576, 0.07245533168315887, -0.46266970038414, -0.5022224187850952, -0.35923221707344055, -0.19426822662353516, -0.1610843539237976, -0.43469128012657166, 0.08376108109951019, 0.09184608608484268, -0.4793931841850281, 0.23724521696567535, -0.19196267426013947, 0.5528600811958313, -0.4633575677871704, 0.13494201004505157, -0.4627837836742401, -0.3866633176803589, -0.0849347934126854, 0.3666808009147644, 0.2803904712200165, 0.5461965203285217], [-0.06215323507785797, -0.0717879980802536, -0.24903976917266846, -0.29446035623550415, -0.011422010138630867, -0.40701785683631897, 0.1109800934791565, -0.062132369726896286, 0.08434463292360306, 0.22726808488368988, 0.08662789314985275, -0.30479875206947327, 0.21449996531009674, 0.2306136190891266, -0.2265591025352478, 0.2679196298122406, -0.3567940294742584, 0.028129272162914276, 0.08602190762758255, 0.04188222438097, -0.02187143638730049, 0.11625956743955612, -0.12361378222703934, 0.11584757268428802, 0.4423958957195282, -0.19690746068954468, -0.3165724277496338, -0.3309868574142456, -0.10726737231016159, 0.3405100703239441, 0.048470400273799896, 0.035552509129047394, 0.06976497173309326, 0.15630482137203217, -0.25617825984954834, -0.02056756615638733, 0.18965956568717957, 0.3840194344520569, -0.24684444069862366, 0.1547839492559433, -0.0704641118645668, 0.19403176009655, -0.25100213289260864, -0.09528672695159912, -0.14837543666362762, -0.18269580602645874, 0.16147558391094208, -0.1241067573428154, 0.4154188632965088, 0.045141756534576416, -0.09944997727870941, 0.18821392953395844, 0.2788914740085602, 0.3800516128540039, -0.07101192325353622, 0.3493393361568451, -0.07306668162345886, 0.09353447705507278, -0.0390801727771759, 0.30656665563583374, 0.1194286048412323, 0.3435054123401642, -0.23767343163490295, -0.5172306895256042, -0.3060498833656311, 0.3786216974258423, 0.24140769243240356, 0.09022177755832672, -0.3482343554496765, 0.2190227210521698, -0.07351942360401154, -0.07881201058626175, -0.1353914737701416, -0.3015593886375427, -0.04940638318657875, 0.17168942093849182, 0.036635156720876694, 0.0355677492916584, -0.0942433699965477, -0.5531534552574158, 0.20721976459026337, -0.06669933348894119, -0.22973766922950745, -0.2538370192050934, -0.2955634295940399, -0.17846745252609253, 0.36234089732170105, -0.47896841168403625, 0.5570595860481262, -0.32650119066238403, -0.023808032274246216, -0.3203788995742798, -0.007316738832741976, 0.2532323896884918, -0.03345946595072746, -0.26609349250793457, 0.3575943112373352, 0.35581305623054504, 0.4060002863407135, -0.5726926922798157, 0.24304214119911194, -0.4002818465232849, 0.10052616894245148, 0.013817396014928818, 0.30903109908103943, 0.10478945821523666, -0.23028235137462616, 0.13972246646881104, 0.2948348820209503, -0.45410823822021484, -0.505649983882904, -0.2178068459033966, 0.2134755402803421, 0.4437951445579529, 0.043918415904045105, -0.24980857968330383, -0.11665928363800049, 0.14376313984394073, -0.08079936355352402, 0.221323162317276, -0.2547023892402649, 0.3819030821323395, -0.2819775938987732, -0.41699665784835815, 0.1673535257577896, -0.06556136161088943, -0.03415926173329353, 0.09078697860240936], [-0.34623563289642334, -0.31311944127082825, 0.2137618213891983, -0.4966016113758087, 0.24275736510753632, 0.18445226550102234, 0.11766775697469711, 0.024249901995062828, 0.1590784788131714, -0.222617506980896, 0.07323773205280304, -0.266912043094635, -0.3005981147289276, -0.2828623354434967, 0.2173578143119812, 0.06399580836296082, 0.2843565344810486, -0.11239241808652878, -0.056428540498018265, 0.1490287482738495, 0.14912554621696472, 0.22955027222633362, 0.10739409178495407, 0.3068009614944458, -0.2552700936794281, 0.0291720200330019, 0.01369756180793047, 0.08803312480449677, 0.0016645477153360844, 0.2728685736656189, 0.14112582802772522, 0.4066096544265747, -0.16446752846240997, -0.07687477767467499, -0.300671249628067, -0.371930330991745, -0.2960399389266968, 0.1774779111146927, 0.297720730304718, 0.4087604582309723, 0.17088481783866882, 0.21826881170272827, -0.2824018597602844, 0.3237295150756836, 0.1268036663532257, -0.2485109269618988, -0.29615116119384766, -0.29611730575561523, 0.3755885064601898, -0.31956154108047485, 0.11619146168231964, 0.10933546721935272, -0.21650485694408417, 0.08703844249248505, 0.06353598833084106, 0.24187332391738892, -0.038071874529123306, 0.46311309933662415, -0.07452277094125748, -0.04857796058058739, -0.19314737617969513, 0.28642919659614563, -0.31520989537239075, -0.11821501702070236, -0.3400889039039612, 0.12306322902441025, -0.1871531903743744, 0.09787432849407196, 0.18164896965026855, -0.12193978577852249, -0.2640116214752197, -0.1857418715953827, 0.0914822369813919, -0.16324123740196228, 0.18622922897338867, -0.22345328330993652, -0.30936288833618164, -0.08002631366252899, -0.13126136362552643, -0.1089262142777443, 0.21190769970417023, -0.3117767572402954, -0.27402207255363464, 0.4007110893726349, -0.23282691836357117, -0.4023880958557129, -0.09192656725645065, 0.1360228806734085, -0.36085939407348633, 0.16067248582839966, -0.14507555961608887, 0.32821184396743774, -0.24469776451587677, -0.2692486047744751, -0.4401205778121948, -0.274260550737381, -0.1716393679380417, -0.06190391257405281, -0.15612316131591797, -0.37602028250694275, 0.1150539219379425, 0.28272759914398193, 0.10825569182634354, 0.0017504057614132762, 0.38204020261764526, 0.10389772057533264, -0.17985177040100098, -0.46626922488212585, -0.30017492175102234, -0.10384634137153625, -0.4300597906112671, -0.16356134414672852, -0.1373540461063385, 0.2721915543079376, -0.1845521479845047, -0.2727324664592743, 0.3937077224254608, -0.00927119143307209, -0.16584305465221405, -0.3826444745063782, 0.2850351631641388, 0.23905697464942932, -0.14275676012039185, -0.274381548166275, -0.0897183045744896, -0.04531839117407799, -0.008443230763077736, 0.25619709491729736], [-0.18510816991329193, 0.14595411717891693, -0.0515209324657917, -0.17011606693267822, -0.11955191195011139, -0.36031368374824524, 0.034190330654382706, -0.205769345164299, 0.39592376351356506, 0.09552894532680511, -0.29571378231048584, 0.013938824646174908, -0.025039372965693474, -0.4041421711444855, 0.3708837032318115, -0.08840381354093552, -0.43870073556900024, -0.0816781297326088, -0.4280923008918762, -0.2937719523906708, 0.13993878662586212, -0.49499237537384033, 0.26460856199264526, -0.22472357749938965, -0.017473476007580757, -0.4831342101097107, 0.41433197259902954, 0.35018736124038696, -0.4195106625556946, -0.4025251567363739, -0.3744336664676666, -0.05944813787937164, -0.06098046526312828, -0.1406758576631546, -0.08144840598106384, 0.2064998894929886, 0.43029049038887024, -0.5260941386222839, 0.03408324718475342, 0.3502938449382782, 0.1722797006368637, -0.39262059330940247, 0.33602672815322876, 0.0017685156781226397, 0.4172433316707611, -0.4860900938510895, 0.19552010297775269, 0.2362116426229477, 0.23472583293914795, 0.30911770462989807, -0.14260335266590118, -0.005261404439806938, -0.19818849861621857, -0.12386660277843475, -0.013310378417372704, -0.2979104518890381, 0.5517731308937073, -0.14374718070030212, -0.32427868247032166, 0.042488373816013336, -0.39723148941993713, -0.29274284839630127, -0.4200426936149597, -0.35172712802886963, -0.1398029625415802, 0.2579314112663269, -0.23174305260181427, -0.04151415079832077, -0.02298128977417946, -0.4130794405937195, -0.07979031652212143, -0.33160775899887085, 0.4964253604412079, -0.19784830510616302, 0.01632756181061268, 0.38655948638916016, 0.417709082365036, -0.12342619895935059, -0.12308001518249512, 0.3265330195426941, 0.48535996675491333, 0.23952750861644745, -0.353415310382843, 0.22353552281856537, -0.2476542890071869, -0.3076077103614807, -0.07777832448482513, -0.424847275018692, 0.13666771352291107, 0.22302423417568207, 0.33251482248306274, 0.3125399649143219, 0.34977445006370544, 0.1617499738931656, -0.24898570775985718, -0.28188538551330566, 0.27524298429489136, 0.19796568155288696, 0.13869042694568634, -0.30479827523231506, -0.0801287293434143, 0.3294978439807892, 0.21429796516895294, -0.01821407489478588, 0.30447450280189514, 0.06382602453231812, 0.25070613622665405, 0.3638290762901306, -0.609562873840332, 0.17196057736873627, 0.06522450596094131, -0.12761381268501282, -0.36945345997810364, 0.24743857979774475, 0.1780848354101181, -0.08578129857778549, 0.17575718462467194, -0.17620666325092316, -0.34728628396987915, -0.05391731113195419, 0.2062777429819107, 0.3383871614933014, 0.5206397175788879, 0.19495579600334167, 0.12324029952287674, -0.12525951862335205, -0.41075462102890015, -0.39433684945106506], [0.3248592019081116, -0.32666727900505066, 0.11481602489948273, 0.24110785126686096, -0.09730023890733719, 0.12348952889442444, 0.1267031878232956, 0.005553911905735731, -0.14974498748779297, -0.07302334159612656, 0.11621992290019989, -0.3226093053817749, -0.04734695702791214, -0.35087546706199646, 0.08178295940160751, -0.5315396785736084, 0.5067150592803955, 0.06742578744888306, 0.044434208422899246, 0.07282610982656479, -0.051225483417510986, 0.3286941647529602, 0.17298850417137146, -0.5832148194313049, -0.00751351285725832, 0.04329386353492737, -0.23774400353431702, 0.49070966243743896, -0.3104420602321625, 0.02821420691907406, -0.22496426105499268, 0.2533055245876312, 0.272244393825531, -0.24074521660804749, 0.38165634870529175, -0.3063271641731262, -0.10512685030698776, -0.21139228343963623, 0.496998131275177, 0.3227166533470154, -0.2812414765357971, -0.36673882603645325, 0.022106846794486046, 0.2410951852798462, -0.0016802710015326738, -0.0882967859506607, -0.12462920695543289, -0.04427996650338173, 0.23059110343456268, 0.19900895655155182, -0.210322305560112, 0.003003418678417802, 0.17376500368118286, 0.10775967687368393, 0.08264091610908508, 0.15868298709392548, 0.26567551493644714, -0.09124276041984558, 0.10704800486564636, -0.0040466501377522945, -0.12267111986875534, 0.3886530101299286, -0.268606960773468, -0.3954681158065796, -0.0891856998205185, -0.15882481634616852, -0.31212225556373596, 0.21837429702281952, -0.07795621454715729, -0.4335373640060425, -0.18021933734416962, -0.26984938979148865, 0.46856310963630676, -0.09811203926801682, 0.1894761621952057, -0.04671398922801018, -0.10502279549837112, 0.511372447013855, -0.2103545218706131, -0.3651830554008484, -0.3358250856399536, -0.06603704392910004, 0.16565777361392975, -0.17120537161827087, -0.3093528151512146, 0.040805116295814514, 0.45449182391166687, 0.43320223689079285, -0.40560364723205566, -0.18662509322166443, -0.03797407075762749, 0.3584326207637787, -0.02262674830853939, -0.14629961550235748, -0.10558753460645676, 0.1328813135623932, -0.06981844455003738, -0.22507227957248688, 0.2660921514034271, -0.26418817043304443, 0.07805491983890533, 0.3556126356124878, -0.28463518619537354, 0.1205051988363266, 0.20571459829807281, 0.1955246478319168, 0.17785130441188812, 0.0914195254445076, 0.12661844491958618, -0.22906899452209473, -0.46047812700271606, -0.14387013018131256, -0.10822836309671402, -0.36668530106544495, 0.36446675658226013, -0.08355497568845749, -0.02581491507589817, -0.16441813111305237, -0.11676454544067383, 0.09511835873126984, -0.5228262543678284, 0.0321517139673233, -0.3894597887992859, -0.055971816182136536, 0.2383742481470108, 0.02195916511118412, 0.22829009592533112, 0.2042451947927475], [0.26920872926712036, -0.027309468016028404, 0.3454006016254425, -0.15043747425079346, 0.2392471432685852, -0.2855474352836609, -0.24633267521858215, -0.1517132669687271, -0.20105697214603424, -0.06122273951768875, -0.23752743005752563, 0.07904040068387985, 0.14752157032489777, 0.1397213339805603, -0.2494851052761078, 0.05831698700785637, -0.12620557844638824, -0.04484136030077934, 0.2685786783695221, 0.15553154051303864, -0.2568597197532654, -0.2251817286014557, 0.20167411863803864, 0.19892147183418274, -0.1219375729560852, -0.0410708487033844, -0.23447613418102264, 0.10200100392103195, 0.10492479056119919, 0.3307558298110962, -0.14483919739723206, 0.25184714794158936, -0.2444741427898407, 0.35877466201782227, -0.10980348289012909, -0.1573849618434906, -0.16398978233337402, -0.2752089202404022, -0.02315838262438774, 0.3730814456939697, 0.02571871690452099, 0.029773734509944916, 0.09243348985910416, 0.04201860353350639, 0.20866937935352325, -0.20606854557991028, -0.25265705585479736, 0.001874404028058052, 0.2881387174129486, 0.030373064801096916, 0.3510483503341675, 0.324971079826355, 0.0014302786439657211, -0.30014437437057495, 0.03109228052198887, 0.31480440497398376, -0.4165152609348297, -0.08465269953012466, -0.275274395942688, -0.22807705402374268, 0.1813793182373047, 0.37973451614379883, -0.25405335426330566, -0.3058866262435913, 0.1408480554819107, -0.2551739811897278, -0.479740172624588, 0.14922653138637543, 0.07256747037172318, -0.3381001651287079, 0.1795111894607544, -0.1840573400259018, -0.04044569283723831, -0.2542562782764435, -0.35561925172805786, 0.0593569278717041, -0.15573272109031677, -0.1763332486152649, -0.09532458335161209, 0.21730269491672516, 0.2989005446434021, -0.5504067540168762, -0.129124715924263, -0.08851489424705505, -0.0358055979013443, -0.315787672996521, -0.2241818755865097, 0.013356686569750309, -0.06036864221096039, -0.11186397075653076, -0.2919978201389313, 0.1954532265663147, 0.2664675712585449, 0.06289350986480713, -0.047067347913980484, 0.15811115503311157, -0.298931747674942, 0.06529779732227325, -0.04132292792201042, -0.3216187655925751, -0.11074428260326385, 0.2470071166753769, 0.3943368196487427, 0.07978831976652145, 0.04339071363210678, 0.20202518999576569, -0.08282917737960815, 0.21151408553123474, -0.1615411341190338, -0.30561766028404236, -0.25277045369148254, 0.047040145844221115, -0.202177494764328, -0.08629843592643738, 0.07271621376276016, 0.3583381772041321, 0.16096283495426178, -0.02759920433163643, 0.06835117936134338, -0.2667585611343384, 0.12693870067596436, -0.09887923300266266, 0.06864704936742783, -0.0875987708568573, -0.22691193222999573, -0.09217122197151184, 0.30928632616996765, -0.10103363543748856], [-0.3494812250137329, -0.15134622156620026, 0.2218436896800995, -0.1796957552433014, 0.2302573174238205, -0.421623170375824, 0.32574567198753357, -0.13898546993732452, -0.054312754422426224, -0.1281033158302307, 0.32433030009269714, 0.12979978322982788, 0.03323369100689888, -0.4069271981716156, -0.12089993059635162, -0.262753963470459, -0.2946067154407501, -0.1474275439977646, 0.14861059188842773, 0.1929643601179123, 0.04460916668176651, -0.2240845263004303, 0.2006784826517105, 0.4206039011478424, 0.18080191314220428, -0.3190549910068512, 0.5116196870803833, -0.12128758430480957, 0.2561110854148865, 0.04528149589896202, 0.26439470052719116, 0.12652726471424103, 0.09391732513904572, -0.09977509826421738, -0.3156663477420807, 0.10896473377943039, 0.0882454365491867, 0.21709944307804108, -0.21020381152629852, 0.3660547137260437, 0.25746822357177734, -0.27097105979919434, -0.4581376314163208, -0.046578772366046906, -0.0018590682884678245, 0.21272581815719604, 0.11602383106946945, -0.02643933892250061, -0.1457751989364624, 0.22334463894367218, -0.0976240411400795, -0.12401221692562103, -0.3375808000564575, -0.32806020975112915, 0.09003608673810959, 0.058906182646751404, -0.4534739553928375, -0.1871454119682312, -0.33854541182518005, 0.00209397473372519, -0.07913490384817123, 0.0024427887983620167, 0.39619386196136475, 0.28506916761398315, 0.11168680340051651, -0.26266130805015564, 0.06689407676458359, -0.21191653609275818, -0.3535859286785126, -0.013955079019069672, -0.15441490709781647, -0.3343202471733093, -0.2947215437889099, 0.4303619861602783, -0.05745795741677284, 0.17960500717163086, -0.11565275490283966, 0.19132938981056213, 0.41594749689102173, 0.2002796083688736, 0.008689318783581257, 0.2572759985923767, 0.24170798063278198, -0.3022634983062744, -0.008895382285118103, -0.13444329798221588, -0.11855348944664001, -0.3756558299064636, -0.17168639600276947, 0.21094636619091034, -0.390768438577652, -0.2203911542892456, 0.27752384543418884, 0.21909914910793304, -0.04468506574630737, -0.17021581530570984, -0.3401288092136383, -0.501278281211853, 0.32697296142578125, -0.6127559542655945, 0.02824271284043789, 0.3545023500919342, 0.04279998317360878, 0.08939168602228165, -0.20150721073150635, -0.23318712413311005, 0.17375849187374115, 0.40427160263061523, 0.31736326217651367, -0.36670124530792236, 0.3327929675579071, -0.23959875106811523, -0.15957924723625183, -0.05760405212640762, 0.031990159302949905, -0.19489800930023193, 0.22751331329345703, -0.11503293365240097, -0.16617171466350555, 0.29579782485961914, 0.11760900169610977, 0.062209345400333405, -0.464031845331192, 0.0810902938246727, -0.21264033019542694, 0.4068542420864105, 0.34963369369506836, -0.29347777366638184], [0.27823516726493835, -0.38563960790634155, 0.2893514633178711, -0.07987795025110245, -0.0639515146613121, -0.5397528409957886, 0.19208896160125732, -0.07361990213394165, 0.14188699424266815, 0.34674543142318726, -0.0011012105969712138, -0.17411714792251587, 0.03278632462024689, 0.2995259165763855, -0.2902768552303314, 0.3140983283519745, -0.2571951448917389, -0.4366632103919983, 0.3620009422302246, -0.10397869348526001, 0.28932762145996094, 0.2156720906496048, 0.11518137902021408, 0.24846793711185455, -0.052938684821128845, 0.4424436688423157, -0.16842418909072876, -0.05034296214580536, 0.3994162082672119, -0.5018278956413269, 0.003990659024566412, -0.5803576111793518, -0.24552685022354126, -0.41414186358451843, 0.5014192461967468, 0.3179149925708771, -0.1024554893374443, 0.21161682903766632, -0.21005292236804962, 0.09835880994796753, 0.2775878608226776, -0.42305248975753784, -0.33465951681137085, -0.3972098231315613, -0.4365670382976532, -0.22380714118480682, -0.24243904650211334, -0.11334263533353806, -0.35321244597435, 0.022184913977980614, 0.2128186672925949, -0.27308645844459534, 0.21830753982067108, -0.29685211181640625, 0.05799167603254318, 0.33784523606300354, 0.27435001730918884, -0.21993952989578247, -0.03585758060216904, 0.36541154980659485, 0.37152671813964844, -0.14883384108543396, -0.4611223638057709, -0.03962837532162666, -0.5084549188613892, 0.3487016260623932, -0.3517788052558899, -0.12664754688739777, 0.2841228246688843, -0.2897047698497772, 0.22515735030174255, -0.46882903575897217, 0.08866903185844421, -0.4749003052711487, 0.029415864497423172, 0.008023549802601337, -0.008805654011666775, -0.1262384057044983, -0.22737637162208557, -0.4347815215587616, 0.01660909876227379, 0.3384297788143158, 0.08835484832525253, -0.07981676608324051, -0.09021349251270294, 0.34247609972953796, 0.010284539312124252, 0.30777478218078613, -0.5393083691596985, -0.4384024441242218, 0.20252303779125214, -0.1498793363571167, 0.09896165877580643, -0.33851972222328186, 0.023159313946962357, -0.20447467267513275, 0.16548652946949005, 0.07188773155212402, -0.16456595063209534, -0.15282787382602692, 0.3392602503299713, -0.03435662016272545, 0.27674463391304016, -0.08982108533382416, 0.3430660665035248, 0.3977140784263611, -0.09520065039396286, 0.21653057634830475, -0.18336008489131927, -0.2471335530281067, 0.06284215301275253, 0.09347684681415558, -0.45281800627708435, 0.1690133810043335, 0.15613830089569092, 0.4698296785354614, -0.302713006734848, 0.08851350098848343, 0.3213408589363098, 0.4317328929901123, 0.06325915455818176, -0.3755490779876709, -0.004374062176793814, -0.23965585231781006, 0.45112916827201843, 0.41461554169654846, -0.22140108048915863, 0.28291288018226624], [-0.2764734625816345, -0.07334764301776886, 0.33815547823905945, 0.334829181432724, 0.026637429371476173, -0.007261313032358885, -0.5105710029602051, -0.08725549280643463, -0.33369407057762146, -0.2717600166797638, 0.019679365679621696, -0.29987090826034546, -0.28718093037605286, -0.161936417222023, -0.3819478154182434, -0.28488123416900635, -0.27856647968292236, -0.06620348244905472, -0.23302415013313293, -0.0031830656807869673, -0.3126241862773895, -0.21231399476528168, 0.00627219257876277, -0.0629960149526596, -0.11862070858478546, 0.053496379405260086, -0.08665454387664795, -0.13861002027988434, 0.373421311378479, 0.23737840354442596, 0.3087649643421173, 0.29944637417793274, 0.2523854374885559, 0.11773465573787689, -0.15288864076137543, 0.33980700373649597, 0.09911725670099258, -0.32355228066444397, -0.41843023896217346, 0.2182755023241043, -0.3868110775947571, -0.0007021582568995655, -0.302055686712265, 0.15799514949321747, -0.3349967896938324, 0.2206808477640152, 0.452460378408432, 0.07652546465396881, 0.16750115156173706, -0.15710324048995972, 0.016689052805304527, 0.138015478849411, 0.035227928310632706, -0.3032051622867584, -0.04279026389122009, -0.37200596928596497, 0.3681914508342743, 0.024902932345867157, 0.2602262496948242, 0.39955613017082214, 0.05647551640868187, -0.047663770616054535, 0.17115254700183868, -0.23654118180274963, -0.026075005531311035, -0.060970488935709, -0.1630479097366333, -0.006895679514855146, 0.39880579710006714, 0.19305144250392914, 0.04637647420167923, -0.18521833419799805, 0.17211097478866577, -0.13435111939907074, -0.03966676816344261, -0.19112128019332886, 0.03617103770375252, -0.08236851543188095, 0.1934097409248352, -0.41473516821861267, -0.3636816442012787, -0.028989721089601517, 0.09861327707767487, 0.33075690269470215, 0.22699452936649323, -0.07334395498037338, -0.5032961368560791, -0.2105223685503006, -0.0651247650384903, -0.09527964144945145, -0.23525340855121613, 0.43531256914138794, -0.14458100497722626, 0.1523616909980774, 0.20334239304065704, -0.16184672713279724, 0.22001594305038452, 0.1281084567308426, 0.1694367229938507, 0.400324285030365, 0.46524253487586975, -0.3518441319465637, 0.011841953732073307, -0.024189308285713196, 0.26138409972190857, -0.14147154986858368, -0.053183022886514664, 0.08636169135570526, -0.3767029345035553, 0.04740742966532707, -0.007023643236607313, 0.33366623520851135, -0.43401917815208435, 0.3182324469089508, -0.1679241955280304, 0.47652295231819153, 0.4365044832229614, 0.2104111611843109, -0.13611865043640137, 0.19663047790527344, -0.146559938788414, 0.09144081920385361, -0.01125760842114687, 0.3224526047706604, 0.12315227836370468, -0.009545809589326382, 0.39806047081947327, 0.019902842119336128], [0.2634512484073639, 0.04507772997021675, -0.36833012104034424, -0.1637665331363678, 0.057465311139822006, -0.31239840388298035, -0.30361562967300415, 0.17178897559642792, -0.005447123199701309, -0.335605263710022, -0.23935291171073914, 0.2656475305557251, 0.24578134715557098, 0.4648860692977905, -0.13219395279884338, 0.4844580292701721, 0.14580929279327393, -0.06050201505422592, -0.06132366135716438, -0.2862927317619324, 0.0697568729519844, -0.26958993077278137, 0.005369663704186678, -0.17319568991661072, -0.22962473332881927, 0.13654455542564392, -0.3913378417491913, 0.19145961105823517, -0.09361771494150162, -0.1474190354347229, 0.04699377343058586, -0.06119793653488159, 0.14504005014896393, 0.37632912397384644, 0.4056924879550934, -0.4545689523220062, -0.5360187888145447, 0.4882495701313019, -0.3772335350513458, -0.34019631147384644, -0.2759195864200592, 0.0434250682592392, 0.3024555742740631, 0.27146583795547485, -0.34310483932495117, -0.2023494392633438, -0.1816861629486084, -0.026541603729128838, -0.0588887594640255, -0.1389380693435669, -0.033562321215867996, 0.16724056005477905, 0.42398762702941895, 0.021792178973555565, -0.33583417534828186, -0.1161852777004242, 0.262835294008255, -0.05591629073023796, 0.24096067249774933, 0.3138962686061859, -0.37368685007095337, 0.5354399681091309, -0.14056050777435303, 0.4089651107788086, -0.008099626749753952, -0.17168255150318146, -0.33176395297050476, 0.5157092809677124, 0.2985728681087494, 0.22352883219718933, -0.05772906169295311, -0.1484074741601944, 0.5156685709953308, -0.05860711634159088, 0.18498297035694122, -0.5447584986686707, 0.16054540872573853, -0.08186601102352142, 0.05046908184885979, -0.4189170300960541, -0.23570546507835388, 0.013395700603723526, -0.10575760900974274, 0.02114410512149334, 0.1854190081357956, -0.09730655699968338, -0.29631295800209045, 0.108771912753582, 0.2240828424692154, 0.035202208906412125, -0.5588995218276978, -0.052958641201257706, -0.16953936219215393, 0.25914186239242554, 0.10206262022256851, 0.1366196572780609, 0.01930191181600094, 0.3078695237636566, -0.29137903451919556, 0.30676770210266113, -0.06198549643158913, -0.2800736129283905, 0.5004878640174866, 0.27769458293914795, 0.49010270833969116, 0.46692848205566406, 0.3163188397884369, 0.2354080080986023, 0.07308070361614227, 0.3828331232070923, 0.028323346748948097, -0.3716908395290375, 0.3010869324207306, -0.5854038596153259, -0.11124859750270844, -0.02969987876713276, -0.2272428721189499, 0.18411867320537567, 0.026137948036193848, 0.2622039318084717, -0.42275381088256836, 0.23228953778743744, -0.5965490341186523, 0.207742840051651, -0.47913631796836853, 0.2049379199743271, 0.3374076187610626, 0.21142369508743286], [-0.2213624268770218, 0.2497939020395279, 0.24888008832931519, -0.5003201365470886, 0.31484028697013855, -0.29378798604011536, -0.04132087901234627, -0.4452391266822815, -0.46606624126434326, -0.15982459485530853, 0.1266796737909317, -0.2720777094364166, -0.08368942886590958, -0.13602390885353088, 0.29292523860931396, -0.1471269428730011, -0.34589847922325134, -0.5200727581977844, 0.0552837997674942, 0.059669408947229385, 0.021759921684861183, 0.5042596459388733, 0.4384233355522156, -0.1455751210451126, 0.28356075286865234, -0.10532618314027786, -0.5912017822265625, 0.30633437633514404, 0.16700685024261475, 0.1305442452430725, 0.33491817116737366, -0.4943610727787018, 0.3716318607330322, -0.32988211512565613, -0.3686084449291229, -0.061474207788705826, 0.24957850575447083, -0.24931658804416656, -0.10385709255933762, 0.12220781296491623, -0.4485337734222412, 0.5151025652885437, -0.770595133304596, 0.24200527369976044, -0.46038010716438293, -0.5763235688209534, 0.1362045556306839, -0.3567289412021637, -0.13282807171344757, 0.21858997642993927, 0.30950236320495605, 0.35443568229675293, 0.03134097158908844, 0.12375016510486603, -0.10874418169260025, 0.01169669721275568, -0.17713062465190887, 0.2174050211906433, 0.4381762146949768, -0.28220757842063904, -0.14939825236797333, -0.4488317668437958, 0.16013716161251068, -0.10343728959560394, 0.18597254157066345, -0.11130935698747635, -0.3384053111076355, 0.41108208894729614, 0.07654334604740143, 0.09509936720132828, 0.18448831140995026, 0.012300116010010242, 0.0730288103222847, -0.1410207450389862, 0.17542032897472382, -0.06902877241373062, 0.09630768746137619, 0.15321683883666992, -0.3588290810585022, -0.23413346707820892, -0.44514355063438416, 0.065263532102108, -0.2486492544412613, 0.19063717126846313, -0.16783742606639862, -0.21577517688274384, -0.6198546290397644, 0.1225784495472908, -0.30878695845603943, 0.14408360421657562, -0.5141118764877319, 0.35734736919403076, 0.2262873500585556, -0.411532998085022, 0.25929394364356995, -0.44994550943374634, 0.4095577597618103, -0.26676735281944275, 0.18109481036663055, -0.2867962419986725, 0.08710400015115738, -0.26395362615585327, -0.09614498913288116, 0.037775833159685135, 0.12142365425825119, -0.12771885097026825, -0.047621529549360275, 0.14817406237125397, -0.2479202300310135, -0.20366540551185608, 0.29587557911872864, -0.5395012497901917, -0.09996697306632996, 0.22937099635601044, 0.14918915927410126, 0.4692554771900177, 0.452912837266922, -0.07254420220851898, 0.23679551482200623, 0.5332736372947693, 0.23369000852108002, 0.01210122462362051, -0.3433372974395752, -0.11692734807729721, -0.2974068522453308, 0.12656450271606445, -0.327853262424469, -0.26662731170654297], [-0.3402306139469147, 0.3765352666378021, -0.015260948799550533, -0.24281582236289978, -0.32202276587486267, -0.002263908740133047, -0.2575441896915436, 0.0028610394801944494, -0.08160943537950516, -0.35609716176986694, 0.3823549449443817, 0.009924755431711674, 0.35436341166496277, 0.2989351749420166, 0.02329803816974163, -0.0195067897439003, 0.43913114070892334, -0.2543838620185852, -0.06685373932123184, 0.005176182370632887, -0.028007879853248596, -0.23237216472625732, -0.11586356163024902, -0.2766864597797394, -0.29233384132385254, -0.4067862331867218, -0.34660837054252625, 0.30052247643470764, 0.31731101870536804, 0.16918852925300598, 0.11300461739301682, -0.06559789925813675, 0.2598596513271332, -0.4552077054977417, 0.20923654735088348, -0.027936099097132683, 0.2948771119117737, -0.43921518325805664, 0.23101840913295746, -0.17026816308498383, -0.3825758695602417, -0.2351563423871994, -0.2513514757156372, 0.17807355523109436, -0.01753770187497139, 0.2516215145587921, 0.23269464075565338, 0.10707797855138779, 0.3180674612522125, -0.4208056926727295, -0.13995978236198425, -0.3236180543899536, -0.16082873940467834, -0.2056327909231186, -0.1260569840669632, -0.06142581254243851, -0.22209398448467255, 0.37754136323928833, 0.5569162964820862, -0.1410336196422577, -0.38656285405158997, -0.10942371934652328, -0.21262863278388977, -0.12962748110294342, 0.05634365230798721, 0.3644351661205292, -0.15837036073207855, -0.3454560935497284, 0.22158850729465485, -0.12450404465198517, 0.20775683224201202, -0.2813788056373596, 0.02752460166811943, 0.2258603870868683, -0.20697084069252014, 0.006747125647962093, 0.07560519874095917, -0.0071893250569701195, 0.19726482033729553, 0.32691511511802673, 0.1969168484210968, 0.25508925318717957, -0.17822454869747162, -0.013355012983083725, 0.04477515071630478, -0.10525469481945038, -0.3804096579551697, -0.29297083616256714, 0.30864521861076355, -0.17427992820739746, -0.03824461251497269, -0.1943691521883011, 0.0860850065946579, -0.28566649556159973, -0.006233409978449345, -0.08421927690505981, 0.2775053381919861, 0.36977487802505493, -0.015686556696891785, -0.10530906915664673, 0.4042704701423645, -0.19525818526744843, 0.13219207525253296, -0.09170947223901749, -0.09258569031953812, 0.3478645980358124, -0.48441168665885925, -0.4074687659740448, 0.06332621723413467, 0.22946010529994965, 0.032523129135370255, 0.5748655200004578, -0.2703642249107361, 0.33301419019699097, 0.3912976384162903, 0.16759313642978668, 0.27513208985328674, -0.40033650398254395, -0.2627357840538025, 0.16320854425430298, -0.48095613718032837, -0.05033909156918526, 0.2610004246234894, -0.0678858682513237, -0.01596006378531456, -0.28448379039764404, 0.26660457253456116, -0.28470417857170105], [-0.020835669711232185, 0.0675976574420929, -0.08003178238868713, -0.1806248128414154, -0.10865136981010437, 0.047140609472990036, 0.020174702629446983, 0.005226059816777706, 0.05769478157162666, 0.04444945231080055, -0.08730083703994751, -0.05366401746869087, 0.19676557183265686, 0.02305564656853676, 0.12441980093717575, -0.048437025398015976, -0.15549300611019135, 0.06357135623693466, 0.023431872949004173, 0.08038277924060822, 0.10004353523254395, 0.08729574829339981, -0.13159707188606262, 0.04136823117733002, -0.004672434646636248, 0.005124056711792946, 0.029116792604327202, -0.09228836745023727, -0.15751181542873383, -0.09060204774141312, 0.17295843362808228, 0.07064968347549438, -0.023341402411460876, 0.06371008604764938, -0.0169676560908556, -0.037248093634843826, -0.15899470448493958, 0.07624813914299011, 0.18753378093242645, 0.14291970431804657, 0.13659103214740753, -0.13296912610530853, 0.11810733377933502, -0.03824293240904808, 0.08189394325017929, -0.07116246968507767, -0.1754848062992096, 0.1189659908413887, 0.06741712242364883, 0.05634026229381561, 0.08508850634098053, 0.05308666080236435, -0.1325097680091858, 0.016834311187267303, 0.06687543541193008, -0.20918743312358856, -0.010929372161626816, 0.20372477173805237, -0.1067531481385231, -0.12888985872268677, 0.11881192773580551, -0.0003062332980334759, -0.03750107064843178, 0.08815793693065643, -0.07320025563240051, -0.19775184988975525, -0.06803562492132187, 0.05499639734625816, 0.013419040478765965, 0.06492826342582703, -0.08994152396917343, -0.05816393345594406, 0.09564051032066345, 0.06757562607526779, -0.15042804181575775, 0.13506437838077545, 0.10825709998607635, 0.04436327889561653, 0.0545034222304821, 0.14109563827514648, -0.03883671760559082, 0.02511422149837017, 0.0004606479196809232, -0.06581443548202515, 0.009429482743144035, 0.006195013411343098, 0.14433684945106506, 0.115153007209301, -0.014220323413610458, -0.001415374455973506, 0.13861379027366638, -0.03825961425900459, -0.11016741394996643, 0.04497014358639717, -0.005320573691278696, -0.11803853511810303, -0.011682795360684395, -0.14063508808612823, -0.031864602118730545, -0.03780115395784378, -0.08399366587400436, 0.17623044550418854, 0.057110149413347244, 0.0383467935025692, -0.04852203652262688, -0.03512640669941902, 0.07801920920610428, 0.1283455193042755, -0.023431740701198578, -0.03553308546543121, 0.13552223145961761, -0.01729852333664894, 0.21327555179595947, -0.028583521023392677, -0.29235294461250305, 0.04369863122701645, 0.04902112856507301, 0.040346693247556686, 0.06224249303340912, -0.009491204284131527, -0.0899067148566246, 0.04736308380961418, 0.1319054216146469, 0.03996480256319046, 0.14522787928581238, 0.006651849951595068, -0.03848627954721451, 0.002916541649028659], [-0.0655277669429779, 0.024591073393821716, 0.19528543949127197, 0.07963462173938751, 0.09418580681085587, 0.020764445886015892, -0.008433395065367222, -0.10885843634605408, -0.16915975511074066, 0.1117422953248024, -0.15458784997463226, -0.11318913847208023, -0.14246903359889984, -0.11706075817346573, -0.09689320623874664, 0.04718952253460884, -0.15197643637657166, 0.07710547000169754, -0.17692860960960388, -0.0013764607720077038, 0.05096011236310005, -0.19292683899402618, 0.07817640900611877, -0.027808750048279762, 0.16832812130451202, 0.08275031298398972, -0.16420041024684906, 0.071339450776577, 0.0023392662405967712, 0.09043803066015244, 0.014502777718007565, 0.07387474924325943, 0.17814986407756805, 0.12852606177330017, 0.13756078481674194, -0.062049176543951035, 0.11079525947570801, -0.029241638258099556, -0.1589697301387787, -0.040632180869579315, 0.1074911430478096, -0.13565392792224884, 0.017761342227458954, 0.026647938415408134, 0.05023624002933502, -0.09859447926282883, 0.1288444548845291, -0.08920860290527344, -0.01112851221114397, -0.07909462600946426, -0.12153380364179611, -0.13847558200359344, -0.13791394233703613, 0.10732545703649521, -0.018149172887206078, 0.17414526641368866, 0.01990942656993866, -0.030819162726402283, -0.07700978964567184, 0.12242227047681808, 0.07202748209238052, 0.1080084815621376, -0.1599980741739273, 0.07729540020227432, 0.09437132626771927, 0.08214804530143738, -0.018639784306287766, 0.05415462329983711, 0.043650608509778976, 0.04162675514817238, 0.14017681777477264, 0.11319556087255478, -0.027965622022747993, -0.15147018432617188, 0.03476231172680855, 0.008182062767446041, -0.17624835669994354, 0.11988737434148788, -0.263276070356369, -0.05938103795051575, 0.19526301324367523, -0.0237751342356205, 0.04574785754084587, 0.026498666033148766, 0.10659486055374146, 0.035546883940696716, -0.044197775423526764, -0.041267137974500656, 0.005856960546225309, -0.03669821098446846, -0.17303213477134705, 0.23461733758449554, 0.07016919553279877, 0.16681712865829468, -0.09865762293338776, 0.18516746163368225, 0.10628221929073334, -0.0063148923218250275, -0.01715455949306488, 0.13987645506858826, 0.17731930315494537, 0.04418042674660683, 0.07196982204914093, 0.10191043466329575, -0.01690656505525112, -0.08675715327262878, 0.04370975121855736, 0.06795363128185272, 0.02243213728070259, -0.1484210044145584, 0.10220225155353546, -0.06251776218414307, 0.0401180125772953, -0.10249438136816025, -0.07976149767637253, -0.013777842745184898, -0.018952270969748497, -0.06376594305038452, 0.0741172805428505, -0.014314886182546616, -0.027393972501158714, 0.06879529356956482, -0.004417935386300087, 0.02306981198489666, 0.019827071577310562, 0.08335213363170624, -0.06088254973292351, 0.026026958599686623], [0.04254244640469551, -0.02568114921450615, -0.11419925838708878, 0.0948878601193428, 0.12408652901649475, 0.19946131110191345, -4.33681343565695e-05, 0.15199944376945496, -0.18803425133228302, 0.10781394690275192, 0.04995683580636978, 0.03104872815310955, -0.11774235963821411, 0.07842106372117996, -0.2522515654563904, 0.0021384081337600946, 0.05346783250570297, 0.20183925330638885, -0.19542087614536285, -0.17994365096092224, 0.20002683997154236, -0.13353896141052246, 0.06384912133216858, 0.051150836050510406, 0.137045219540596, -0.06293594837188721, 0.18212290108203888, 0.13632915914058685, 0.1117069199681282, -0.1007276251912117, -0.030605368316173553, -0.20384807884693146, -0.167259082198143, -0.10642382502555847, 0.030605018138885498, 0.18686361610889435, -0.1623484045267105, -0.09868967533111572, 0.0554976686835289, -0.001958191394805908, 0.15160484611988068, 0.07007413357496262, -0.14024266600608826, -0.05046447366476059, 0.11567805707454681, -0.11714913696050644, -0.042400192469358444, -0.24162882566452026, -0.15934161841869354, -0.09322784096002579, 0.12046769261360168, 0.05787086486816406, 0.11479233205318451, 0.019715577363967896, 0.10361895710229874, 0.026650698855519295, 0.04276249185204506, 0.01871418207883835, -0.030193161219358444, 0.13286171853542328, -0.24496062099933624, -0.04860476404428482, 0.2144763171672821, -0.05309310927987099, 0.030048443004488945, 0.08090633898973465, -0.04522902891039848, -0.17521962523460388, 0.06302858889102936, -0.02489008568227291, -0.06044301018118858, -0.040150318294763565, 0.16805337369441986, -0.002796925138682127, 0.01686002127826214, -0.0521773137152195, 0.006774729583412409, -0.11547444760799408, 0.019130000844597816, 0.17693448066711426, -0.07216892391443253, 0.07355140149593353, -0.19722744822502136, 0.17195117473602295, 0.04718038812279701, 0.007910984568297863, -0.03051021322607994, -0.027680646628141403, 0.035285625606775284, -0.04503505304455757, -0.002160494914278388, -0.0783393383026123, -0.07791607826948166, -0.06091073155403137, -0.1550273299217224, -0.32521525025367737, 0.09949941188097, 0.0613672100007534, -0.12546910345554352, -0.22101172804832458, -0.06762908399105072, -0.13062310218811035, 0.021968143060803413, 0.020038358867168427, 0.16789808869361877, -0.17140719294548035, 0.08157601952552795, 0.05339666083455086, -0.12286831438541412, 0.050394751131534576, 0.09528783708810806, -0.1078253760933876, 0.005543929059058428, 0.1021953895688057, 0.11208716779947281, 0.02138744294643402, -0.059621911495923996, -0.19260099530220032, -0.021499523892998695, 0.029750362038612366, -0.18510399758815765, 0.13136611878871918, -0.18610429763793945, 0.0926627665758133, -0.10347749292850494, 0.07180968672037125, 0.10789402574300766, -0.1674678921699524], [-0.3687079846858978, -0.875476598739624, 2.23828387260437, 1.7302789688110352, -0.43365344405174255, 0.45489537715911865, -1.0115587711334229, -1.877987027168274, -1.377426266670227, -0.0026304018683731556, -3.2987751960754395, 0.41472238302230835, 1.3308513164520264, -1.7077564001083374, -2.3842036724090576, 0.3805834650993347, -0.6289402842521667, -1.488450050354004, -1.2980036735534668, 1.2809972763061523, -0.08700528740882874, -0.5687417387962341, 0.7590528130531311, 1.9078631401062012, -0.2100774496793747, 2.1012837886810303, -0.5360081791877747, 0.41544559597969055, 1.4680498838424683, -0.19556818902492523, 0.4232292175292969, -1.201865315437317, 1.320725917816162, 1.7883226871490479, -2.8766932487487793, 0.0068577188067138195, 1.4467658996582031, -1.6972217559814453, -0.6387389302253723, -0.6218641400337219, 1.4495457410812378, 0.6515173316001892, -0.16896483302116394, 0.6909406185150146, -0.5534597635269165, 0.664527952671051, 2.368072986602783, 0.6832141876220703, 1.769033432006836, -0.005129883997142315, 1.0030832290649414, 1.6771494150161743, 2.138200283050537, 1.1899337768554688, 1.788277506828308, -0.4361414313316345, -0.30838167667388916, 0.8823754787445068, -0.8568418622016907, -1.3237701654434204, 1.3403716087341309, -0.22133587300777435, -2.611534833908081, -0.008135098963975906, -0.709053635597229, -1.8734428882598877, -0.30900436639785767, 0.21139346063137054, 0.36361899971961975, 1.7267920970916748, 1.0044384002685547, -1.184005856513977, -1.3354285955429077, -1.349663257598877, -0.9749988913536072, -0.8602662682533264, 0.22684846818447113, -1.458997130393982, -0.697093665599823, 1.6146314144134521, 1.1170848608016968, -0.9428034424781799, 0.549647331237793, -0.9911693334579468, -1.3898451328277588, 1.2794793844223022, -1.1762733459472656, 1.8972207307815552, 1.4720335006713867, -0.3732990026473999, -0.18672426044940948, 1.4718246459960938, 2.539381265640259, -0.0397510901093483, 0.2980117201805115, 0.1186969205737114, -2.166367769241333, 2.1931653022766113, 1.304949402809143, -0.5377256870269775, 1.7592353820800781, 2.288196325302124, -1.1219794750213623, 0.9674954414367676, 0.7250149250030518, -0.4849631190299988, -0.8841066360473633, 0.03355877846479416, -0.19501151144504547, 1.1025514602661133, 0.08025697618722916, 0.7812731862068176, 0.15117788314819336, -0.04439608007669449, 0.22881396114826202, -2.061811685562134, -0.16406956315040588, -1.6185319423675537, -0.6357008218765259, 0.46411943435668945, -1.0522997379302979, -1.574583888053894, 1.0358799695968628, 1.502446174621582, 0.77809739112854, 1.4254940748214722, 0.9934103488922119, -0.9731043577194214], [0.460190087556839, 0.89063560962677, 1.6193373203277588, 0.7776961922645569, 1.7976502180099487, 0.6513745784759521, -1.0122969150543213, 0.01319675799459219, -2.1854054927825928, 0.19596055150032043, -1.43792724609375, -0.18741697072982788, -1.0717130899429321, 1.1899334192276, -0.8196224570274353, 2.184293031692505, 1.0813930034637451, 